<?xml version="1.0"?>
<opencv_storage>
<opencv_ml_ann_mlp>
  <format>3</format>
  <layer_sizes>
    128 45 31</layer_sizes>
  <activation_function>SIGMOID_SYM</activation_function>
  <f_param1>1.</f_param1>
  <f_param2>1.</f_param2>
  <min_val>-9.4999999999999996e-01</min_val>
  <max_val>9.4999999999999996e-01</max_val>
  <min_val1>-9.7999999999999998e-01</min_val1>
  <max_val1>9.7999999999999998e-01</max_val1>
  <training_params>
    <train_method>RPROP</train_method>
    <dw0>1.0000000000000001e-01</dw0>
    <dw_plus>1.2000000000000000e+00</dw_plus>
    <dw_minus>5.0000000000000000e-01</dw_minus>
    <dw_min>1.1920928955078125e-07</dw_min>
    <dw_max>50.</dw_max>
    <term_criteria>
      <epsilon>9.9999997473787516e-05</epsilon>
      <iterations>10000</iterations></term_criteria></training_params>
  <input_scale>
    1.1753811916922546e-02 -3.8244123506029704e-01
    1.0425067345318624e-02 -4.5354647827052857e-01
    9.1617037169738000e-03 -5.6438065155422468e-01
    8.8159185322334369e-03 -6.1076304412021543e-01
    8.3793236134111510e-03 -6.9233035102635787e-01
    9.6639325302515372e-03 -5.1229233735634494e-01
    1.2306670050565831e-02 -3.5993701653267807e-01
    2.4090860068625777e-02 -1.6734081294980915e-01
    9.9121125819844873e-03 -4.9102260930325303e-01
    8.0510790331404618e-03 -7.9471941423902615e-01
    7.8718307533321794e-03 -1.0892751609100195e+00
    7.8699244707800802e-03 -1.0861341998114229e+00
    8.3415989506269266e-03 -1.4256958636582258e+00
    7.8613876561656089e-03 -1.0705857490896500e+00
    8.7450085042503171e-03 -6.2183592729685322e-01
    1.6966510760931836e-02 -2.4501101023582211e-01
    9.2278866943805767e-03 -5.5664993930618312e-01
    7.8584347053172448e-03 -9.3946319412599066e-01
    8.3100110023165766e-03 -1.4096638018553367e+00
    8.4341349392367468e-03 -1.4708043058552855e+00
    9.0201303794619613e-03 -1.7180923606643999e+00
    8.3233890807425156e-03 -1.4164976234506645e+00
    8.0915415184250085e-03 -7.7800606728770350e-01
    1.4431507109485682e-02 -2.9545795200495417e-01
    9.2768483641767745e-03 -5.5112459367824385e-01
    7.8932860547571114e-03 -8.9312956079794714e-01
    8.0915415184250102e-03 -1.2853370199106740e+00
    8.2629554459098340e-03 -1.3850668004977247e+00
    8.6585740680438176e-03 -1.5716708477704053e+00
    8.2754821964548253e-03 -1.3917047478769191e+00
    8.0650657173575082e-03 -7.8872873870286597e-01
    1.4092809289468922e-02 -3.0398038101800706e-01
    9.0371235475253074e-03 -5.7983350761380115e-01
    7.8801236980851359e-03 -9.0748521297303009e-01
    8.0855118355628638e-03 -1.2814232144554951e+00
    8.2925402470088467e-03 -1.4006367978496232e+00
    8.3988539773905344e-03 -1.4539048406667763e+00
    8.2671058269926049e-03 -1.3872736939359849e+00
    8.0402545277048869e-03 -7.9952982658295479e-01
    1.3881612274442113e-02 -3.0957488018487034e-01
    9.0804680292116795e-03 -5.7431519298734512e-01
    7.8472211589823478e-03 -9.6824583655185426e-01
    8.2968689772064137e-03 -1.4028845663072136e+00
    8.6145761763456730e-03 -1.5526615684721095e+00
    9.0117063454733266e-03 -1.7148405074821662e+00
    8.3279014168891052e-03 -1.4187878499913009e+00
    8.0594098245797361e-03 -7.9112206761923021e-01
    1.4673471605042447e-02 -2.8968272975116055e-01
    8.8832366612512387e-03 -6.0081245805666983e-01
    7.8462041243623458e-03 -1.0283589470091681e+00
    8.5146605553071963e-03 -1.5081935841674778e+00
    8.7658652779007574e-03 -1.6167837323852869e+00
    8.9867206582768446e-03 -1.7051577713543355e+00
    8.7177395754865720e-03 -1.5967524293423470e+00
    7.9628671245060064e-03 -8.3986842606752055e-01
    1.4490722039698693e-02 -2.9402142461195091e-01
    9.2570908188860032e-03 -5.5333513830308911e-01
    7.8606247621301282e-03 -9.3541434669348522e-01
    8.5722734432061073e-03 -1.5340682464008522e+00
    9.0286026736423209e-03 -1.7213564946919568e+00
    9.0629808923524749e-03 -1.7345376011073299e+00
    8.3939289431661113e-03 -1.4515179060644883e+00
    8.0855118355628655e-03 -7.8038230361303529e-01
    1.4431507109485682e-02 -2.9545795200495417e-01
    9.4004410003457571e-03 -5.3784673723483634e-01
    7.8621670112962068e-03 -9.3272353371646299e-01
    8.6585740680438176e-03 -1.5716708477704053e+00
    9.7390776318232574e-03 -1.9778705293789878e+00
    9.8982791377532995e-03 -2.0319144840736372e+00
    8.5604896086950450e-03 -1.5288298054926452e+00
    8.0594098245797361e-03 -7.9112206761923021e-01
    1.3780037813700534e-02 -3.1234752377721214e-01
    9.2182655849285464e-03 -5.5775462845583801e-01
    7.8521990275735448e-03 -9.5307121100268999e-01
    8.5488377406431511e-03 -1.5236235005501100e+00
    9.0892872792094313e-03 -1.7445567519772940e+00
    9.6886657377271979e-03 -1.9605483926697649e+00
    8.6779653181454017e-03 -1.5799495566326660e+00
    8.0429304828467350e-03 -7.9832571276514208e-01
    1.3881612274442113e-02 -3.0957488018487034e-01
    9.2375643307215632e-03 -5.5554513227662050e-01
    7.8433004886606771e-03 -1.0064725594803927e+00
    8.4496944179966796e-03 -1.4781513815740643e+00
    8.5202766235608421e-03 -1.5107458228227773e+00
    8.9064459714995464e-03 -1.6736456967518931e+00
    8.4708593071291631e-03 -1.4880476182856897e+00
    8.0510790331404618e-03 -7.9471941423902615e-01
    1.3490159615311074e-02 -3.2057261021330613e-01
    9.0629808923524766e-03 -5.7652252644255109e-01
    7.8434778405920662e-03 -9.9072402358532263e-01
    8.2797083893876335e-03 -1.3939289704585180e+00
    8.3279014168891052e-03 -1.4187878499913009e+00
    8.9867206582768446e-03 -1.7051577713543355e+00
    8.7244996016989287e-03 -1.5995854054684777e+00
    7.9753980391964949e-03 -8.3244288996215454e-01
    1.3220616512754123e-02 -3.2866736965040355e-01
    9.1432841969583834e-03 -5.6658867555990500e-01
    7.8570567194111741e-03 -9.4217093048250977e-01
    8.1998924692739394e-03 -1.3505134726007411e+00
    8.2306465277039234e-03 -1.3676148472323519e+00
    8.6332211217045457e-03 -1.5607564163356831e+00
    8.5663649448078777e-03 -1.5314449846492020e+00
    7.9886014915426795e-03 -8.2505932608889720e-01
    1.2175395476065868e-02 -3.6500002782012514e-01
    9.2570908188860032e-03 -5.5333513830308911e-01
    7.8496927476586799e-03 -9.5994145827013089e-01
    8.0220802914517039e-03 -1.2376430970080543e+00
    8.0072690299829771e-03 -1.2265758559262097e+00
    8.2797083893876335e-03 -1.3939289704585180e+00
    8.0855118355628638e-03 -1.2814232144554951e+00
    7.9588380199761589e-03 -8.4235314656586380e-01
    1.1782128360379750e-02 -3.8120886275680282e-01
    9.6762602901654896e-03 -5.1117706242562422e-01
    8.1197283079960519e-03 -7.6735797955889562e-01
    7.8431876346043324e-03 -9.9642217099838915e-01
    7.8835104337677629e-03 -1.1067431421857195e+00
    7.9732631016237142e-03 -1.1995045597292191e+00
    7.8823646722290287e-03 -1.1051414296902615e+00
    8.0679244539676263e-03 -7.8753352895825923e-01
    1.1839547043391727e-02 -3.7873819843107942e-01
    1.0373435274217245e-02 -4.5698886363944141e-01
    9.4219152090891899e-03 -5.3563081409090907e-01
    8.4925114819805261e-03 -6.6752966594922203e-01
    8.1165104215487095e-03 -7.6853753518449397e-01
    8.2466036001959432e-03 -7.2658784838715651e-01
    8.0429304828467350e-03 -7.9832571276514208e-01
    8.5722734432061055e-03 -6.5186148161670521e-01
    1.2622208894062818e-02 -3.4840011001138982e-01</input_scale>
  <output_scale>
    5.2631578947368418e-01 4.9999999999999994e-01 5.2631578947368418e-01
    4.9999999999999994e-01 5.2631578947368418e-01 4.9999999999999994e-01
    5.2631578947368418e-01 4.9999999999999994e-01 5.2631578947368418e-01
    4.9999999999999994e-01 5.2631578947368418e-01 4.9999999999999994e-01
    5.2631578947368418e-01 4.9999999999999994e-01 5.2631578947368418e-01
    4.9999999999999994e-01 5.2631578947368418e-01 4.9999999999999994e-01
    5.2631578947368418e-01 4.9999999999999994e-01 5.2631578947368418e-01
    4.9999999999999994e-01 5.2631578947368418e-01 4.9999999999999994e-01
    5.2631578947368418e-01 4.9999999999999994e-01 5.2631578947368418e-01
    4.9999999999999994e-01 5.2631578947368418e-01 4.9999999999999994e-01
    5.2631578947368418e-01 4.9999999999999994e-01 5.2631578947368418e-01
    4.9999999999999994e-01 5.2631578947368418e-01 4.9999999999999994e-01
    5.2631578947368418e-01 4.9999999999999994e-01 5.2631578947368418e-01
    4.9999999999999994e-01 5.2631578947368418e-01 4.9999999999999994e-01
    5.2631578947368418e-01 4.9999999999999994e-01 5.2631578947368418e-01
    4.9999999999999994e-01 5.2631578947368418e-01 4.9999999999999994e-01
    5.2631578947368418e-01 4.9999999999999994e-01 5.2631578947368418e-01
    4.9999999999999994e-01 5.2631578947368418e-01 4.9999999999999994e-01
    5.2631578947368418e-01 4.9999999999999994e-01 5.2631578947368418e-01
    4.9999999999999994e-01 5.2631578947368418e-01 4.9999999999999994e-01
    5.2631578947368418e-01 4.9999999999999994e-01</output_scale>
  <inv_output_scale>
    1.8999999999999999e+00 -9.4999999999999996e-01
    1.8999999999999999e+00 -9.4999999999999996e-01
    1.8999999999999999e+00 -9.4999999999999996e-01
    1.8999999999999999e+00 -9.4999999999999996e-01
    1.8999999999999999e+00 -9.4999999999999996e-01
    1.8999999999999999e+00 -9.4999999999999996e-01
    1.8999999999999999e+00 -9.4999999999999996e-01
    1.8999999999999999e+00 -9.4999999999999996e-01
    1.8999999999999999e+00 -9.4999999999999996e-01
    1.8999999999999999e+00 -9.4999999999999996e-01
    1.8999999999999999e+00 -9.4999999999999996e-01
    1.8999999999999999e+00 -9.4999999999999996e-01
    1.8999999999999999e+00 -9.4999999999999996e-01
    1.8999999999999999e+00 -9.4999999999999996e-01
    1.8999999999999999e+00 -9.4999999999999996e-01
    1.8999999999999999e+00 -9.4999999999999996e-01
    1.8999999999999999e+00 -9.4999999999999996e-01
    1.8999999999999999e+00 -9.4999999999999996e-01
    1.8999999999999999e+00 -9.4999999999999996e-01
    1.8999999999999999e+00 -9.4999999999999996e-01
    1.8999999999999999e+00 -9.4999999999999996e-01
    1.8999999999999999e+00 -9.4999999999999996e-01
    1.8999999999999999e+00 -9.4999999999999996e-01
    1.8999999999999999e+00 -9.4999999999999996e-01
    1.8999999999999999e+00 -9.4999999999999996e-01
    1.8999999999999999e+00 -9.4999999999999996e-01
    1.8999999999999999e+00 -9.4999999999999996e-01
    1.8999999999999999e+00 -9.4999999999999996e-01
    1.8999999999999999e+00 -9.4999999999999996e-01
    1.8999999999999999e+00 -9.4999999999999996e-01
    1.8999999999999999e+00 -9.4999999999999996e-01</inv_output_scale>
  <weights>
    <_>
      6.7604563018280672e-01 2.9443202580586131e-01
      6.0129329868891057e-01 -3.3113059141998580e-01
      -2.1319515023529659e-01 -1.8206058181134421e-01
      -4.7771283924934743e-01 1.5112829217957639e-02
      2.3362231963751437e-02 -2.3953296187737577e-01
      1.5152923347819833e-01 -2.9976085896800769e-01
      4.4823777628482192e-01 5.6516696833846591e-01
      -1.1179126574693345e-01 1.2338288875873107e-01
      2.5521471464199047e-01 -1.4688317180374744e-01
      -2.2433910387681156e-02 -1.2421517567997795e-01
      2.7254187922627804e-01 5.1090817420673695e-01
      3.8239025896962930e-01 -7.4098222759894061e-01
      -3.9608109037694533e-01 1.0410909703179734e-01
      -3.7879105389722267e-01 -7.3743417315916077e-02
      -2.5961501769235601e-01 2.9689124037847331e-01
      -1.8006804807329435e-01 3.5222765397195557e-02
      1.3014051095521695e-01 -5.5667822790843791e-01
      3.1872377438091859e-01 -1.8764022450062579e-01
      -6.5620360773355335e-01 3.5202192331962517e-01
      2.4722461511630114e-02 -5.4396882833797434e-02
      -3.7433223068667332e-01 -5.1579735695350770e-01
      4.9736112206669025e-01 -1.7416912973992851e-02
      -7.4076281647545916e-01 -7.5202506463089713e-01
      3.9753120249626933e-02 3.3360068721091612e-01
      1.1475273711600711e-01 1.1122833817347288e-01
      -2.1951232884436347e-01 -3.7155052187863608e-01
      1.7304142733644409e-01 -8.9103909749690691e-01
      -3.9590240964454543e-02 1.4049960268998021e-01
      1.2338217342776379e-01 6.7811298030004533e-02
      5.5030879140907742e-02 -2.3914939898092441e-01
      6.8483179323570384e-02 -4.3171091128292052e-02
      1.3152753975650952e-01 -1.3547352824753317e-01
      1.1350627585518374e-02 -3.6824663895578244e-02
      2.8154934957879341e-01 2.4571353010715594e-01
      -5.2190848981500414e-02 2.7792193542041604e-01
      9.4259903253613858e-02 2.2633464355097013e-01
      -4.6905034681252643e-02 -4.7264119615567063e-01
      -6.8419089247210617e-03 1.1914288658576309e-01
      -3.2345401976020025e-02 2.4403643807698383e-01
      -3.0207781992916055e-01 9.1066214577090965e-02
      7.6668676507268994e-03 2.2374881977672226e-01
      2.9625821652754653e-02 -1.0415851798878850e-01
      1.5544220331011377e-01 -4.9072407011278540e-01
      -4.3433364702642463e-01 -1.1850600995953311e+00
      -2.0709418712357966e-01 -3.5303391864773687e-01
      -3.1912622691150294e-01 -3.3523332858383820e-01
      2.5659831812337625e-01 2.2584162926529583e-01
      1.4688829282495000e-01 1.6843980611976520e-01
      6.3002895534380754e-01 -7.3254484915961449e-01
      -5.8794671284333098e-02 -6.7558045740163011e-02
      3.1580856474271612e-01 -8.5118073724882476e-02
      -1.4472168084474157e-01 -3.6172457023670956e-01
      2.1706341836926543e-01 2.7727484737976347e-02
      -4.2648498357379043e-02 1.1371941883242796e-01
      -6.9065849303505386e-02 8.5544014976362999e-03
      -1.1501240626103679e-01 -6.8880001247300870e-01
      -6.2806471088773885e-01 5.7559162307138374e-02
      -1.9346476703888948e-01 4.9289046295549832e-01
      5.0844431193588846e-01 -2.7266085101552717e-01
      2.1749403747194385e-01 -4.1526571699222642e-01
      1.0829952309799626e+00 -2.5670116275236421e-01
      -6.2291258742096189e-01 6.0749929842603315e-02
      -1.1854338301250720e+00 -3.1751651165958572e-01
      -3.4393909470187328e-01 2.2814673495319335e-01
      8.4948507605343393e-02 -8.1747377261715970e-01
      -8.7314643209844015e-02 -6.3341322498259800e-01
      -1.7109886786600184e-01 5.9452564967518405e-02
      -8.3443321357121103e-01 -3.6433251653258930e-01
      1.5263867158437258e-01 -3.1643819518025133e-02
      -1.5767994205605315e-01 8.2155540692451445e-01
      2.5680517468042119e-01 4.2392078057863830e-01
      -1.5641601943412078e-01 3.6117277206603643e-01
      1.5824139976904069e-02 8.4468994931456387e-01
      -1.0284918354770568e-01 5.1618607014964224e-01
      5.6002070786099112e-01 -2.7122559669832680e-01
      1.1597987898635428e-01 4.6273911986666516e-01
      5.0659421436844716e-02 -6.2674284729831511e-02
      -1.3634999276655352e-01 1.0689000824335137e-02
      -5.8190996907851533e-01 4.2875946659182279e-01
      -3.1382003268418823e-01 5.0003309697408738e-01
      -6.3078147917993366e-01 1.0781576378183889e-01
      -1.3300446550409561e-01 -7.2893400183735482e-02
      -2.9123775309532485e-01 3.5608268216258215e-01
      -3.1538919680180066e-01 3.8071919302664792e-01
      2.0263414717580688e-01 2.5587494871425831e-01
      -1.7578377022667091e-01 -1.8222537604753292e-01
      1.5144719011008817e-01 -1.4277968869342223e-02
      -3.9391552695797105e-01 -4.4530273073760573e-01
      -5.7141833801418773e-01 -2.5254039162547504e-01
      4.1550136425926304e-01 -8.2975809645738274e-01
      6.7025720446246315e-02 -9.5845840117104869e-02
      1.8718059607904264e-01 2.4636439575188510e-01
      2.4014387712875080e-02 2.1793796891342282e-02
      -1.3978591501376139e-01 -3.2979752832425525e-02
      3.9819518343621985e-01 -6.6335647057080072e-01
      -1.3899237877470936e-02 -1.2446374172035846e-01
      2.0417771358598938e-01 1.5511382015519599e+00
      1.7133909106525672e-01 1.2627368883143408e-01
      -5.2910184118188763e-01 6.2836613472019109e-01
      1.7291236340279652e+00 9.0677330198139325e-02
      1.5693222429985190e-01 -3.2503979769770497e-01
      -2.1119818797618187e-01 8.2250700468273374e-01
      1.1521516165281369e-01 -3.8109591259441322e-01
      6.8361222997647617e-02 -4.4085363910832405e-02
      -1.1548321227174219e-01 3.4620719322213411e-01
      2.1121774451630507e-01 1.4201681778456765e-01
      1.4721264339073692e-01 6.1517226538123271e-01
      -4.1550468524485618e-01 -2.5914599891155365e-01
      -9.8678373487100610e-02 2.3673664472384146e-01
      -9.9805127390611773e-03 -3.0642482903159590e-01
      1.1285507671778265e-01 9.0969480076269660e-01
      -2.2260301081464376e-01 -1.8076162589346922e-01
      -3.3433890336211622e-02 -1.7937242739666404e-01
      -6.0259965147222128e-01 4.5067687041350640e-01
      1.7142331851816606e-01 1.6447346536196714e-02
      1.1962362130799155e-01 -5.4828903006139497e-02
      -2.1843406580388347e-01 7.5565123770557296e-02
      -1.2221698416591455e-01 -5.7162762518338378e-02
      -5.1250373018115902e-01 3.7715839327594883e-02
      -8.9489111035454649e-02 1.0351878141831113e-02
      1.0239290427147117e-01 -3.8772159525215932e-01
      -1.3135333685055596e-02 7.3524271761602061e-02
      -5.6619375926969240e-01 1.8425052134790475e-02
      -1.0622268126546341e-01 -1.0103775540815760e-01
      8.4179988418086260e-01 -1.3559128050763111e-01
      1.9023099108821728e-01 6.8743579275854588e-02
      -1.8242054708948689e-02 7.2105694460844627e-01
      -3.1833089160247957e-01 -9.4105348826990821e-03
      1.0042732602431912e-02 -5.0107086957293590e-01
      -1.2297554842544693e-01 4.7433358126141911e-01
      -3.2986495713847608e-01 -2.3379989708115778e-01
      1.2158046098076181e-01 -9.4255074125598484e-02
      1.0194841348872426e-01 -1.3991211410944886e+00
      8.5898858402599310e-01 1.9651521020120241e-01
      -1.6671988254892020e-01 4.7038689201780576e-01
      5.6086347347879990e-02 9.5013890457881764e-02
      -7.5048850913381882e-01 1.4413923107285265e-01
      5.8993474090922871e-01 6.4165626121385710e-02
      2.1591294051478988e-02 -1.7305151875871422e-02
      7.9862982542291394e-01 1.2368454037607395e+00
      5.8389037410966106e-02 4.6186651079782470e-01
      -1.2061044482776322e-01 -1.4513366584316960e+00
      1.1274749772993083e-01 1.7462083606301196e-01
      -2.3545159149630415e-01 6.1560868998468139e-02
      2.8149309135924966e-01 -1.7400119219021035e-01
      -4.7644385377454718e-01 7.5310062135195865e-02
      2.8359740505194653e-01 -8.4861610399412327e-02
      -3.5259259667871518e-01 1.6127551130494775e-02
      -1.0097474064859298e-01 7.0664888491945943e-01
      2.3925077304786105e-01 -3.1994109629524253e-01
      1.2211712431519443e-01 -2.6135144540385824e-01
      2.4340591771487735e-01 5.7591596723180510e-02
      9.6461408916644220e-01 5.5265478909647003e-01
      6.6998426773865694e-02 2.3941314773680750e-01
      3.2477731178484637e-01 8.5776783502262344e-01
      -2.5736714218770373e-01 1.5166253551724249e-01
      3.2550734484409449e-01 -2.0144405463838846e-01
      4.5950688309955950e-01 -1.1430540032239556e+00
      -1.0066086518046504e+00 -1.0298232188425256e+00
      -1.7038011830622649e-01 -6.6101032404561799e-01
      2.7773143848716511e+00 -1.1429012657312346e-01
      2.2517277286930507e-01 -4.5397721371452598e-01
      8.6305608924743404e-01 -1.5073608628851029e-02
      9.8681279615870232e-01 3.7825117864112845e-01
      1.3391744050102644e-01 -9.5031158067752072e-02
      -2.2754606889865400e-01 -8.8497964866257897e-02
      -7.3666330325257345e-01 7.4655453073069844e-01
      -8.4885212128487397e-01 -6.2945897817779217e-01
      -6.6749593768027726e-01 -2.6944527055140710e-01
      1.1076233174714936e-01 -3.1043986082979225e-01
      5.7864939442401397e-01 7.0609327528245738e-02
      -7.3948475766918198e-01 -1.0401480385822487e-01
      2.3837743555432243e-02 -1.6293163564837596e-01
      9.4899090784724327e-01 -7.1900088709838639e-01
      4.2662988953923825e-01 8.9867359745167019e-01
      -1.6973185249835709e-01 -2.9934691061096816e+00
      8.5722910806302802e-02 -2.7660263236208116e-01
      1.0491484205147388e+00 1.8734279267642187e+00
      1.5597967136179147e-01 5.1459916650231730e-01
      -4.3399182715410871e-02 2.0999061366512722e-01
      2.1149376644866433e-01 -9.3405383202406406e-02
      -2.9354666507375599e-01 -1.0354179467798627e-04
      -2.8670573427356022e-01 -4.2282025361108574e-02
      -1.1093993350226981e+00 -3.0714556051096020e-01
      -1.5513927406085044e-02 3.4652142436326838e-01
      1.0780910499599863e-01 -2.9584459746453012e-01
      -3.0681260939952121e-01 -4.7852764869091119e-01
      -3.9604671783871875e-01 5.5445869493644440e-02
      -6.2288800134047868e-02 -1.0891653739839244e-01
      6.2939847597522636e-02 1.4175129374810134e-02
      6.0838107651776954e-02 2.1730055987045455e-01
      -4.5656458188529231e-01 -4.4568014219168994e-01
      -2.2701009852072496e-01 -1.4076395233333650e-01
      1.9103024011681437e-02 -2.5581477602057612e-01
      -2.6768221403081792e-02 3.3253088724904588e-02
      3.4593710046535908e-01 6.1914350065765233e-02
      -2.0801179983195314e-01 -1.3076608150737643e+00
      -4.9518999069402755e-02 1.6020033667124642e-01
      1.6336543632396556e+00 2.2789664328472919e-01
      -3.1046149257686906e-01 4.9123118499041951e-01
      -1.9204235666350190e-02 -5.6532081472369755e-01
      7.1704793362824454e-02 -1.1052148532974115e-01
      -2.4979130125700222e-04 -3.4004987109181833e-01
      -2.9161013859928719e-01 5.0646352559209695e-01
      -9.8787790013285262e-02 -2.3383659716963986e-01
      1.8694233579715266e-01 -7.9054653455886037e-01
      -4.3619418337402815e-01 -4.5414647046516293e-02
      1.3879656359238338e-01 7.8097398517064809e-01
      4.0705182137417095e-01 -6.4569610661797394e-01
      -2.8290729001071019e-01 3.1254101832313481e-02
      -5.7730455662457721e-02 -1.5067705293469952e-01
      -1.5264332291044255e-01 -2.1930371691911657e-01
      -6.5330154918083860e-02 -4.4778960552399566e-01
      -6.4213952663348683e-01 1.8727818370141483e-01
      3.4607238293811203e-02 -1.3855474084973024e-01
      8.2307529801889892e-02 -1.4148089525602914e-01
      -8.6489492869584655e-02 -3.8603620299266023e-01
      2.5940498319279726e-01 2.4182753091066811e-01
      -1.5042242179059881e-02 -7.2343381011321017e-01
      -6.8121481518795457e-01 8.4424380218178816e-02
      5.5494240547976559e-01 1.5869420234870393e-01
      1.5665105034559326e-01 1.0015047634391511e-01
      -1.8077814354438762e-01 1.9182030639176625e-01
      -2.1793108185361729e-01 -3.4794597508160517e-02
      -1.4889928087119211e-01 -4.8895353278783654e-01
      2.7923843956186645e-01 -3.4248800127446000e-01
      5.2167449980048741e-02 -9.8197504148685083e-02
      2.5581740553404531e-01 -2.1270962209588993e-02
      -6.7622386529884344e-03 -7.1567556509710181e-02
      5.9618002431522399e-01 -2.8772508510535907e-02
      -5.1996226076936258e-01 -3.3337392221135947e-01
      7.3274635665072030e-01 -1.5676451644524936e-01
      6.6688783581974461e-03 -4.7274413742646203e-02
      2.2545372618039031e-02 -4.4801413203097640e-01
      4.2939658276579296e-01 -1.5143012590947341e-01
      -9.2699226709747895e-02 -4.9281356725120418e-01
      1.7495261648964425e-01 3.5233614479896680e-01
      2.6430380315161967e-01 1.3938645398456054e-01
      3.6282599731498438e-01 3.6156693934461559e-01
      3.6962572948601136e-01 2.0597408996174590e-01
      -7.0384020254646532e-02 6.1173436450314678e-01
      3.3189261914247764e-01 -3.4235725374920828e-01
      -5.7998326986978266e-01 -2.2180993532979063e-01
      -1.2961845314029663e-01 1.8730764322728785e-01
      4.5024019518609337e-01 1.9919726680242311e-01
      -2.7423780589835250e-01 -3.0628296961626011e-02
      -7.7529485449056967e-01 2.0836472114133245e-01
      -6.5182880992109371e-01 2.9886653696623866e-01
      -3.2087910308804629e-01 1.2333402773582480e-02
      -9.3748613541329157e-02 1.4017410133824829e-01
      4.0011833626801552e-01 -1.1787225918933739e-01
      2.6828421300771860e-01 8.9975217267349958e-02
      -8.6143624955311651e-02 7.0500844218912936e-02
      -9.1022399935682882e-02 7.3752813126472111e-02
      7.5942567823587570e-01 3.0070853547625748e-02
      -2.6854204800908088e-01 1.2142704908146294e-01
      -7.6426188321473035e-02 -2.2216038200582380e-01
      -3.3476595592681146e-01 -1.6832617313469717e-02
      -4.4654870534006613e-01 -8.0098318341764826e-02
      7.3036960698324729e-02 2.2496972328991519e-01
      2.0839532885651063e-01 3.1150233051631249e-01
      3.6505358515668945e-01 9.4883586228028882e-01
      3.4172639671391551e-02 -2.1841362605415215e-01
      -8.4330053667655769e-01 -1.4758736416670520e-01
      4.5359845621367428e-01 -8.9315466245964403e-01
      3.2842569846906512e-02 1.5274642374560574e-01
      -4.5105176910561151e-01 4.2119678706137892e-01
      -9.5768776658038693e-02 7.6261061375787531e-01
      6.6242130974804403e-01 -3.2573449772871194e-01
      1.2705702945478906e-01 -4.9030251793814622e-01
      2.8858945793064611e-02 3.0582319960115328e-02
      1.3821644741360378e-01 -1.1091044067903005e-01
      -4.3139607637985172e-01 3.1726164273621416e-01
      -5.6965113202341611e-01 3.5833452999083143e-01
      -3.2302603949082176e-01 -3.6941282886617183e-01
      4.2985744539584281e-01 1.6484364933754128e-01
      4.8068429134226415e-01 1.1204167692417076e-03
      -5.1095180818943764e-01 3.4262250333343514e-01
      -3.5718935926268285e-02 3.5281063474906227e-01
      8.1819433946979228e-02 -4.0497337350350704e-01
      5.7440212522914216e-02 1.0229839884374461e+00
      3.9313795781141464e-01 6.2492081549377576e-01
      4.3913127558574516e-02 3.5374636210233618e-01
      4.4530655703456837e-02 3.4112671397416033e-01
      -3.9764370834268342e-02 5.4627323463976984e-01
      -3.2313561705448196e-01 -4.2452213824699537e-03
      -9.6576807282783894e-02 -2.4106538211568598e-01
      6.9108014252038141e-01 -3.9785886898967221e-01
      2.1167953152462615e-01 9.2501306578319786e-02
      -4.2040868455101710e-01 3.3819039108136148e-02
      2.0067975315916217e-01 4.1719553062299380e-01
      3.1342127707815892e-01 2.5061605563000733e-01
      -1.7616470558063549e-01 1.1150935048532125e-01
      1.8866296503831118e-01 -4.0283656457093357e-02
      -1.2672910974078508e-01 -3.8862330060633021e-01
      -4.7060422430689995e-02 -3.3248808019311871e-01
      -5.5412037488092059e-01 -2.4560854355486875e-01
      -1.5681993008844425e-01 -1.1932899109186157e-01
      -1.7834621483163751e-01 8.7651884283619683e-02
      -1.9366967054219825e-01 -1.9473265028012740e-01
      -3.5609783200321148e-02 3.5906020481148008e-03
      1.8251966108965997e-02 3.4912029567361058e-01
      -1.0956433811165185e+00 -3.7930598488324911e-02
      -1.8431380788265897e-01 -1.4745475229490898e-01
      3.8132602691519374e-01 -1.4944794712419246e-01
      -2.7078960471620100e-01 -2.0084540762287079e-01
      6.9679607178374847e-01 3.3153317990917081e-01
      7.2007440821557980e-02 8.0885303167645403e-02
      -1.4440578972444673e-01 -1.8012843272291162e-01
      -7.8398860517587754e-01 5.1495264291541398e-01
      1.0377640922033700e-01 -3.9433344229636902e-01
      -2.1052953684751244e-01 -1.1605089767502022e-01
      4.6639476319296980e-01 -5.5379200048884658e-01
      -1.3304410070244196e-01 2.7929809123581334e-01
      -2.9072989209999147e-02 -1.6679676190765308e-01
      -5.9596423985892828e-02 1.5190141849328903e-01
      6.6848057908817399e-02 -1.9665763615019813e-01
      -1.2335207363899237e+00 -2.4012645877602506e-01
      -2.7186987453662631e-01 -1.8676933907700896e-01
      2.8946655743374089e-01 1.1628181386441079e-01
      2.0008711452138045e-01 -1.6650176970534980e-01
      8.5817588551105384e-02 -2.5169848267085841e-02
      -4.1449172552225161e-01 2.8614878786534959e-01
      -3.1259240301379589e-02 3.9646628292523545e-01
      -5.3024741749025273e-01 -4.4261934969627581e-01
      -4.6249378543126035e-01 -4.8578985291014273e-02
      -1.8600330874918275e-02 8.9875292436835105e-02
      -4.9334624104749245e-02 -1.5931671622109295e-01
      2.1920417981534820e-01 1.1227174061631569e+00
      4.2041245602695670e-01 -3.2592296213921085e-01
      -3.6140660909622896e-01 -9.1786884175810754e-02
      -1.3248322095123544e-01 1.6422304564076645e-01
      6.7874482647656964e-01 4.5010139351083327e-02
      3.9139168752912684e-01 1.7655250032873365e-01
      3.5029344177367450e-01 9.9776258087071479e-01
      -4.3141015059603960e-01 -4.5600821070911057e-01
      -2.4277505336872365e-01 4.2673968259337655e-02
      -5.7832907830333825e-02 1.2051452315780246e-01
      7.6905214038729175e-01 1.4566402409206427e+00
      -2.2813082708873803e-01 -7.2134881367955567e-02
      6.9372002491724249e-01 5.1226065802967347e-02
      -1.4239939063790433e-01 -8.9719891152462183e-01
      -1.6463803962860776e-01 -8.2094478287329398e-01
      9.0552621469338634e-01 4.1170462256364138e-01
      6.3240332500007726e-02 2.7222617031988422e-01
      -7.5539845700469610e-01 -3.0475495713841283e-01
      -1.5140396203196824e-01 1.0923060746477860e+00
      -6.6008617090535959e-01 -1.5792899761421972e-01
      -1.4629065286015758e-01 -2.0545269602082139e-01
      -4.6895803971321143e-01 -1.4729361208940761e-01
      4.1386221779748505e-01 3.1670263122859460e-01
      -2.5746171319195560e-01 2.9657515263178091e-01
      1.7383997523969480e-01 -1.0713449366864945e-01
      1.2184319645913202e+00 -4.7396599472519624e-01
      1.0357438651554030e+00 1.7208640889458898e-01
      -6.0574673192476995e-02 5.8442422367159075e-02
      -3.2322786697185785e-01 1.5908064530677524e-01
      3.9465728568111297e-01 7.0685471602930516e-01
      -1.9028248659365882e-01 -4.0439078981428643e-02
      -7.6088635152375583e-01 -1.7447175736629872e-01
      -2.1771567310079867e-01 -4.2848537308098997e-02
      -1.2790972356782793e+00 -3.9460177381520870e-02
      -3.3827639497615941e-01 2.6590266208575589e-02
      -3.8604346208806528e-01 -6.5695761284823795e-02
      8.0887847952880926e-02 -1.8751452895588311e-01
      2.8819301757168431e-01 -2.1318199652505637e-01
      1.5010719196765274e-01 -2.7666739835202420e-01
      8.7163041124176166e-02 -4.0568010855012165e-01
      -1.2898754731172182e-01 -2.9343516715580659e-01
      -1.3956645927240643e-01 -4.6152440819800952e-02
      -2.6404890664428731e-02 1.6763602898617148e-02
      1.7730153340572261e-01 -2.1403391175290176e-02
      4.6814513174345884e-01 -3.5835264676650741e-01
      7.3649336662343079e-02 -1.5743057970376043e-01
      -6.3179400840959798e-01 6.2156005067183433e-02
      2.6482236367298627e-03 4.2962972372387431e-01
      1.2003646657404098e-01 -3.5540588243005933e-01
      1.0018494989609655e-01 -9.0082453759046215e-03
      3.0589442469366287e-02 3.0642837120440791e-01
      4.7650552474339919e-01 -3.7955194072983145e-01
      -1.6019534618649009e-02 -2.2804845573087038e-01
      -1.7644855224506328e-02 -1.1851180418582224e-01
      -4.9774918171625056e-02 1.1532855916670209e-01
      6.9238253680892292e-01 -3.9910116563603776e-01
      -3.9877681632205753e-01 5.0270602859004199e-01
      5.6329438589469516e-01 -5.0745661908906758e-01
      -8.7304658047071645e-02 6.9267164099042733e-01
      -5.5886190575233623e-03 -1.7688963775562649e-01
      6.0894935815416967e-02 -4.1973140856643659e-01
      -4.3546645090891713e-02 3.1857259630357887e-01
      -2.0833794029475944e-01 3.8788077799425064e-01
      -3.3257439313068826e-01 -3.7575724526765254e-02
      2.7933123041241570e-01 -1.5187404690371881e-01
      7.7667633761964283e-02 2.2395491358026518e-02
      -1.4588833000531263e-02 7.9724854847159049e-02
      4.3119241576613254e-01 -1.1435463260298889e-01
      -1.7308166449134951e-01 -3.0657254198773726e-01
      -1.6591770190960398e-01 -3.5623744558666881e-01
      -6.3548114169754380e-02 9.0346716948800532e-02
      -1.9106977354879789e-01 2.7190092392388221e-01
      -5.6610120983078931e-03 3.1176365245580118e-01
      2.3303764244384317e-01 -4.3989961013265155e-01
      1.4520594281172239e-01 6.0105976932409788e-01
      6.7568922253952264e-03 2.1450434904739027e-01
      -5.7980409456187466e-02 1.1086751566237323e-01
      1.4415387346824779e-01 -9.3057210136696294e-02
      -1.8763839322027984e-01 -9.7970916534482838e-02
      -1.6877223951979083e-03 5.9332511494460571e-01
      -1.2235725349360690e-01 -5.0144910822797950e-01
      8.4262497860884494e-02 3.4435315721222076e-01
      4.9651260217621319e-02 -6.3089700717146957e-01
      -2.0981601657189455e-01 1.1211213260672209e-01
      -6.0137595455697399e-02 -2.9782804983411629e-02
      8.2741804221726356e-01 -3.0571014456951034e-01
      7.9321198767071249e-02 3.0895728458448007e-01
      -8.9572844295798992e-01 2.5702925295504608e-01
      3.9303824893813855e-01 -1.9342486050003968e-01
      3.9723945272181077e-01 -3.4739417358725572e-01
      -1.6911211777175791e-01 -8.8513759751716908e-02
      -1.3081303842424663e-01 -1.1892710480787795e-01
      -9.2955759285608119e-02 9.2598220743961818e-02
      -4.0923845884832902e-02 -5.3619347651560567e-02
      -2.0919966487981181e-01 -7.8552891631883698e-02
      5.3238471036192714e-01 1.3383382623029749e-01
      -1.6639565202863341e-01 -1.0772879880835227e-01
      2.5387817753409575e-01 -3.6569577070540378e-02
      -7.6713443788922198e-01 -4.2621437259476719e-01
      5.6436967803046212e-01 -7.4518781434436784e-02
      -1.7625109217062385e-01 -3.2533255438597264e-01
      2.4599181848364043e-01 2.7931011616742635e-01
      -3.1563502762252771e-01 -1.8484742549674485e-01
      1.3439347558934023e-01 3.5017588025709244e-03
      3.4774271412063927e-02 3.4042194460735481e-01
      -5.5889162931510084e-01 1.0493956957204120e-01
      3.9808420642145299e-02 -1.1602966100532031e-01
      -2.1849587474091134e-01 -1.8603677793580653e-01
      1.4606070136555555e-01 -1.8628453476637818e-01
      1.6417730372951653e-01 6.4107081830102053e-02
      5.2786726931110771e-02 -1.9527107706644753e-01
      -8.0369581126214718e-01 -3.4622697799671948e-01
      2.8309751144254641e-01 1.0273408933640893e-01
      -1.2457068379743093e-01 6.9214447042690377e-02
      2.1389368801254266e-01 -3.1365103334494667e-03
      1.4392303645811944e-01 4.4068165092815814e-01
      1.0837729866489069e-02 -3.5332699518588540e-01
      -4.9688845750867919e-02 1.5949006727408466e+00
      2.3495207437961838e-01 4.4480884910035429e-01
      2.9638474300137629e-01 4.3802728575542410e-01
      -5.1879806134070539e-01 -5.0920659192523687e-01
      1.0879305093464071e-01 7.0755579158634940e-01
      2.0402045444464492e-01 1.1555695752464513e-01
      6.0335924556670209e-02 -1.6461617982277632e-01
      9.2366872439018963e-02 -3.3084305242864492e-01
      -3.6203706810233063e-02 -8.7811006852655749e-02
      1.2482524608147599e-01 1.7225467117182461e-01
      4.0901483429477364e-01 6.6796702754167414e-01
      5.0667303945770459e-01 2.4875373825935038e-01
      5.6249365143918997e-02 -3.6124350239159206e-02
      -3.5669828046938917e-01 4.5004464794586485e-01
      1.0033790842858208e-01 -3.8605549389543414e-01
      2.3086190363722084e-01 6.5011258560546389e-02
      2.2802340888258946e-01 -1.9052965570904401e-01
      -2.8699954898201585e-01 5.6313916952271829e-02
      -4.0047084366393126e-01 8.8941234581091044e-02
      -4.6178701619279239e-01 -7.7694588840413081e-02
      5.8145518933888647e-02 1.7853454175452357e-01
      -1.7125175556090066e-01 1.0774091796111590e-01
      -1.9179496134523691e-01 1.7815034841047128e-01
      -4.0111277484843777e-01 -9.4799193567860346e-02
      -4.5048727512114195e-02 3.9812489719505351e-02
      9.5148297950504723e-01 2.8653613418563023e-01
      1.1264835614187747e-01 3.9587874092573255e-01
      1.3797524591164700e-01 -4.2045650963767844e-01
      -2.3099053985048811e-02 -1.9568826422270319e-01
      9.2819489722283002e-02 -2.4902390056019674e-01
      -8.9315152475844928e-01 7.9726348855764584e-01
      -2.7811230782876462e-01 -6.6416590663698163e-02
      4.0827545825079060e-02 -9.6561785705653180e-01
      -1.2719359250362219e-01 4.4141502354912376e-01
      1.7370350808912141e-01 -2.3640635823880371e-01
      -1.0945477815209577e-01 -5.8368455981083797e-02
      1.7729732267122000e-02 -2.5310023080317223e-01
      -5.7083893134500574e-01 1.4987950855274146e-01
      4.0535009357514273e-01 1.0125265047922541e-01
      3.3308296018370565e-01 -1.0414187666213133e-01
      5.9254406239121304e-01 -4.5188503528755704e-02
      5.4856387933336714e-01 -6.2781770564342942e-01
      -3.9999712376261104e-01 5.4930786335055042e-02
      -5.4117498537515518e-01 -1.8917309569770555e-01
      -6.1007596554750798e-01 4.5879622763372180e-01
      8.1599366645535965e-02 1.9533391452738372e-02
      -8.9935040747467776e-01 8.8233247054646802e-02
      5.4097846044359443e-01 -1.6195090549663996e-01
      -3.1876735157078978e-01 2.3418030454523922e-01
      4.6639550365976043e-02 -3.0806857664103179e-02
      5.3934646433910560e-01 2.3950016617032996e-01
      1.6134546044002004e-01 -1.9506649303598264e-01
      2.0318164895945340e-01 -3.9257282620848702e-03
      -1.2917871029433228e-01 -2.4331960127884092e-01
      1.3519626609019333e-01 3.6438183992267498e-01
      3.2362955856991872e-02 1.2053224545914182e-01
      -3.3076036546509185e-01 4.8600410221929208e-01
      -1.4884342723352359e-01 -1.5456007915560632e-01
      -4.4821118258902148e-01 1.7972847414897242e-01
      -1.3580106269453557e-01 -3.3549596071392213e-01
      -1.7195990166113034e-01 3.4746559061572085e-01
      1.8622982111505579e-01 2.3359905733235098e-02
      7.9306959568761548e-02 -6.5384700065553747e-02
      6.8291774048177947e-02 1.7124903008452164e-01
      -2.4602352796451443e-01 -7.0674980739948660e-03
      -2.3400786335553792e-01 -4.2920280678282047e-02
      1.3058629677049611e-02 -3.9096600434475653e-01
      6.2188242672905669e-01 -9.4683864514031685e-02
      -1.5887499635298413e-01 -2.9670960244727995e-01
      9.3460688944810577e-01 2.9163752340903099e-01
      -4.2885307072171547e-01 -3.3561475563917764e-01
      -7.7167125002604875e-01 1.0868084748896002e-01
      -3.4049505065381563e-01 3.4895037639218740e-01
      2.0166667851963560e-01 6.7403788883510940e-01
      -2.3287426103424647e-01 -1.3219907210887456e+00
      4.9231499294938375e-01 -4.2813418909426715e-01
      6.0369662711799066e-01 -3.4385470062563456e-01
      2.7313601549952599e-01 -9.0012122471512412e-02
      1.0097465917245134e-01 -3.5986462155777255e-01
      -6.6940999069912410e-02 2.1431287524836883e-02
      1.6137459352185385e-01 -1.9467615196973395e-01
      -2.0879283311972568e-01 7.3607092248517725e-01
      -1.1469535461259948e+00 -9.2391644923804961e-01
      -9.9313758526896501e-01 -8.4675982557779894e-01
      -2.2069678932747175e-01 -2.8838319436153043e-01
      2.6947038657754568e-01 7.7927828963531634e-02
      -1.3779834790053003e-01 -7.8195772938627721e-03
      -1.5515211809031881e-01 6.8340002358925156e-01
      3.2415631151065543e+00 -2.3517586589111100e-01
      2.7521594879122180e-01 -6.6640550875552973e-01
      -4.2543567448114983e-01 -5.1018107646321538e-02
      -3.1084703199074132e-01 -6.7418231480697932e-01
      2.8616155470122029e-01 1.1040261976236947e-01
      -2.3349766424650550e-01 -3.8571545471657703e-01
      5.9225313288584033e-02 -3.7559236323031719e-01
      -2.6396924351637230e-01 2.7867581139042280e-01
      -7.3706451191256073e-02 1.9986187129546479e-01
      -1.5039084093320526e-01 5.6712527421031458e-02
      -8.6356814536264148e-02 -1.4757001844695036e-01
      3.2827039657414750e-02 -4.2823683234909954e-01
      2.8554507812781943e-01 3.2623955693170364e-02
      8.5096851879641569e-02 2.1489139665428425e-02
      1.1612695881590007e-01 2.2514982369642004e-02
      -1.7750199307840106e-01 5.7794303879505161e-02
      -4.5810786544632326e-01 2.0205945013923626e-01
      -3.2291385274550116e-01 2.0639514351408126e-02
      -6.9158729816671441e-02 -1.9153897939163722e-01
      2.7600735486321154e-01 -5.7299294350227004e-01
      3.6886484395183654e-02 -2.7606076860395434e-01
      -8.6583461779792537e-02 -1.7288112309228321e-01
      5.3920347399562626e-02 -6.8840836423379778e-02
      9.9242836236675708e-02 -9.7354862247771706e-02
      3.6170334532128279e-01 -1.8974998269188286e-02
      7.4292319599394460e-02 -9.1860422784309684e-02
      5.4547421614904090e-01 3.4709007058386941e-02
      1.6955964413432376e-01 -1.5015272056437606e-01
      -3.7226881032399284e-01 5.6701129966510201e-02
      -1.0336564469811381e-01 -1.8051494591171027e-02
      1.6120559399859107e-02 -6.8461043338534100e-01
      -3.7473440001799679e-01 2.1321388346582637e-01
      -9.5252784616130223e-02 -4.7167370523560614e-01
      -2.1995686357951932e-01 3.5226672451692358e-02
      -1.3627351737557311e-01 -2.8792398337569219e-01
      -2.6868575458082133e-01 2.2260520001917772e-01
      -2.1017903320647076e-02 1.6956655263542500e-01
      5.1246425377602378e-02 -8.7814363825649985e-02
      -1.9018881411447448e-03 -1.1940089633312754e+00
      2.2117969816614572e-01 -1.5803350818304565e-01
      -3.1577834168390484e-01 -4.0134422397416081e-01
      4.5478878479356111e-02 3.0918437286848524e-02
      -3.8693681255845475e-01 7.6321028550634593e-02
      5.4925642125460694e-02 4.6668626033367416e-01
      -3.6721000261289788e-01 -2.9295985895614041e-01
      4.4725479518206535e-01 1.0038184259184336e-01
      -2.9477876733069264e-01 6.1472561044571959e-02
      1.5222669073391118e-01 -4.8453509697975705e-01
      -2.3164215201033960e-03 1.8735739515199049e-01
      -2.8547233167734126e-01 1.2772171779114258e-01
      -7.1591709964714267e-01 -1.3875545306902698e-01
      9.5026671081011871e-02 -6.2654506697619405e-02
      -1.6001385099663848e-01 3.1050843982953646e-01
      -1.2105038708513001e-01 1.6006113607373684e-01
      7.0460660107344819e-01 1.6280413492185369e-01
      2.0309621624719990e-01 -1.5095075425523111e-01
      -6.4780595968221866e-01 -1.4594027366952231e-01
      -7.2974384715760210e-01 9.1899320101830103e-03
      5.1107872174531987e-01 -3.1297305610267029e-01
      6.6588151141358376e-01 -2.3719558782750896e-03
      -9.2008581653102273e-02 -1.3405622786853247e-01
      8.6158883793021931e-02 4.3178107410979175e-02
      -1.3279688023265531e-02 -4.2774995117162411e-03
      -3.0779622543828927e-01 -1.2395430943558547e-01
      1.2165584017939755e-01 -7.1982060787968455e-02
      -2.4725349162803095e-01 4.5512297519653860e-01
      -2.7724122090004510e-01 -3.6972593780190924e-02
      8.4876417442748694e-02 6.0481591015258107e-01
      2.2776886222140308e-01 -4.2229337013195251e-01
      9.3416241204712369e-02 -3.5528842213530892e-02
      3.6059325975854212e-01 -3.5736440088645058e-02
      1.1847905590021843e+00 -4.1930704288251014e-01
      6.2882495631775379e-02 4.0005539111884800e-02
      -1.8222738901608210e-01 -1.6340481305252968e-01
      4.1238859083836416e-01 2.3444242440212787e-01
      2.9170042423469333e-01 6.2797359642480599e-01
      -3.3761829300303775e-01 1.3455990566793592e+00
      -2.2120123066494207e-01 -3.8937752311274471e-01
      -1.1835296666235519e-01 -7.0965763843917229e-01
      -1.0999149336600121e-02 -8.4788283320203028e-01
      -1.1130942441295877e-01 2.6592944657695977e-01
      -2.0532600191970443e-01 4.4048863766864543e-01
      1.2536143321297163e-01 1.5263062462137542e-01
      -1.0743258311373476e-01 8.7713222510179678e-01
      -5.3101510765636226e-02 -1.7189394580793599e-01
      -9.4666685879531656e-02 1.4002277612493447e-01
      3.4141231477859424e-01 1.5070375462485633e-01
      3.0345714475305469e-01 -1.6425101129196032e-01
      1.7903869419918542e-01 3.8752968563320506e-01
      1.5520149997430643e-01 1.7044556298205643e-01
      -3.2144708683340746e-02 2.1807081416898483e-01
      3.2699231717445554e-01 -7.2652312632278615e-02
      -3.1572921364515186e-02 7.5634454833037809e-03
      -1.2148948446150915e-01 3.6594403929643243e-01
      -1.2025680906601967e-01 -3.8173124477609705e-01
      -9.8323115103358671e-03 1.9553131438892781e-02
      8.3326956622335940e-02 2.2341562007116861e-01
      -8.9796077293140419e-01 -1.2519454700218493e-03
      6.7841432999884654e-01 -3.0503764805132449e-01
      6.6484743618177888e-01 -3.8964983153537597e-01
      7.5378553872275122e-01 -6.5201101194510147e-01
      4.8260440904761198e-01 2.9073832399677198e-02
      -1.6010958010386347e-01 1.0749925386573689e-01
      2.2907268033458938e-01 -3.8460367267375117e-02
      -5.1207249831843694e-02 -2.3497734018561187e-01
      2.0557020660864186e-01 2.4254258916176705e-01
      -1.1594548261671418e-01 1.7823783958766684e-01
      1.2005605350174177e-01 -1.8218491068601034e-01
      2.1907507304366586e-01 2.2904932975569883e-01
      -1.9503464283647107e-01 2.7558891600050101e-01
      -1.0840376819295579e-01 -1.7666134459536333e-02
      -2.1092624028927986e-01 -3.4854870182635744e-01
      1.4289830140727640e-02 2.1358399974016343e-01
      2.6229537612853165e-01 1.7184512430237187e-01
      3.4593888964731839e-01 2.7907184702029547e-01
      3.9555693014245119e-01 1.2564679506263149e-01
      3.0928219935985490e-01 2.9263025587900904e-01
      5.1974038288355384e-01 -1.7671653726457490e-01
      -6.5142745175322736e-01 8.6418362981523208e-02
      -1.6013142068428601e-02 -4.7097668842797591e-01
      1.4350536573109959e-01 2.6156998580798896e-01
      -7.8589282946732453e-03 4.1663716782223692e-02
      -3.0918361168129421e-01 2.6833932243099673e-01
      5.7943581966835001e-01 -3.3593501693936689e-01
      -2.4748042116437323e-02 -7.7858132940723968e-01
      2.9932933686033225e-01 2.9342624158318653e-01
      -3.9422755443576946e-01 -3.6547137792547429e-01
      -8.8016639035236779e-02 3.1676452124005168e-02
      1.9863620113750505e-01 -7.9332063822862786e-02
      -6.1244000597454405e-02 1.4610653324076456e-01
      2.7325246499036576e-01 -1.9811305545458716e-01
      -9.8874254600052269e-01 3.1124605513863907e-01
      -1.2384953160591776e+00 1.3886994582467557e-01
      7.3647662899450891e-02 -3.0843938994775649e-01
      1.9597410600392745e-01 1.0049584467531496e-01
      -6.0426498009248053e-01 -2.0899628745115199e-02
      -5.1799172515697753e-02 -5.5206202372251822e-01
      -4.3686228411697697e-01 -1.3437728793412096e-02
      -1.3611125595534274e-01 5.3975776334638048e-01
      -1.3985094187606664e-01 5.6684381970897979e-01
      -3.8018401303619781e-01 -7.0361731184904117e-03
      9.0997258531156422e-02 2.4604116721089425e-01
      -6.0932525871104030e-02 4.0432401924733341e-01
      3.6057958610740043e-02 1.6019692164808161e-01
      2.5469786646724363e-01 -8.2755491752850227e-02
      1.7655566310037951e-01 -3.7105232893099183e-01
      -1.1752118484296810e-02 6.0360479385957133e-01
      -4.6886581749798811e-01 -6.4012760325146264e-03
      5.4571403460519230e-01 2.3230221180814178e-01
      7.6123518717368763e-02 2.2617367442255873e-01
      -6.7136968449632059e-02 1.3163790051655117e-01
      -1.0388442788328475e-01 -7.1851583910752914e-01
      -2.8428010704639167e-01 3.4103132021893123e-01
      -1.7891445562494110e-01 3.8753174771596344e-02
      1.4095649012624181e-01 -3.7385695625781551e-01
      -3.5062448558121312e-01 1.0571226604840055e-01
      -1.1601145150894299e-01 6.9566691891000718e-02
      -2.2539608033561512e-01 -4.0310375589371450e-02
      -4.9757518603581862e-03 -3.5706720124856073e-01
      -1.1695932624657455e-01 -7.1386466856158304e-01
      1.6269512184584328e-01 -2.0395544871393989e-01
      1.2828173647525126e-01 -1.5003559470143332e-01
      3.6160729141763009e-01 -7.2544001981991435e-01
      -1.7562701035972844e-01 -3.2583615125293702e-01
      2.4884526835879744e-01 -2.9727739408338696e-02
      -2.3606331224247851e-02 1.0377367287333161e+00
      -1.1062343547866788e-01 5.0415075642342011e-01
      1.2483053035000170e-01 -2.6321041091418379e-01
      3.7236239734957050e-01 -4.4283276296096297e-01
      -1.3116864223657849e+00 -6.9708364978954451e-01
      1.3622423290981986e+00 -1.2180647488144967e+00
      3.2033036327614051e-01 1.6221730047164193e-01
      1.9882008897485334e-01 -1.2945224071248213e-01
      -1.1730420349966934e-01 -1.1743181780001739e+00
      -7.5084012035020198e-01 -3.8261762568045543e-01
      5.2190911990507301e-02 -6.3071576112269911e-01
      6.8671531620443027e-01 -2.7716224405987000e-01
      1.5256290186304719e-01 2.3042195467090504e-01
      -3.0932810752887036e-01 -7.9279269738021529e-01
      2.0692306948007141e-01 9.2800708816278249e-02
      3.6924767854360416e+00 -4.8425275573858190e-01
      1.4745845715547284e-01 1.8915011158157174e-01
      6.5276178892663350e-02 -3.2781396723812944e-01
      -2.7001079381460036e-01 -9.8012081908306137e-01
      1.5796758376889350e-01 -5.0759366162697417e-01
      -1.9878820379328404e-02 -2.3531136298195315e-01
      -7.1540072699851326e-02 4.9221189503133728e-01
      -3.3444822133071532e-02 4.2256530717544233e-01
      5.2001224426613535e-02 9.0208189256429545e-03
      -2.3781785048829229e-01 -2.5647809865058829e-01
      -5.3303545707800848e-01 6.5890666865825098e-03
      -2.0274199563750650e-02 1.3482950553868601e-02
      2.0986036143608591e-01 -2.3793609629603041e-01
      4.0384776894334345e-01 1.1183885188677611e-02
      7.8451921331110577e-02 -8.8464132155603156e-02
      -1.4910707869940829e-01 -5.0220369084092761e-02
      -3.3838841078444570e-01 4.6753807809556847e-01
      -1.4273551143118582e-01 -3.1841570140812625e-01
      -1.8752903905441379e-01 -4.0785060129963407e-01
      2.4833897630310048e-02 -7.7230693665806247e-02
      2.0426570531580168e-01 -1.6690457001311818e-01
      -4.4956529407123952e-01 -9.3169439034755497e-02
      -9.2814086646489782e-02 1.1986596130113870e-01
      1.2288910191680542e-01 -1.3511973289564402e-01
      9.2031599038723613e-02 2.9828717239609420e-01
      1.2133308071918765e-02 1.4426351486714806e-01
      -9.0552673897681915e-02 1.2481634129957737e-01
      2.8723506456995646e-02 1.2748380926612338e-01
      1.3274799541278415e-01 -2.5562212204052548e-01
      4.2404990966455780e-01 2.2277141560735701e-02
      3.4809750435535436e-01 4.6008373070883832e-02
      3.9840070979866454e-01 3.5388982938588158e-02
      -3.7193305832982837e-01 1.2533890081938436e-02
      -4.3864796322965455e-01 -4.1130364232582345e-02
      -1.3179568241118980e-01 4.4594611847020238e-02
      2.3194447682067962e-01 8.2088347520471239e-01
      -1.3698623003849647e-01 -5.5185754421315743e-02
      1.5044684320454527e-01 1.9163581100132920e-01
      -1.7392654219640136e-02 -1.0223760153623414e-01
      2.2273546234960021e-01 -2.2645061490778326e-01
      1.0288013238642941e-02 2.3805702708377330e-01
      9.4682525366943354e-02 -3.6938343719563428e-02
      -7.5811720106965769e-02 7.6961361401872250e-02
      3.2754980951303841e-01 1.5225054469812058e-01
      7.5723254015850547e-02 2.3539640181724622e-02
      1.6653505311198805e-02 -2.2410028984378348e-02
      -2.1062813668479785e-02 1.1854576464587230e-01
      2.5952294662731096e-01 2.0841743618913841e-01
      -3.6029604704690171e-01 2.2027480404328068e-01
      1.8313716994110388e-01 4.7215177765868074e-02
      1.1589866847604746e+00 -5.3338739813249082e-02
      -3.1417763134268667e-02 -1.5690163879921187e-01
      -3.7631740885859619e-02 2.7004832634713266e-01
      -1.2786469139337486e-01 9.9767010678460277e-02
      1.7483280632397261e-01 9.7389288064534854e-02
      6.1060045808345689e-02 -1.2773935492937202e-01
      2.1769768600129050e-01 6.6432779370207778e-02
      8.4270264826400354e-01 -9.0452046669039620e-03
      6.5334260213528794e-01 -7.6343656798617002e-02
      3.6141782963449592e-01 4.8117587444868093e-01
      8.6179638463144664e-02 1.9330891761991011e-02
      9.7533938231968952e-03 4.4339752184636055e-01
      -1.7073825842107473e-01 3.5089042066469184e-01
      4.6249236108523419e-02 -2.8816946529780740e-02
      4.5768490275424602e-02 4.8479150102890683e-01
      -2.1790698388115357e-01 5.9585386216705005e-01
      -3.3053304489702819e-02 1.7869149807551069e-01
      2.5117957023468934e-01 2.0348348333721808e-01
      4.4548055346179383e-01 -3.0521439742001771e-01
      8.8574142934579581e-01 -2.4563518214047000e-01
      -4.8434918323485621e-01 5.7686373927391218e-02
      1.5162171034053844e+00 1.7349860177048865e-01
      2.9558462414807238e-02 -1.8897930403503482e-01
      1.0070663653305086e-01 -1.8495452117160330e-01
      5.4335499509469454e-01 3.9395177380334906e-01
      1.2346474979238771e-01 -1.3304811165659369e-01
      1.7132925464237139e-01 8.4868901647876124e-02
      7.5683197426058196e-02 -3.4495450585609849e-01
      6.6054386075177352e-01 -9.5048453696383026e-02
      -5.2655592798409256e-02 -1.9882322324494742e-01
      -2.1719993188087646e-02 2.2380727979484918e-01
      1.0124668830218438e-01 6.4255809959635150e-03
      3.8867839232487261e-01 7.4496962707944231e-02
      -3.0889052863564548e-01 -2.7623532720498128e-01
      1.2981054380936935e-01 -2.2808848076379343e-01
      8.8045795880319067e-01 4.0836297448102282e-01
      -2.5541751802522578e-01 3.3870640144541558e-01
      2.8461949363573319e-01 -3.3450787901970713e-01
      2.6841571540350206e-01 5.9913465611985003e-02
      3.3889336479196897e-01 2.7017174053541243e-01
      -1.6559261006287246e-01 -1.0227986843574070e-02
      -3.0155334401710809e-01 8.7193066135800010e-02
      -3.3026642204991560e-02 7.0881791043841083e-02
      -2.7928684452935387e-01 8.1156439707802519e-01
      -1.5521796379171818e-01 -1.1621214304122261e-01
      2.4824309712015394e-02 6.8646800381717735e-02
      1.1266284569200311e-01 1.6380067916502311e-01
      -3.4000301982288185e-02 1.3467460156890024e-01
      1.5064099200308269e-02 1.8443352102804839e-01
      -1.8668011607221663e-01 3.4512891649106668e-02
      1.1036616274292659e-02 4.2048520194428923e-02
      3.3593923892541316e-01 4.1088437241010950e-01
      -3.8397058780547172e-03 5.8870176158881488e-02
      1.6465946826020372e-01 -1.6097664080652321e-01
      1.2132251729167361e-01 2.7772555312827324e-01
      6.5986524291497228e-01 1.3304073688952549e-02
      5.4937965095953545e-01 1.9866890264367107e-01
      -5.0123998899286348e-01 -2.2721102902267427e-02
      1.7522599591476097e-02 3.7844176746674485e-01
      -2.4363381383781568e-01 1.1566354399186334e-01
      -3.5440934430282983e-01 1.6064849586885407e-01
      -5.9249422413241704e-01 2.4009240181740810e-01
      -3.0259655266819889e-02 -5.5168557538110459e-03
      -3.4768349322072489e-01 -2.4843195508202573e-01
      2.8351343974183257e-01 -5.0524554862959237e-01
      2.3917840374702956e-01 -1.9865052880781534e-01
      3.7968792926678141e-01 7.4804162739180682e-02
      1.9321205918183301e-01 -1.4939396728410409e-01
      3.3634227223187357e-01 -7.6031343469667292e-02
      2.4611547653950466e-01 -3.4256260756163126e-01
      3.0666112320641076e-01 1.0959126910544212e+00
      -2.9693199532237741e-01 6.3584129642070186e-01
      9.2821719945929901e-03 -1.5755958239273909e-01
      7.7589740743791180e-01 -6.1173439448921417e-02
      -5.2949113535931180e-01 8.5626077135285472e-02
      7.3681468415485152e-01 1.6390808912470789e-01
      -6.0294329497868657e-02 8.6841813705855170e-02
      1.2298828128968414e-01 6.3781351702294764e-02
      5.7240239948134364e-01 -3.4786296559105806e-01
      1.1879632395412805e-01 6.8385666644502574e-02
      4.9198860791508459e-01 -1.8365862554542611e-01
      7.9623878503912685e-02 4.7598838151480069e-02
      -2.0442198951188276e-01 -1.7733856718846028e-01
      1.4114546543953548e-02 -3.2910413498268493e-01
      1.8153957696715867e-01 3.8477720905674351e-01
      -1.4815712986254779e-02 5.3725209870877377e-01
      -1.1532112486530364e+00 2.5683786129147912e-01
      -8.4995003702357186e-01 3.3268377274334887e-01
      -1.0242239529223886e-01 8.1327455400007770e-02
      8.0994891321379492e-02 3.3369879741827485e-01
      -2.4063764392890113e-01 6.6031911493527629e-01
      8.4122076344622779e-02 1.5804379917822500e-01
      -1.8965281569574344e-01 8.0066022411956303e-02
      -3.6784730314705296e-03 1.6979652127008035e-01
      4.7093157846703992e-01 -8.7693781577604768e-02
      -6.0344561156061005e-01 -1.7009350527002132e-02
      3.0323109310667862e-01 2.3938702387017474e-01
      -4.5964833713861580e-01 -4.4456012397196092e-02
      1.3823462071457632e-01 7.4672083243865539e-01
      -7.2416222746769232e-02 1.5572533409796812e-02
      -1.2012070913200694e-01 -2.8379883140561191e-01
      4.5110098534134829e-01 4.4500087577915348e-01
      6.2590601192461126e-02 3.1885587449745856e-01
      -6.0375404820877421e-01 -1.6407929722755149e-02
      2.1392888085032039e-01 4.4168910732439066e-02
      -3.8829904537124499e-01 -1.4181927022054769e-01
      -2.2569531779226493e-01 -1.0562204067474733e-01
      1.2078471010833157e-01 -2.7887498328521682e-01
      -1.2553064708507037e-02 7.5578191949593240e-02
      2.3635952278053576e-01 -2.2637364395804639e-02
      -1.6597449401738740e-01 -2.1589126607694678e-01
      -1.8017863577523008e+00 -3.5689506169018542e-01
      -1.0353921056620329e-01 1.8783924145892691e-02
      -2.2953633864017101e-01 -1.3005881548401363e-01
      -1.0943381909962205e-01 -2.7429339325268659e-01
      -2.7403094632874742e-01 4.3710543603886404e-01
      -1.5690387890268281e-01 5.6281589511693889e-02
      5.9847601946935523e-02 -2.0303244552002123e-02
      1.1152386220986859e+00 8.9124690111868562e-03
      -3.7449246588837126e-01 -2.8089085355360488e-01
      2.6827739041063403e-01 -3.6489813339018412e-01
      4.0912342026626303e-02 2.9679042632647068e-01
      5.6848026671833751e-01 -6.3129868435209446e-01
      -2.9216961292876403e-01 2.8323156650792419e-01
      -9.9990785059179313e-02 -1.4333149041831093e+00
      -1.0894657852740115e+00 7.9039832766411092e-02
      -1.1252677909665862e-01 -7.8868602733052517e-02
      2.3130567403779234e-01 -1.9355693057393365e-02
      -1.1157644911094111e-01 -4.7690709292847921e-01
      4.8842995684518015e-01 8.7376722606503740e-02
      1.9987436938786731e+00 -6.6857523204117209e-01
      -5.8044716651846871e-03 3.1295725354835213e-02
      5.7531262918501150e-02 -1.4316822624183051e-01
      -1.4440446035719204e-01 -3.6236668102900021e-01
      9.6065930450102344e-01 5.0752533868586802e-02
      2.6085675870595728e-06 -1.5171463920741795e-02
      -2.2021524096046077e-01 3.4717158835210360e-01
      -6.5235462205313677e-01 7.3351157706159326e-02
      -5.0252221386035412e-01 -1.5185203379379986e-01
      3.1754009135748079e-01 -1.7062847629399452e-01
      -3.4832819089242628e-02 -5.5214744915444244e-02
      8.8073313122234417e-02 -1.6634677125767458e-01
      1.6855228503240963e-01 7.4536000942020106e-02
      9.4149278783102697e-02 -1.6277300541067302e-01
      -4.5608928502985455e-03 -1.8523576351956596e-02
      9.6142661462572318e-02 -2.0218116042833148e-01
      -3.5858291509334317e-01 -5.1542370692927264e-01
      -7.8154957566968802e-02 2.3852113132236327e-01
      -1.3929922446752580e-01 -3.2167978610926268e-02
      5.5214014498332187e-02 -1.5275711335371156e-01
      2.6007082868111306e-02 1.0342247322465338e-01
      -5.4695435480215504e-01 6.6692178662425119e-02
      -7.3927977926876623e-02 -1.9351438807241331e-02
      6.1125251028204874e-02 1.4371920192306547e-02
      -4.4423530441364122e-02 -5.2323897368912176e-01
      -4.3142215814187079e-01 3.5962090866108409e-02
      8.3391073054739681e-02 -6.8011155483879523e-02
      6.9808931950757838e-02 2.7407161289789150e-01
      3.3616479549777994e-01 1.3660570090740806e-01
      5.1284287806522340e-02 1.2122445968739893e-02
      4.3034398326372353e-01 9.1576195922691483e-01
      -1.4852826109446429e-01 1.5540638618907274e-01
      -5.1135435111834410e-02 2.7536197507927929e-01
      1.7563510301603732e-01 5.9989682321106366e-02
      -7.4347088255414029e-01 2.8144877993492834e-01
      3.4367740481086689e-01 1.4863527045328528e-01
      -1.4304562224476686e-01 -1.6650516592044390e-01
      -2.4959034473026977e-02 -2.0211446732535435e-01
      -5.3374469551257651e-02 1.3519324307047398e-01
      6.9243270215769287e-02 -3.8750730708756252e-02
      1.2329411792524726e-01 -1.2770372949505826e-01
      -5.0951812566097010e-01 2.1719633601065394e-01
      -3.9779877431329058e-01 1.9473953105455417e-02
      3.9682907699945563e-02 5.7206757525409734e-02
      -1.4868833413239350e-02 7.4514467776423524e-02
      -1.0999649429886200e-01 -3.5523874357266415e-02
      -2.7365724195289320e-02 4.5860121559280992e-01
      2.9991160530030401e-02 -6.6978736077076051e-02
      -4.1005026214616831e-02 -1.4888598204650788e-01
      -7.5821545017966133e-02 -1.1565986869728259e-01
      3.6742981243610690e-01 1.4358248242015861e-01
      -9.6645184037551374e-03 -5.6674347172698356e-02
      3.3392891771039152e-01 8.6575764379702408e-02
      1.9274415572216241e-01 1.5530497611058089e-01
      8.7321686877188512e-02 -6.6758930878445588e-02
      2.7933623704337840e-01 -1.2196140355570062e-01
      2.3767610319039019e-02 -1.5702915527199274e-01
      -1.2536691643459133e-01 1.7722750762125486e-01
      4.2217941072534515e-02 7.2575657071752525e-04
      -2.4405341400187996e-01 3.7039310813030790e-01
      1.9715941626866498e-01 1.7481620093000264e-01
      7.1278573847033744e-01 2.8830634090811702e-01
      -4.9517876429728866e-02 -2.8819494809377823e-02
      -7.5536032853971771e-02 -5.2777538619197661e-01
      1.5798706383655367e-01 -1.3533181366899835e-01
      8.3658096256280554e-02 -5.0242399868735077e-02
      5.2160035620873613e-01 -1.1426510519792249e-01
      1.4448856197930512e-01 1.8051154089025739e-01
      -5.1964689745136861e-01 -1.8169597624821433e-02
      -1.1560334304062123e-01 -6.1620829309828751e-01
      -2.7515492174585494e-02 -3.8050767996070808e-02
      -3.4121063759464931e-01 -3.5810473590906122e-01
      -1.8571547129863955e-01 2.5097531447650318e-01
      -6.7486523358102801e-01 -2.8049295302835281e-01
      -2.1122911326553556e-01 -8.5664866386119309e-02
      9.4218112879716404e-02 5.6073106703077934e-02
      1.7034274033377308e-01 -3.2630154992680788e-01
      2.1922553101377838e-02 3.8020187913197216e-02
      3.1364231025025435e-01 -1.1655901722569263e-01
      -1.5668642361113047e-01 -2.8617495823111880e-02
      3.8378749527071182e-01 -4.4031417912075105e-01
      1.0260602406353751e-01 6.4593267247067310e-01
      9.4888997703912958e-02 -9.7573918981229413e-03
      -1.0494954564544060e-01 -2.6900165328451814e-01
      2.0452011734441663e-02 -5.5727600189175808e-01
      5.0825340487224613e-01 -9.8936895153783927e-02
      -1.4206867898830333e-01 4.3500454062013541e-03
      4.0954094613416070e-01 4.6415529399913856e-02
      2.8439115134529833e-02 9.4747236807506829e-01
      -8.9968846288890819e-02 1.0920763530942368e-01
      1.9253495631147732e-01 -4.0561295176444628e-01
      9.0750052181243032e-02 -1.3956344364519857e-01
      -7.9280530245509823e-02 -5.1409798044432398e-01
      -3.6918832498840437e-01 -9.7210505088603655e-02
      -3.4132623387533456e-01 -3.2387475391355131e-01
      7.0923593690132591e-01 6.6216359969300009e-01
      -1.3326633417134837e-01 1.5446140873012312e-01
      -1.3789661965487984e-01 2.2505256608086172e-01
      -7.8295445509507888e-01 1.2204761789330829e-01
      2.3877790519091313e-01 -9.0953991430219733e-04
      -1.7598764913997003e-01 9.2985199985138500e-01
      -3.0155217111463384e-01 -6.5500635740908941e-01
      -2.5463574050555215e-01 1.9859742521523491e-01
      1.3943037731614188e-01 -2.2597423932738286e-01
      5.4843260394670112e-01 1.2817801569420217e-01
      2.5705048914437600e-01 -2.2198706242321914e-01
      5.1567712922733100e-01 3.3026458858699254e-01
      -5.8844861720072283e-01 -1.7225688771007544e-01
      -4.9001101196824892e-01 -1.1927614163737457e-01
      1.2060839792303230e-01 -8.0831099725681199e-02
      -2.0334328029790324e-01 2.0327716097708126e-01
      1.6077205690849267e-01 8.8701166269690115e-02
      3.7778655264353905e-01 2.4175931159702271e-01
      -2.1177981831085896e-01 8.5496056345020544e-01
      -5.1325412397419320e-02 -4.8037934192293123e-02
      2.2272873018084036e-01 6.8953610692530060e-02
      6.8890195914621521e-01 8.7403351803390303e-02
      7.6155795017864417e-02 3.3549605216047584e-01
      4.7474544387691109e-01 8.7165630023638543e-02
      -1.7237958660464253e-01 3.6261404200082191e-02
      3.7430750690959652e-01 -3.2999707548797858e-01
      7.8279240700389163e-02 3.7191097209764358e-02
      -2.3786703363390627e-01 -1.5564413513685218e+00
      7.4063879169853974e-01 2.3059668081878523e-01
      -1.0163721564280390e-01 1.0873422019726392e-01
      -6.3478205337798999e-01 -4.8080104843603366e-01
      -9.1475598758886084e-02 2.3040624702274675e-02
      3.5333207937659254e-02 4.7656370550802285e-01
      3.2900981325211454e-01 -2.2288317281813996e-01
      -1.1869938709807711e-01 3.2423327359241416e-01
      -1.1686827285969942e-01 -2.2836443319223965e-01
      2.8298962230034724e-01 2.4734738566485928e-01
      -3.8053059138018808e-01 1.5330751455982441e-01
      2.3549711553503140e-02 1.1106865746282278e-01
      -1.8970898733978730e-01 2.1158664121340315e-01
      5.7913446376713425e-02 -1.0317480097559282e-02
      -1.6305109318492253e-01 -1.2695540626228438e-01
      2.6401351038480658e-01 -1.5154691961004998e-01
      3.0799400096312018e-02 -7.9842901712477932e-02
      3.2528127349139541e-01 1.1887835149592578e-01
      2.3873360600622920e-01 8.8529196615790284e-02
      1.9361659031223475e-02 -1.7903369526228696e-01
      8.2770929622571501e-02 -6.0572072260373300e-01
      -5.5005436596507173e-01 1.9233855695060403e-01
      9.6302563780719982e-02 -1.7277912243365801e-01
      8.1836778409586530e-02 1.7436310994517753e-02
      1.6059426104821131e-01 2.0984600405636247e-01
      -5.8426178452019395e-01 -2.0018926229188577e-01
      -5.1173904631770101e-02 -1.2278031523807489e-01
      -8.1637748968899193e-02 -9.6779259838334200e-02
      2.2497030639035698e-01 -1.9781827470194835e-01
      -8.0466334175658377e-02 4.5779160988301820e-01
      2.3097241351203963e-02 -1.4371334078705741e-01
      -6.3101497171645399e-02 1.1944590320641828e-01
      3.1066645288845562e-02 -3.3779705244854880e-01
      4.4068920007589739e-02 5.7721862312280506e-02
      -1.2286714124761025e-01 -1.1705939984711207e-01
      -2.8994722346438867e-01 3.5029391824061828e-01
      -1.7026670957401187e-03 -1.4141001704844883e-01
      -2.1995807997153116e-01 -5.2744410663795926e-01
      -1.7238394048137989e-01 2.1052763249097778e-01
      -8.5778075348144667e-01 3.5751802792614934e-01
      -8.6510246026877832e-02 5.4159687136953072e-01
      -1.4817492192230665e-02 -3.7783238281261913e-02
      -2.7166195523839781e-01 3.5219224956900164e-01
      -5.8999730605064271e-01 1.3417405379161867e-01
      -1.9910045429292683e-01 5.1358467166494093e-01
      1.3875388794058827e-01 5.4455486836584174e-02
      1.3633051554710298e+00 -4.9457814183177889e-01
      -1.0778504200860241e-01 -6.3875593120840246e-01
      -5.3565377524331208e-02 -8.9012650182673747e-01
      -8.9158264561047754e-03 2.4554186494778973e-01
      6.7667866253497064e-02 2.0171345514741612e-01
      -1.2043802554172929e-01 9.0752322408950004e-01
      4.7377049682300287e-01 -3.7461514619030900e-01
      -6.2019488406497381e-01 4.9732650092033891e-02
      -4.7415846555473867e-01 -1.2105435898412101e-01
      2.9838702123936351e+00 -4.5658382135760414e-03
      -5.8698463398381834e-02 1.4195637992191670e-01
      1.9706456445548848e-01 5.2638082479797366e-01
      -6.6988456595186974e-01 -9.1753811307118460e-01
      1.2706693727938195e-01 -3.0655393253826474e-01
      8.0450650720462008e-02 -6.0913981395379155e-03
      -1.5016040425862745e-01 -7.1869752093765848e-01
      -3.0720369283391058e-01 4.2784038327352275e-01
      4.0597216814257142e-01 4.2736815176018850e-01
      -2.0770521472013428e-01 -6.9557143694430792e-02
      -1.5439941299370957e-01 -1.0470084495662113e-01
      -7.4072347178239850e-01 -1.0024563896869640e-01
      -7.0705178347644809e-02 -5.3730562600199672e-01
      5.5530509883318280e-01 -1.5897710001684273e-01
      1.7987647659414206e-02 1.2956345490294247e-02
      1.3011341547429425e-01 9.0867121560640099e-02
      -1.2220782769467184e-01 -1.9642926241693179e-01
      -1.2198909411501926e-01 -4.5408185605868862e-01
      -1.9803364316409686e-01 -1.7311011434449189e-01
      7.2180529286387074e-02 -5.4889686834195939e-01
      -7.0847326654711246e-02 -3.7395759862632538e-01
      8.2215680794923696e-02 -7.8516350951591193e-02
      -2.5296210493440170e-02 1.1313453589894090e-01
      5.8568459349833867e-02 -5.4950847263473579e-01
      6.3715710916578128e-01 2.0874969039607456e-02
      5.8359934583945054e-02 4.7916446349073320e-02
      4.7412853872690765e-02 -2.4416662550938412e-01
      -3.6125967335565290e-01 -5.3878250562051500e-01
      4.5151174633917623e-01 2.7557302619322543e-01
      -5.7353925562676911e-01 1.1065803508472373e-01
      1.9176370664374937e-01 2.2072794428416076e-01
      1.5182355338913994e-01 -5.7440114181815764e-02
      2.1129722461834266e-01 2.5028569656380739e-01
      4.1207861061989044e-02 1.0704970955305107e-01
      1.1478971471190900e-01 8.9425015746867217e-02
      -2.0078746234533582e-01 4.3896262035706946e-01
      -1.0583094831265233e-01 -7.2555567965252765e-01
      -6.2851160601728726e-02 -1.9964144822295521e-01
      4.5769032426527861e-01 -1.8843369375274663e-01
      -1.2697879754726460e-01 -1.6793935769461912e-01
      7.0133902292098338e-03 -2.0741642758053503e-02
      -3.5697446673804373e-01 -2.5070060131193167e-01
      -1.4390472263385992e-01 -1.1006250241428563e-01
      1.5952906075637710e-01 -4.3024935605527836e-01
      -3.6237757365099551e-03 -3.2460991010660212e-01
      2.1150915744047422e-01 9.1367080854954971e-02
      9.8752303067973793e-02 3.0155928097458384e-01
      -1.4494335216437277e-02 8.1509496919107013e-02
      -1.7252293962590465e-01 -5.4216584644984536e-02
      3.3711002442247695e-01 -4.6453629531899319e-02
      -6.0114290805874604e-01 4.1583029818042155e-01
      -4.2180153085478117e-03 -6.1250672639373227e-01
      1.1163452679353517e-01 -1.3992535601901138e-01
      3.5757652614147865e-02 -9.8483391796324052e-02
      2.7575811270387947e-02 -3.1580809187767667e-01
      3.5466536460596049e-01 8.1043458932510189e-03
      -7.7175782994611921e-03 6.1615990011160093e-01
      3.3939519882262112e-02 1.0305322896175376e-01
      -3.2968223750397602e-01 -9.1040905531141814e-01
      -3.3747267775587653e-01 7.0314029361284766e-02
      -1.7531689735374956e-01 -8.8987188747407839e-02
      -8.4847254806228026e-02 2.1346941338159489e-01
      -8.4523884511464642e-02 -2.0548985729404004e-01
      -3.2939250677179566e-02 1.4959827905179503e-02
      2.6478014065492006e-01 -2.3521565481680974e-02
      -3.1525385997259237e-01 7.3805940122592964e-02
      1.7807361654052234e-01 -6.9780580114281593e-02
      3.3982147272236800e-02 -4.7499835308395483e-01
      4.6321884285173942e-01 4.0196458488859560e-01
      3.6171151835743975e-01 -3.3820587485091459e-02
      2.3929040577542443e-01 2.7647160122826236e-01
      5.5205187123046273e-01 1.1685223607732077e-01
      1.0387205881078888e-01 -3.3330655166183609e-01
      -2.7947372402452120e-01 -1.3760705159990489e-05
      2.7171673878163194e-01 -1.9754866554298253e-01
      2.3205708536999045e-01 -7.0953768955237542e-02
      4.7941882950831971e-01 4.2457692930784025e-02
      -3.3814136114537813e-01 -1.6008147179833707e-01
      -1.6081506495856157e-01 1.8922016625629684e-01
      -6.5198229722296996e-02 5.7771032346433859e-01
      -1.7897392827383959e-01 3.3033562865300681e-01
      -1.8115734639787208e-03 2.0677476349288421e-01
      -1.8771876203272064e-01 1.2199931428097832e-01
      1.6558741986678893e-01 -7.6906859581321607e-01
      -3.3076499455850103e-02 3.9081030651672977e-01
      -2.7351412667206693e-01 5.0375076712225880e-02
      -1.1029409833945586e-01 -8.1394837416172358e-02
      1.3072246068874011e-01 -1.1351734399872504e+00
      -1.2605364829853763e-01 2.7401067368759602e-01
      3.3110185367940786e-01 3.0016088622371256e-01
      3.7275134479805533e-01 6.4184539896426265e-02
      -1.0894865723526020e-01 9.6835473739285993e-01
      -2.8651842428871527e-01 -4.9827834611752841e-01
      -1.9705087932381637e-01 6.7230989385739385e-03
      -1.4540699879226249e-01 2.2167945389253089e-02
      4.6058692052472205e-02 6.8195084477543411e-01
      2.1879189927284093e-01 2.5926167790969168e-01
      -2.3170053375579905e-01 1.1036647860683889e-01
      -3.4033511022524821e-01 -7.0063635299625004e-02
      -3.2529932691514479e-01 -1.9922610847266195e-01
      -3.5743654229248728e-01 -4.3984041359237913e-01
      -8.2796817064591036e-02 -3.5958985531049931e-01
      6.1739951047761379e-02 -2.4152208031455294e-01
      2.5107197021088545e-01 -2.3250374768597870e-01
      -6.5334371534658053e-01 8.1089638870219416e-02
      -4.4563607615447298e-01 -4.2034190543341315e-01
      -8.7075910548626873e-02 1.3329848227864849e-01
      2.4084223616214742e-01 -1.0146578435020523e-01
      4.0430334407410856e-01 -8.0010940239315778e-02
      1.6107879019544924e-01 -4.1611744184950122e-01
      -4.6688157692560445e-01 -1.4601254206512485e-01
      -1.4942360974027961e-02 -3.8781589211564860e-01
      -9.0305273103469266e-02 -2.5268787857517105e-01
      -2.1586845675169661e-01 -8.5839216268313964e-02
      1.8454258480299723e-01 -1.7216693204702635e-01
      1.9354461781383134e-01 7.0019678810765137e-02
      -3.3562343065267625e-01 6.6908065258630967e-02
      -7.8295216925392652e-01 9.2884916310118437e-01
      2.2262955750217698e-02 2.5016610028512581e-01
      3.6708044380190435e-01 2.6288874108254012e-01
      -3.7492746663953674e-01 -3.0320544483061467e-02
      -1.8824106384174924e-01 -5.5961022872509592e-01
      1.0855752249843324e-01 -7.2454848133178595e-01
      1.3266489866315453e-01 4.0118714934470395e-01
      1.6879113870680976e-01 -4.0006434629983695e-01
      5.4703633813392272e-02 3.1277711276602888e-01
      -3.4586264887309981e-01 3.6321882593285593e-01
      -3.2503610714587031e-02 3.5213070179285514e-03
      4.4176398016158908e-01 -8.3036084314355685e-01
      1.4273512112262779e-01 8.4797300128675956e-01
      -1.5051946724154108e-01 2.0697800745639974e-01
      2.5824977739724753e-01 2.4584536839231095e-02
      1.6639583683349615e-01 8.4700087830112430e-02
      -3.7183635502878032e-01 -5.0881445534597038e-02
      2.0388449434651390e-01 4.0493751421541671e-02
      2.8046101430612713e-02 -2.1737291451282736e-01
      1.2028162205671823e-01 2.1045469105949194e-01
      -7.0676529573588068e-02 2.7209210605549861e-01
      -3.0041252987797812e-01 3.9490254716642964e-01
      3.8859199479401951e-01 3.4650297647106601e-02
      -8.6434618724339080e-02 3.2448513400402862e-02
      1.5881305126960801e-01 9.7489065322910740e-02
      5.6431558496298972e-01 1.7560593275050390e-01
      -7.6859543277897499e-02 3.3630101749300090e-01
      -9.1122596081952945e-02 2.5421658640189021e-01
      1.5631228885335677e-01 -7.7684269178494927e-02
      -2.0815835126665133e-01 1.0723196549797187e-01
      -3.1960730382750030e-01 -9.0167924493219823e-02
      3.9455521011125994e-01 3.6347033614839763e-01
      -2.2844549053719457e-01 2.3319493496468527e-01
      3.2178696162591287e-02 -1.0522719595799543e+00
      -6.2658750014807219e-01 -2.4237254423278198e-01
      2.5855934503893024e-01 -1.4887059356476556e-01
      2.6159587062927886e-01 -4.4260865784397377e-02
      -2.6753407151051295e-01 9.8651855703855360e-02
      5.8212278143850282e-01 -4.8316774809586843e-01
      -4.3667461575750965e-02 -3.5405866805625635e-01
      -2.7728155933966530e-02 2.3850359041172184e-01
      -6.2549379707244418e-02 1.0728223589645788e-01
      9.4629405028918689e-01 1.2858742442880189e-01
      -1.7592247008248044e-01 4.6689511011327164e-02
      3.8237609259724614e-01 2.6767596680875727e-01
      1.0945763141918190e-01 -1.6924503655166914e-01
      3.7231943025568370e-01 2.1919533907370820e-01
      2.3860703448080500e-01 2.4500312609910577e-01
      -6.5026508090078872e-01 -5.4759961387866907e-01
      2.3248042033029057e-01 -3.8003934169566966e-01
      4.4078725338278624e-01 4.2716692775525911e-01
      -1.7290105347981612e+00 5.2395765833137276e-01
      -1.6326190410818428e-01 1.0456256656291767e-01
      -1.0353579615339967e+00 4.5158776476729301e-01
      9.6347025120707719e-01 -7.3897659955829420e-01
      -1.7295531585464805e+00 -8.4749150182330935e-01
      1.2637561040064902e+00 -4.9929755509610617e-02
      1.6473496100204885e-01 6.3700493832893856e-01
      1.8154314348679085e-01 7.7944119859138417e-01
      3.7927806774370848e-01 -4.1432052120936635e-01
      -1.9567159063095915e-01 -6.2953473794008707e-01
      -3.7750152697442502e-01 -1.4296352553938277e-01
      5.3452061305781196e-01 -9.2165909064030549e-02
      2.1593508814527400e+00 3.0696631820898440e-01
      -9.9644117207307217e-02 3.6028105032633112e-01
      5.3410925158306155e-01 2.7463960996221803e-01
      1.2785450206338305e+00 3.8418555479044664e-01
      1.7792371014399591e-01 -7.4646286101816051e-01
      1.4662112426305160e-01 -6.5575663836174714e-01
      -5.5429572065319017e-02 -2.4139385145573264e-01
      -2.0950709642132938e-02 5.2259681814422254e-01
      -3.2810523337803954e-01 4.1803506876853475e-01
      -8.8995898227111769e-01 2.2394607348571285e-01
      2.5785427087384344e-01 1.3175211007093168e-01
      -2.7177832555413773e-02 -1.2851422568401433e-01
      -6.0031891496062972e-01 -7.2772015294078940e-01
      3.1778727853983391e-01 -1.9721479382502796e-01
      6.6755814322846455e-02 1.5647030980255894e-01
      1.2940847500162295e-01 1.3235859203243677e-01
      4.3351042915991886e-02 4.2766326163180921e-02
      7.3710378540014401e-02 3.6370387093283517e-02
      -1.5423406478409118e-01 9.6801232088740405e-02
      2.4948837313137802e-02 -1.6831477715908594e-01
      -2.8734071581509280e-01 2.0964023270762869e-01
      -8.5116927404548626e-02 -1.9623613811199297e-01
      2.2603725508031794e-01 6.1358933958164297e-01
      7.9915051356565389e-02 -1.5077899991302288e-01
      -7.4841297007652366e-02 4.0824515807619915e-01
      -4.1498151761431812e-01 -5.7203466445329657e-02
      1.1281081281688476e-01 -5.0217302974438782e-01
      5.9014948932678946e-02 1.1214957408961970e-01
      -5.6224911792921384e-02 -9.5556892374320454e-02
      -5.0291806446218468e-01 1.9280850417563594e-01
      1.7897343158465470e-01 4.2676987906640457e-01
      7.3932019922129999e-01 6.8928333271110045e-02
      -2.9392182790021100e-02 3.0417276893077322e-01
      4.8760363432891418e-02 1.3933692028803946e-01
      2.9080094301740961e-01 3.8373558137130216e-03
      -8.8075883017825735e-02 -2.4500228732980991e-02
      -2.3885084291595934e-01 -3.1177479550019960e-01
      1.1586260096358703e-01 5.1766779388255545e-02
      2.7590793715313955e-01 -5.9650172995134565e-01
      -1.7492806376379338e-01 1.6921455730984958e-01
      -2.1787071883474077e-01 5.5727196092766405e-02
      -9.4943611068640799e-02 3.6172474370597257e-01
      -4.5453589779778891e-01 -2.8955683527821630e-01
      5.1983451630063471e-01 -3.0231750063871871e-01
      -3.7104080358554528e-03 1.9190404264068708e-01
      1.3356279757313076e+00 9.8356682226736186e-02
      -2.6337892718975811e-02 3.2251446183716326e-01
      3.5647499561406965e-01 4.5956973081723800e-02
      -5.1666065353946911e-01 2.1734119725212564e-01
      1.4172466435776548e-01 6.5023900715658756e-01
      2.8685641341077961e-01 4.8209339705940372e-02
      1.9919261201434288e-01 2.7542974719757729e-01
      -7.2994587362761112e-02 3.5738871061751436e-02
      2.5744017359871130e-01 5.1127150569593971e-01
      -1.2112828500172659e-01 -3.8035085336731517e-01
      2.7538228796885472e-01 -2.2008112902625072e-03
      -1.0621134409502238e-01 1.4332971088152907e-01
      1.1786275796790473e-01 -1.9987667778146917e-01
      8.5613261800808971e-02 -5.7227433614375178e-01
      4.1437773526337429e-02 -1.3491453166798575e-01
      2.7105326076368230e-01 -2.1073676423762230e-02
      -1.5650907053904303e-01 1.4071309947625602e-03
      -6.5652275640511834e-02 -5.2514707900872559e-01
      -2.7125818591224538e-01 2.7396394198138241e-01
      5.7997028008633089e-01 -3.8511589737389729e-01
      -1.9225447245227281e-01 -2.2239370423265320e-01
      -6.5871870673118971e-01 -2.5766123380049888e-01
      2.4277016577716001e-01 -1.4368135239980317e-01
      9.1379900440118941e-02 5.9019241143417223e-01
      2.4980413067098947e-01 3.7627906399526662e-01
      1.0934953731778016e-01 -5.5902389338275948e-01
      3.1503795535074430e-01 -1.0125620295676702e-02
      1.9078460625707888e-01 8.1043156933342397e-01
      -2.9399349249558993e-02 4.2364893069790036e-02
      9.8641672752028606e-02 5.2340346893237466e-01
      -3.4978181916932766e-01 3.7984780845683984e-03
      -8.7195225293813641e-02 -1.3176706546115091e-01
      1.7871159254058677e-01 -4.9688703320467287e-01
      -5.0531403389072704e-01 4.6493853929881374e-01
      -1.5666327806164629e-01 3.7780083966104550e-02
      -1.6101963765545382e-01 3.4768293698934966e-01
      2.9584914708130977e-01 4.4095326376105970e-01
      -9.9685042165740113e-04 -2.6068275474632702e-01
      2.0041887063380814e-01 -6.5583921076143525e-02
      4.1381356615097470e-01 -4.9937457624140652e-01
      -2.9123940666457759e-01 -5.2087730101682905e-01
      -2.2888489989170160e-03 -1.1284691870462558e-01
      -5.4530272745305752e-02 9.5792027329124011e-03
      2.4457591128052161e-01 -6.9414634823156462e-02
      5.9896342389082820e-02 1.0621736522349785e-01
      2.5184544337501447e-01 7.9144625985365563e-02
      -9.7063914817227592e-02 -2.4922731824733624e-01
      -2.6934860739454741e-01 -3.1070695425880590e-01
      -4.4751320567679470e-02 5.0719540084580461e-02
      -2.8513499395128061e-01 -2.4005650346502361e-01
      8.1456454385862598e-01 3.4411701019226248e-01
      2.5094607539039204e-01 3.1976039589128502e-01
      -1.1419199713491547e-01 4.6792348347633383e-01
      -2.6420531397276889e-02 -1.0377613035063370e-02
      -1.7997701859648602e-01 3.6429830218232701e-01
      -1.1033057128130186e-01 -6.3318483298736822e-02
      1.4609350985291150e+00 -9.5708837476330216e-02
      -5.1132527230554425e-01 8.4910900067743222e-01
      -3.3830090054591505e-01 -2.4232037627501554e-01
      2.7577180948936131e-01 2.4580826154569007e-02
      -1.1615358808713491e-02 -5.4369950525598021e-01
      -9.8776922242074142e-02 5.6847848372651988e-01
      -2.3896855638350728e-01 -2.8168612667043313e-01
      -1.5497031553187784e-01 -2.9421527644378176e-01
      1.3292606589742778e-01 2.6711609930650391e-02
      7.3856502213510908e-02 -1.1247239722831319e-01
      4.2157746940521035e-01 -2.5393469565020238e-01
      -6.0085780426522066e-02 1.9964872758658520e-01
      1.0151895767392481e-01 -2.4114531244877291e-01
      5.4234992420034844e-01 -2.1386536635988193e-01
      1.1423141995222047e-01 -2.1164324798994504e-02
      -1.1518805499437106e-02 2.9092826250325315e-01
      -3.1080314592594060e-01 1.3340103851111654e-01
      -7.3664558123073945e-02 8.4329104354376863e-02
      5.8905938739909203e-01 -2.3974606493097461e-01
      -3.5195330443671796e-01 -5.7308763371246474e-01
      5.1617614949532942e-01 -1.3647295134366633e-01
      1.0403163091112227e-01 -6.2703523874893877e-02
      -7.9594196524213692e-02 1.5089233442048150e-01
      1.3593641690991212e-01 -8.2301388888397797e-01
      2.0011485720616723e-01 -4.0762014393487311e-01
      -1.2722005715063112e-01 -4.5509076337389348e-02
      5.6889795557712897e-02 1.1448387329820801e-01
      5.9908855013127593e-01 2.2943279509119119e-01
      -3.6550635109224114e-02 3.3381105544689055e-01
      -1.7917523899004562e-01 -1.1250888306412017e-01
      -4.3566799712688004e-01 3.9421334614351211e-01
      1.0673746322783215e+00 3.8170283306648795e-01
      -6.6044344028864821e-01 -1.7102066326244497e-01
      -2.0682134908041164e-01 2.2207045538203279e-01
      2.9871595939240331e-01 1.3187254556651501e-01
      1.5092760605599667e-01 1.6003802056627689e-01
      -1.5817710488099596e-01 -2.8329458627880222e-01
      4.4129752839093046e-02 1.6623312549382361e-03
      -2.9284416105064288e-02 -2.3583188827543077e-02
      -2.1316665412734020e-01 -2.1155736318108415e-01
      6.5801881563918987e-02 -4.1818366279514557e-01
      -1.9130948337003595e-01 -1.2473781337036378e-01
      -1.5866461348450317e-01 -4.7660987008423411e-01
      1.0258639265433558e-01 4.3964611103452894e-01
      -1.3441950743899803e-01 -5.0720389128099908e-01
      1.7817767669245110e-01 4.0385965098967846e-01
      -7.3352434300259228e-01 2.3148722668176572e-01
      -4.3917323018967730e-01 -2.1072626556743093e-01
      5.3121581597425349e-01 3.4081311935144504e-01
      2.5519916072192850e-01 1.2105022948683731e-02
      2.9364392042342796e-02 -3.5507925631551807e-01
      2.0116151201434503e-02 -6.3532323271423163e-02
      -6.9635089445275217e-02 -2.5629879949483259e-01
      -6.3347212188684332e-01 -3.9457296480151886e-02
      -6.5031700618564753e-02 7.9785272930647994e-02
      1.5385328367447085e-01 2.4989149780318856e-01
      1.2358342979940221e-01 -2.2526813501585680e-01
      5.7003217694885491e-02 -3.4198117586211063e-01
      -5.5676893538454522e-02 1.3188484275862170e-01
      -2.8768870845611327e-01 -2.3732350476990760e-01
      -2.0948444575433209e-01 -1.0762796949957111e-01
      2.0994393556357888e-01 4.0696039374887344e-01
      1.7553175253087933e-01 -1.6443465716379718e-01
      7.3246228668865460e-02 -1.2633608444281208e-01
      -2.7818990353562645e-01 1.0246670493970791e-01
      -4.9246880493271011e-01 1.1199443978428508e-02
      2.7709535857267231e-01 4.2373962450408481e-01
      -8.7077409977856490e-01 1.2221595254334889e+00
      -1.5655766302339189e-01 1.3478085382254437e-01
      -1.1608672410221845e+00 4.2254566793974874e-01
      7.9407856102279395e-01 -5.5750020147890456e-01
      -1.1343345170863797e+00 -2.9996999705346833e-01
      3.5783641863427612e-01 -7.5558600071618209e-01
      1.5767605537350679e-01 -2.7178228288264182e-02
      2.6031318654318003e-01 1.3067828900749168e+00
      -3.0949251837498820e-01 5.8758861632946036e-01
      4.7709084458287598e-01 -1.3142486537172069e+00
      -4.8766308107151331e-02 -1.8951667370062855e-01
      -6.5721333585501740e-01 -1.3201388419602092e-01
      1.4043178917729517e+00 3.8958213122259183e-01
      -1.3174784974858761e-01 5.9368224449002560e-01
      1.1313683762938695e+00 1.6368685744685996e-01
      -1.6539136011663585e-01 -1.0395539578646613e+00
      2.6924948900491258e-01 -4.1197869976160101e-01
      4.8436529158537918e-02 -7.6935128083262239e-01
      -1.6931281188233541e-01 -6.8146572999169341e-01
      6.6915671179130209e-01 6.5864484115227895e-01
      -2.5970420122192195e-02 5.4279039738495893e-01
      -2.1389791931406954e-01 7.0410335041156003e-01
      6.7282932323842304e-02 -2.5443958757854507e-01
      -1.9368256346135759e-02 -1.3011531476725741e-01
      4.5627721899237217e-01 -2.3272850564338593e-01
      -1.7318196160919871e-01 1.8367614563365950e-01
      -2.4369915412741341e-01 4.4865904359347994e-02
      -1.1348717660002784e-01 -1.4752581794126607e-02
      2.7658301746352998e-01 1.2856621004461720e-02
      2.8255292957479866e-01 1.4383077632136645e-01
      -1.2615723288489700e-01 -1.0408494402549167e-02
      -3.5288357184923325e-01 -4.5434212716602357e-01
      -3.1741161968294823e-01 -4.4500900520498647e-03
      -3.0965366616222473e-02 3.8800915536001894e-02
      1.4765025261697023e-01 4.8208080779642676e-01
      3.6984782351717677e-02 -2.0518905348390906e-01
      -1.3336982791180488e-01 -1.1963035423720574e-01
      -4.9934227328319142e-01 -1.2314950733816916e-01
      1.1497831055864513e-01 -5.7782691215761639e-01
      8.3542205327018518e-02 2.9526365167387181e-01
      8.2793317469557176e-02 -1.3597619107655581e-01
      -3.5651743676522668e-01 3.9682217819440750e-02
      1.2256731627948629e-02 7.8670862170473754e-01
      2.2717854967282938e-01 -2.6261647502671454e-01
      3.8337742436220862e-01 6.6775382691983839e-02
      -5.6754361710788526e-01 1.2395920042300512e-01
      2.1756979982057981e-01 -6.7489053264460832e-03
      4.4943596003752584e-01 1.2562037172673552e+00
      3.8042157313280291e-02 3.4041601832165543e-02
      -2.8975536439646579e-02 -1.7468002098369911e-01
      -1.1763723739085373e-01 7.8572431095065648e-02
      -1.2688670621928004e+00 3.3308710115273704e-01
      2.9635392036960911e-01 2.2578028613789841e-01
      -9.5507975232178480e-02 -4.8729170965683376e-02
      -6.5340826628501947e-01 4.0293019209967279e-01
      5.2973302112456100e-01 -1.2684528631795295e+00
      1.2278286799254280e-01 2.2148312608381063e-01
      4.7597782502904779e-01 1.5237626072950453e-01
      -6.0434841378059094e-02 3.3575173058841579e-01
      2.6012339626287774e-02 5.4945866785987063e-02
      1.5890104113041589e-02 5.2775692270543095e-01
      3.4410304070972186e-01 7.0922480431653362e-02
      1.0805595470546014e+00 -1.7946941940042543e-01
      1.2822934187892229e-01 -2.6114411721924774e-01
      -3.9431302510122240e-01 5.8481122904603035e-02
      -1.3941899780735449e-02 8.3772933803336480e-01
      1.1815249327497453e-02 8.7686953599245943e-02
      2.5059403731713809e-01 -1.3591320665669690e-01
      -6.5467238101889846e-01 -1.3866920491632734e-01
      -1.0478155544857135e+00 3.1544588834850307e-01
      1.8045636453492778e-01 -5.0168022908236583e-02
      5.4198131465921062e-01 -5.6648353199962066e-02
      -5.4582867325392304e-02 -1.4913394244441117e-01
      -6.1638330805035085e-02 -3.4937970934527190e-01
      2.4286450208022634e-01 -4.5929120154471148e-02
      -2.6628423076207712e-02 2.0365684235408157e-02
      -3.8285642208002257e-01 -3.8532966646537509e-01
      -1.6924453466726194e-01 2.0674643296749365e-01
      -5.5531150837508259e-01 -3.1853127252732194e-01
      4.7415589154986379e-02 5.3226595651548657e-02
      1.5110630711880513e-02 5.0854376327986894e-02
      -3.2045113757081556e-01 -1.9745747516068096e-01
      1.1675230084449213e-01 1.1995036895102511e+00
      -3.1498158678733967e-01 2.7486321368389088e-01
      -2.0050031138900498e-02 3.4602163600263869e-01
      -3.1891407853215387e-01 8.9958153548466077e-02
      4.5750093066334530e-01 4.2402333729321562e-01
      -1.1982172087795996e-01 1.9314216644225649e-01
      3.6597165973157331e-01 4.8784304352647953e-02
      -5.6101070128168373e-01 2.6012298174736587e-01
      2.3562142388515611e-01 -2.6899799031796251e-01
      -1.1718963194667707e-01 2.4269738189947840e-01
      -3.3517208101854717e-01 2.2420553369392307e-01
      2.8291898344866762e-01 1.2449512025463484e-01
      -1.7287769927933017e-01 -3.2707658447536099e-02
      4.7565805851624926e-01 -1.1567528544116079e+00
      1.9586923421633803e-01 -2.8320591854021382e-01
      -1.7708848202986691e-01 -3.0718924040704393e-01
      -4.2739636447462115e-01 2.6877523379139201e-01
      -4.2562634134254596e-01 -7.2093035070461531e-01
      4.7185859698585275e-01 2.7336228175058874e-01
      1.2802216514258163e-01 -2.8726770238246363e-01
      3.9858913720618616e-01 -1.2706952116602221e-01
      -3.5368942219231557e-02 3.1607428052184067e-01
      1.4978365369090083e-01 -4.9723984181498596e-03
      -3.9618003092514481e-02 -1.1434201188959682e-01
      -4.2753668749754947e-01 -2.1059096595588647e-01
      5.7168461062432796e-01 5.1110460463895413e-01
      -8.2101822235021979e-02 -2.4990336043402225e-01
      3.6651180906173073e-02 -6.3033383293453829e-02
      1.4383526522280940e-02 -1.7621832720459454e-01
      1.3023076809557324e-01 -2.6004978762927844e-01
      5.2398900195414366e-01 -2.1380599386729721e-02
      4.4924909414857883e-01 2.6620625578991114e-01
      -3.0041268126342807e-01 -5.8278755030875998e-02
      -2.6831468932296992e-01 8.9633447844177261e-01
      2.1316046951482379e-01 -3.1331271017422752e-02
      -9.1267802719941324e-02 -1.1496072985157380e-01
      3.4189593901243751e-02 6.3570221389405590e-01
      -5.6481007440755317e-03 7.1855973651410457e-02
      1.0024777997566370e-01 -7.0942256573473403e-02
      1.6635904292168532e-01 -1.3512160955885064e-01
      3.3820198558904402e-01 9.3267070720706557e-02
      1.3683300257970746e-01 2.4232899124451986e-02
      2.7610028785876133e-02 3.4120210482671504e-01
      1.8544664140569111e-01 1.7831291023801685e-01
      -1.9647975444145784e-02 -1.5225507457446796e-01
      -2.7499109883222617e-01 5.3448718405099946e-02
      -9.4350361562083407e-01 -1.4753360720910385e-02
      -1.2145831820360281e-01 -2.0490498509527039e-01
      4.7751030147162576e-01 9.1360135127096911e-02
      -7.7687494983277289e-02 -3.6094633521412067e-01
      -2.3913582852497481e-01 3.1639718167914438e-01
      -3.8927738942588752e-01 -3.0462509366603413e-01
      -1.1328072386411084e-01 4.4890355361804335e-01
      -1.4322739453103434e-01 -2.7982258087331291e-01
      -1.9032790811275627e-01 -1.5035303676256959e+00
      1.4758120796872587e-02 -3.2632594713795898e-01
      3.3968038112870282e-02 -1.9385297272151637e-02
      4.3746818540925314e-01 1.9808141091854434e-01
      4.7117269616230284e-01 1.2232399658498279e-01
      -1.7510092375580441e-01 -1.9737104068318170e-01
      -6.5817984830767229e-02 4.1040645127790997e-03
      -2.3389677058630778e-01 3.0672120636184130e-01
      4.0142117370176633e-01 3.0219539316206639e-01
      -6.8949203590476349e-02 -6.0887404014699963e-02
      -2.4149691105774920e-01 -9.7893718874721383e-02
      3.4060856442605802e-01 1.7425121361163978e-01
      1.0772929587484686e-01 1.7283158025825140e-01
      -4.2263236107249365e-02 -2.1236323659838266e-01
      3.0820146890840816e-01 1.0936788275230505e+00
      -3.3198289742067059e-02 1.7848371395006651e-01
      -2.5269209595757819e-01 -6.5458260092072829e-01
      -2.2597371597411375e-01 -5.1838986769224771e-01
      -7.0553225038093448e-01 -2.4739051134344972e-01
      4.0816614357158082e-01 -1.5730508473492062e-02
      6.5525876879691317e-02 3.0721956505953146e-01
      -7.3720008465151823e-02 -4.5827973230735114e-01
      6.9915157248959539e-02 -1.5849214717135796e-01
      -1.1527982365763369e-01 2.0858960765656417e-01
      -6.8659341132409535e-01 5.0660256820683508e-02
      -6.2562359858376590e-02 3.3099520264582099e-03
      4.0551001782833079e-01 1.5629605210006114e-01
      -1.3616741712237898e-01 -8.1169532060854852e-02
      -3.2588727642213718e-02 1.3211652078155720e-01
      1.2956648933280013e-01 -5.8503766532274681e-02
      5.3335794229110757e-02 3.3732617285104000e-01
      4.1818918984711351e-01 -1.8260572561181712e-01
      -3.4708215477825066e-01 -8.5489506534910040e-03
      1.6348310193104162e-01 -1.0068363767702106e-01
      1.9370279784934122e-01 2.5245745763310401e-01
      -1.8204355225082453e-01 2.0174686989575283e-01
      2.4307682664929837e-02 -3.9186439507689863e-01
      -5.8669628004776445e-02 -2.3943423447105489e-01
      -1.9344175399497038e-01 3.6730733705335322e-01
      -3.0516566759195403e-02 -2.0309764984735346e-01
      2.2207634420621833e-01 -1.3318556011717944e-01
      1.2879069550496820e-02 8.0313836299722344e-02
      -1.5838641789766830e-01 3.8217598398133479e-01
      -6.5984671160703917e-02 5.7623918891918002e-01
      -9.3069024243171844e-02 1.1309438216957821e+00
      -4.4775467458364554e-01 -6.5161289565352110e-02
      -1.5484854343680630e+00 -3.9103614315978802e-01
      -2.7408625625868893e-01 -1.0879986575933127e+00
      -5.5541920928210864e-01 -4.3621419746883427e-01
      5.3916997162711633e-01 1.0306034302442682e-01
      3.4896295800685906e-01 2.1765573066994881e-01
      -4.7121468831781664e-03 3.5797972867141720e-01
      -1.0749513542771562e-01 8.3043193097794288e-01
      -2.8647187013944170e-01 -7.2295723203557116e-01
      -4.6953911758931571e-01 -1.4484097926220263e-01
      -1.1440855880802554e+00 -1.3692933276627689e-01
      7.1388013838465236e-01 8.8517020369704200e-02
      -9.7754807189564183e-02 -2.8032490155984324e-01
      2.5105866922341813e-01 1.1007652782896200e-01
      3.5370263063305096e-01 -1.2733725129923041e+00
      1.3561963984675990e-02 -1.2961507487010644e+00
      6.9185040184280802e-02 -5.7428205159539385e-02
      -1.0221711700301293e-01 -5.0134576424190758e-01
      -2.7041272254285170e-01 7.2989643398115855e-01
      -9.0824850697365164e-02 8.6070165626058859e-01
      -2.1632805560211760e-01 -2.4481516800468869e-01
      -5.5075841011082941e-02 3.5001269068126555e-02
      -1.0731444273550235e-01 -8.8989412285316080e-02
      -2.5655783621147016e-01 -5.9702395461065094e-02
      1.3726210757709245e-01 -2.2158316200530728e-01
      -1.8269577876743223e-01 -5.2433147294366159e-03
      -2.0159627031362651e-01 2.8325626711723902e-02
      2.1743873011946377e-01 3.1258999052780319e-03
      -1.3767241289962165e-02 9.7763676283020337e-02
      1.7198886943520367e-01 9.5442471202040483e-02
      -2.8412834697628042e-01 -2.2143537731985508e-02
      -4.7619842077621111e-01 -7.4736446368381823e-02
      1.1209154410644645e-01 -2.2885889980374963e-01
      -1.1076803631714797e-01 -2.7309985628701877e-01
      -6.5390657861550808e-02 -1.1875468849290460e-01
      1.3633945688037899e-01 -4.9326117186863763e-02
      7.8922382190168616e-02 1.1320197846811571e-02
      1.4603688884172733e-01 -2.5821842357462443e-01
      1.7553407486044972e-01 2.2404306702197291e-01
      -3.0527682617118489e-02 -3.8599398912486191e-02
      -3.1169967224238643e-01 4.1296776653424178e-01
      -2.2786325080726427e-01 3.9404263727357464e-01
      2.2958043426012742e-01 1.9465471752272021e-01
      -1.6825649206023627e-02 3.6159548648272677e-01
      -2.2096377832770162e-02 2.3443124826690095e-01
      9.6839261683937861e-02 -6.5905721826917854e-02
      5.7645186239349688e-01 8.7799936593637529e-01
      -8.2755101630703687e-01 -2.6478579963138543e-01
      -1.4593238038531270e-01 -3.1487317856501940e-01
      6.7752651822702232e-03 -1.5466945814814123e-02
      -1.4164484594821097e-01 3.2196841458031988e-01
      3.5747208961146654e-01 2.0228949515693906e-01
      -1.1777610104891452e-01 -3.3321132406539367e-01
      1.3952902364934161e-02 -2.3810427465469713e-01
      4.6092359161739893e-01 -3.6275761252588509e-02
      -3.6408793888416967e-02 1.6536272125516815e-01
      4.6593860283174843e-01 8.8637436125724403e-02
      -2.5876593775893247e-01 1.9409592635170450e-01
      -1.2299649267531258e-01 -3.3052796930036717e-02
      -2.6154790000321027e-01 -2.4434313540502009e-01
      2.2840688066908983e-03 1.0112500114279951e-01
      2.6052506444261953e-01 1.3234986937417612e-01
      1.0941660567138443e-01 2.1103810351530941e-01
      3.1572123778315794e-02 -7.4977153535592242e-02
      1.3295521495233306e-01 1.1179106639249413e-01
      7.3931763715281457e-02 2.3342929633472745e-01
      -3.7136227913488556e-02 -4.9620840297939506e-02
      2.4622691543460551e-01 -2.1637405826334141e-01
      -4.1500300595355294e-01 2.4855734581592978e-01
      3.8278372021702328e-01 -9.1501149908879170e-02
      -6.0996559940696216e-01 -1.4282460302837498e-02
      -6.6815946201324514e-04 6.4539235809719742e-01
      2.7927012717842203e-01 5.5143110684719047e-02
      3.4298614015012791e-01 4.9912321155570101e-02
      2.0771326672342871e-01 -3.9365834028461322e-01
      -7.1662056629024962e-01 -4.5230127502732270e-01
      -1.3112641800165398e-01 4.1589652689430545e-01
      1.0783827810143653e-02 1.2131204052338189e-01
      5.6537884748713838e-02 -3.6316617913936827e-01
      -1.6242666657654872e-01 7.8168133908207774e-02
      -1.1732341338138630e-01 -2.4690088765152468e-01
      -8.4298079178151977e-02 -4.4840506578713163e-03
      2.9755301430594649e-01 4.1815057521156140e-03
      6.0762489368328942e-01 4.5354512562424254e-01
      1.1656302468090181e-01 5.2916374527531840e-02
      6.8986890516937605e-01 -6.0707545163458110e-01
      9.0420232247460264e-02 -2.7711320876849616e-01
      -5.2397511982975938e-02 2.9608556106441974e-02
