<?xml version="1.0"?>
<opencv_storage>
<opencv_ml_ann_mlp>
  <format>3</format>
  <layer_sizes>
    128 50 34</layer_sizes>
  <activation_function>SIGMOID_SYM</activation_function>
  <f_param1>1.</f_param1>
  <f_param2>1.</f_param2>
  <min_val>-9.4999999999999996e-01</min_val>
  <max_val>9.4999999999999996e-01</max_val>
  <min_val1>-9.7999999999999998e-01</min_val1>
  <max_val1>9.7999999999999998e-01</max_val1>
  <training_params>
    <train_method>RPROP</train_method>
    <dw0>1.0000000000000001e-01</dw0>
    <dw_plus>1.2000000000000000e+00</dw_plus>
    <dw_minus>5.0000000000000000e-01</dw_minus>
    <dw_min>1.1920928955078125e-07</dw_min>
    <dw_max>50.</dw_max>
    <term_criteria>
      <epsilon>9.9999997473787516e-05</epsilon>
      <iterations>10000</iterations></term_criteria></training_params>
  <input_scale>
    9.7931368425800934e-03 -5.0091894949797178e-01
    7.9379761928936553e-03 -1.1680731967843014e+00
    7.8448964462303553e-03 -1.0214055172991923e+00
    7.9424534944161768e-03 -1.1723061357758275e+00
    7.9840662898161517e-03 -1.2083884329636745e+00
    7.8640852545347473e-03 -1.0758068628203534e+00
    7.8968823210901120e-03 -8.8958379347080119e-01
    1.7993390891808767e-02 -2.2941573387056177e-01
    9.2937083926670962e-03 -5.4925816600662536e-01
    9.3608956930523526e-03 -1.8450325411006188e+00
    8.5818140341788144e-03 -1.5382901656265524e+00
    8.0940488529772005e-03 -1.2869537676233749e+00
    8.2612901774945322e-03 -1.3841791692392089e+00
    1.0044227945899591e-02 -2.0806618189931001e+00
    8.0673426338271279e-03 -1.2693963634326986e+00
    1.5024964528506960e-02 -2.8171808490950551e-01
    1.1091118902489936e-02 -4.1425329100799912e-01
    8.9469823615165311e-03 -1.6896376189723969e+00
    7.9251943057576484e-03 -1.1554933297794652e+00
    8.5061488213524893e-03 -6.6475553038869706e-01
    7.9424534944161785e-03 -8.5301950530029758e-01
    8.5916716911113022e-03 -1.5426346521390344e+00
    8.4529774110362506e-03 -1.4796936958018958e+00
    1.5615115017322842e-02 -2.6936073404881899e-01
    1.1362031722014524e-02 -4.0051161820101200e-01
    8.5432811531187848e-03 -1.5211312093127998e+00
    7.9108805675022539e-03 -8.7692111090762481e-01
    9.0924120931663490e-03 -5.7282196186947998e-01
    8.5016034579804643e-03 -6.6567555075987028e-01
    7.9990408125351926e-03 -1.2202536759522438e+00
    8.1758059384954892e-03 -1.3367442709440125e+00
    1.4969976010176082e-02 -2.8293254659232792e-01
    1.2361565098462384e-02 -3.5786730960048602e-01
    8.2029990023347200e-03 -1.3522643855348786e+00
    7.9614604527987864e-03 -8.4073022381555185e-01
    8.3905846295857910e-03 -6.8970605655195205e-01
    8.3103880850598031e-03 -7.0929162305985416e-01
    7.8602143748486997e-03 -9.3615153204448009e-01
    7.8567420131838619e-03 -1.0606601717798214e+00
    1.4704884623478133e-02 -2.8895098285134529e-01
    1.4862007812633785e-02 -2.8535055000256865e-01
    8.2092157606623237e-03 -1.3557519828733828e+00
    7.8465318178199961e-03 -9.7100831245522456e-01
    8.1641249477097874e-03 -7.5191590768407135e-01
    8.1198232804652170e-03 -7.6732330000396298e-01
    7.8683564108345885e-03 -9.2295820699089726e-01
    7.8468090086964877e-03 -9.6986559347488588e-01
    1.5552569748773729e-02 -2.7061471362866285e-01
    1.8197623892111513e-02 -2.2656041745678832e-01
    8.2250387932556231e-03 -1.3645339358011079e+00
    7.8746773287879171e-03 -1.0937926809686418e+00
    7.8436800889168622e-03 -1.0118347314702751e+00
    7.8536665959184418e-03 -1.0531766905126629e+00
    7.9172096945386277e-03 -1.1472036847386471e+00
    7.8431861053481731e-03 -1.0035356621792988e+00
    1.7513564583091126e-02 -2.3643312187173021e-01
    2.1602706625772728e-02 -1.8794354764422272e-01
    8.0293550251495666e-03 -1.2429441578931530e+00
    7.9279509068576493e-03 -1.1582736274919025e+00
    8.1787648026898623e-03 -1.3384548599601960e+00
    8.6738889946880778e-03 -1.5782141025834957e+00
    8.1787648026898623e-03 -1.3384548599601960e+00
    7.8781075261518518e-03 -1.0989959998981833e+00
    1.6745398134794056e-02 -2.4866916230169173e-01
    2.3210354127426377e-02 -1.7407765595569782e-01
    7.9293471126673683e-03 -1.1596670152276025e+00
    7.8567420131838619e-03 -1.0606601717798214e+00
    7.8683564108345868e-03 -1.0834726777719226e+00
    8.0251420280887335e-03 -1.2398844433397094e+00
    8.0890662635644556e-03 -1.2837348160276789e+00
    7.8781075261518518e-03 -1.0989959998981833e+00
    1.4503896292551947e-02 -2.9370389992417695e-01
    2.4428875996858342e-02 -1.6489491297879380e-01
    7.9786610429917523e-03 -1.2039799513874554e+00
    7.8450974168541576e-03 -9.7789139301087080e-01
    8.4880935210564033e-03 -6.6843736478319171e-01
    8.0603523047255328e-03 -7.9072056109357469e-01
    7.8647692667123108e-03 -9.2843601193538827e-01
    7.8505784575501909e-03 -1.0445194637770530e+00
    1.2504142683509547e-02 -3.5261682367496922e-01
    2.3917918692233291e-02 -1.6862132678024469e-01
    8.0009704165417452e-03 -1.2217481826059244e+00
    7.8440547101099236e-03 -1.0154128822237296e+00
    8.8091376373045528e-03 -6.1179460891080117e-01
    8.2545494620960818e-03 -7.2433671529893118e-01
    7.9614604527987864e-03 -8.4073022381555185e-01
    7.8947114877661127e-03 -1.1214437668371764e+00
    1.1128264951350244e-02 -4.1230221644752651e-01
    2.2361294719058265e-02 -1.8112648722437194e-01
    8.3140256428717741e-03 -1.4117215541596273e+00
    7.8730297895455905e-03 -1.0912019288310189e+00
    8.7284338102685058e-03 -6.2451943912471153e-01
    8.2889316288027887e-03 -7.1492035298424050e-01
    7.9699044425951462e-03 -8.3564448080610099e-01
    7.9648007208801015e-03 -1.1923306679157510e+00
    1.0220489995961642e-02 -4.6758741731524511e-01
    2.2988642421982321e-02 -1.7586311452816475e-01
    9.0007041188719453e-03 -1.7105838177916133e+00
    8.2924640895669401e-03 -1.4005971847278562e+00
    8.6792313109817030e-03 -6.3271596257056617e-01
    8.5867314963220323e-03 -6.4915690112194557e-01
    7.8864874477592092e-03 -9.0024254216171373e-01
    8.0557609800797434e-03 -1.2615321694804877e+00
    1.0155948592729207e-02 -4.7225160956190815e-01
    2.6875821890423170e-02 -1.4916081149184859e-01
    8.7452924053480086e-03 -1.6082592733434988e+00
    8.8091376373045545e-03 -1.6345354886018602e+00
    7.8772330599178632e-03 -9.1100200337950088e-01
    8.0649987006239689e-03 -7.8875687292102414e-01
    8.1171805996246883e-03 -1.3015899091498186e+00
    8.2282519964309436e-03 -1.3663012440073583e+00
    1.1486419239162922e-02 -3.9455850086524635e-01
    2.6875821890423170e-02 -1.4916081149184859e-01
    7.8453092674761107e-03 -1.0238128594056324e+00
    8.8825825200593688e-03 -1.6641518351331226e+00
    8.1093400039078944e-03 -1.2966834666248723e+00
    8.2060993986221818e-03 -1.3540064007726600e+00
    8.3668416522044778e-03 -1.4382600800139498e+00
    8.2218418566424971e-03 -1.3627702877384940e+00
    1.0369132293079576e-02 -4.5727873412480929e-01
    2.9784470107251351e-02 -1.3403011548263108e-01
    8.3865802474448001e-03 -6.9063488337707923e-01
    7.9470400131351673e-03 -8.4993592940480611e-01
    7.8457656194213903e-03 -1.0262261430203179e+00
    7.9265666439705725e-03 -1.1568824016875050e+00
    7.9013625515015496e-03 -8.8534767389574864e-01
    8.0965615161523053e-03 -7.7605542132319838e-01
    1.2389604863542764e-02 -3.5682062007003162e-01</input_scale>
  <output_scale>
    5.2631578947368418e-01 4.9999999999999994e-01 5.2631578947368418e-01
    4.9999999999999994e-01 5.2631578947368418e-01 4.9999999999999994e-01
    5.2631578947368418e-01 4.9999999999999994e-01 5.2631578947368418e-01
    4.9999999999999994e-01 5.2631578947368418e-01 4.9999999999999994e-01
    5.2631578947368418e-01 4.9999999999999994e-01 5.2631578947368418e-01
    4.9999999999999994e-01 5.2631578947368418e-01 4.9999999999999994e-01
    5.2631578947368418e-01 4.9999999999999994e-01 5.2631578947368418e-01
    4.9999999999999994e-01 5.2631578947368418e-01 4.9999999999999994e-01
    5.2631578947368418e-01 4.9999999999999994e-01 5.2631578947368418e-01
    4.9999999999999994e-01 5.2631578947368418e-01 4.9999999999999994e-01
    5.2631578947368418e-01 4.9999999999999994e-01 5.2631578947368418e-01
    4.9999999999999994e-01 5.2631578947368418e-01 4.9999999999999994e-01
    5.2631578947368418e-01 4.9999999999999994e-01 5.2631578947368418e-01
    4.9999999999999994e-01 5.2631578947368418e-01 4.9999999999999994e-01
    5.2631578947368418e-01 4.9999999999999994e-01 5.2631578947368418e-01
    4.9999999999999994e-01 5.2631578947368418e-01 4.9999999999999994e-01
    5.2631578947368418e-01 4.9999999999999994e-01 5.2631578947368418e-01
    4.9999999999999994e-01 5.2631578947368418e-01 4.9999999999999994e-01
    5.2631578947368418e-01 4.9999999999999994e-01 5.2631578947368418e-01
    4.9999999999999994e-01 5.2631578947368418e-01 4.9999999999999994e-01
    5.2631578947368418e-01 4.9999999999999994e-01 5.2631578947368418e-01
    4.9999999999999994e-01 5.2631578947368418e-01 4.9999999999999994e-01
    5.2631578947368418e-01 4.9999999999999994e-01</output_scale>
  <inv_output_scale>
    1.8999999999999999e+00 -9.4999999999999996e-01
    1.8999999999999999e+00 -9.4999999999999996e-01
    1.8999999999999999e+00 -9.4999999999999996e-01
    1.8999999999999999e+00 -9.4999999999999996e-01
    1.8999999999999999e+00 -9.4999999999999996e-01
    1.8999999999999999e+00 -9.4999999999999996e-01
    1.8999999999999999e+00 -9.4999999999999996e-01
    1.8999999999999999e+00 -9.4999999999999996e-01
    1.8999999999999999e+00 -9.4999999999999996e-01
    1.8999999999999999e+00 -9.4999999999999996e-01
    1.8999999999999999e+00 -9.4999999999999996e-01
    1.8999999999999999e+00 -9.4999999999999996e-01
    1.8999999999999999e+00 -9.4999999999999996e-01
    1.8999999999999999e+00 -9.4999999999999996e-01
    1.8999999999999999e+00 -9.4999999999999996e-01
    1.8999999999999999e+00 -9.4999999999999996e-01
    1.8999999999999999e+00 -9.4999999999999996e-01
    1.8999999999999999e+00 -9.4999999999999996e-01
    1.8999999999999999e+00 -9.4999999999999996e-01
    1.8999999999999999e+00 -9.4999999999999996e-01
    1.8999999999999999e+00 -9.4999999999999996e-01
    1.8999999999999999e+00 -9.4999999999999996e-01
    1.8999999999999999e+00 -9.4999999999999996e-01
    1.8999999999999999e+00 -9.4999999999999996e-01
    1.8999999999999999e+00 -9.4999999999999996e-01
    1.8999999999999999e+00 -9.4999999999999996e-01
    1.8999999999999999e+00 -9.4999999999999996e-01
    1.8999999999999999e+00 -9.4999999999999996e-01
    1.8999999999999999e+00 -9.4999999999999996e-01
    1.8999999999999999e+00 -9.4999999999999996e-01
    1.8999999999999999e+00 -9.4999999999999996e-01
    1.8999999999999999e+00 -9.4999999999999996e-01
    1.8999999999999999e+00 -9.4999999999999996e-01
    1.8999999999999999e+00 -9.4999999999999996e-01</inv_output_scale>
  <weights>
    <_>
      5.7541098801400203e-01 5.8873881258040450e-01
      3.8653389333464522e-01 -3.9355807149383326e-01
      -4.6090174247765470e-01 -2.4947113788404834e-01
      -3.5881326568631811e-01 2.5027419338290774e-01
      7.7498195087314939e-02 -1.7094347200074728e-01
      -1.8748129082194528e-01 2.0261426302781296e-01
      1.6807147635664035e-01 -4.7152736538346111e-02
      8.4068824435902648e-02 -1.8204726326849444e-01
      1.3256361433202937e-01 -4.8805851887129700e-02
      -5.6057507758375480e-01 1.4555162856352485e-01
      3.0923189691745349e-02 4.4012012704645465e-01
      -3.1683525112699028e-02 2.5221606002120434e-01
      9.6615579709965080e-02 3.3631060779297867e-02
      -1.0598952696239623e-01 6.6562063445017972e-01
      -1.3356156275934311e-01 5.2019608195436151e-01
      -5.2067665897278764e-02 2.3210973704704976e-01
      -3.3514581110971477e-02 -2.6572569939487672e-01
      -1.0590856795284076e-01 2.9459192735826445e-01
      -8.9060004551906352e-02 5.8868440803849266e-02
      -1.3117490409184393e-01 1.9679502211541491e-01
      -3.7686337858953245e-01 -3.1264804596208545e-01
      -4.9042189675772163e-01 -1.5422687082236380e-01
      1.8479472985215067e-01 -1.8798204544388639e-01
      -9.0318074339838239e-02 3.0833716600366023e-01
      -1.0098142860232136e-01 -2.3790765043084788e-01
      -1.5138474666022297e-01 3.6435855528076383e-01
      3.0212325597675677e-01 -5.5478121229131164e-02
      -8.3675314816531021e-03 -2.9049699879053564e-01
      4.9032266122162499e-01 1.2076778594245472e+00
      4.7519229866783663e-01 2.8126997328605585e-01
      1.6706931867290561e-01 7.5453837566434945e-01
      2.2932128073546976e-01 -5.1892250243941540e-01
      -4.2697686724376877e-02 1.3797827074253136e-01
      -3.3216786449286967e-01 4.4891682263837489e-02
      -4.6590057704679300e-01 -1.5349848847930167e-01
      6.1521248842618802e-02 1.2354926265493775e-01
      1.5057210740169356e-03 2.0398923136822050e-01
      -1.2210946633625068e-01 -9.0714796494413705e-02
      2.6993491384993077e-02 4.3334630915773983e-02
      1.9241330530063172e-01 -5.2154397695330021e-02
      1.3901101510830102e-01 1.1653083288188284e+00
      5.0701287069618350e-01 -2.3945409675755225e-01
      8.6744803052525132e-02 -3.3239788641734930e-01
      -6.3741368224627826e-01 1.2171213716904807e-01
      1.0868017979991532e-01 1.7693428043756448e-01
      -5.8273451534874543e-01 1.1109686307663495e-01
      -7.2508823762998564e-01 -2.4101161338618662e-01
      2.5340142157203394e+00 -1.4353434307096943e-01
      1.0716095231781766e+00 5.3214671219232901e-02
      4.6411547670554526e-01 -3.3234642712042245e-01
      7.3768510452597880e-01 -6.5815549006951746e-02
      -4.7312397289846122e-03 -4.1338598190216835e-01
      -4.3393752987318090e-01 2.6021928331666377e-01
      -2.8883624438923439e-01 -6.8278773037837015e-01
      2.1364730917452471e-01 -1.3628121227974416e-01
      5.3257330627758899e-02 -1.2150027294401229e-01
      8.9799791288442149e-02 -4.0363998450485567e-03
      1.6662994611782703e-01 -1.0530151824071902e-01
      6.0937278151999574e-01 -2.2283045616525676e-01
      -2.2103572384139172e-01 -7.8297088440860085e-02
      -3.6750785686108145e-01 -1.4471573047933248e-01
      7.5404298453496132e-01 -1.4199446868633023e-01
      7.5523504158517685e-01 -1.3943732680975011e-02
      3.3174131664005173e-02 1.1169786786114961e-02
      3.4606058165592235e-01 -1.7067243221435263e-01
      5.8417917173177854e-02 -6.3273863978365907e-01
      -2.1984244351012389e-01 9.6511572832607029e-02
      4.2492866173825805e-01 8.8931543013565734e-02
      -5.4157731102816731e-01 -5.2582880748074878e-01
      -9.6337432335315193e-02 1.2568062072160663e-01
      -1.7715229817294068e-01 3.0572472674744477e-01
      2.7942389544727975e-01 5.4947703182151426e-02
      -5.6134205361492395e-01 8.3924187770935507e-02
      -1.1865575532025505e-01 1.8793518367597550e-01
      -3.7598823927294894e-01 -1.5799771293677226e-01
      -2.4809419219112158e-02 -3.3699631719287543e-01
      4.4577199923216776e-01 1.4694059283024698e-02
      2.3469034272789335e-01 2.3173296225081497e-01
      -8.7328851505112048e-01 -1.0171702150296784e+00
      5.6189845398753491e-01 -5.7349601854090326e-01
      -3.4223857354740045e-01 2.4125490455264426e-01
      -1.0242670555361855e-01 -1.7614736683010328e-02
      5.5435120248992398e-01 5.2436285965449780e-01
      8.2008098301514587e-01 1.3947637700725923e-01
      -3.9275704872953426e-01 5.2963903151138059e-01
      3.7737731308562544e-01 -4.0921205864187438e-01
      6.3016094779835649e-02 -2.4239140660091116e-01
      2.2049969245880145e-02 -2.0472037113844399e-01
      -1.0991826885847755e-01 -6.5501243694001277e-01
      3.9213086599640407e-01 -4.5094134639623518e-01
      -2.6878366854865510e-01 -6.2060411364555132e-02
      4.6562882246529913e-01 5.2014480988456027e-02
      -1.3652531164382392e-01 -8.9704491290043348e-02
      -6.2366786638474885e-02 1.2414683039496237e-01
      -3.0774183742333888e-01 -1.3163009974667386e-01
      1.3232093329283484e-01 -2.0785364668724990e-01
      4.3113026669066412e-02 4.2056573049601492e-01
      -2.7229547555696554e+00 2.5753416054368405e-01
      -4.2010652172213864e-01 6.6747396678340870e-02
      -1.4287170740254854e-01 6.3075329141977485e-02
      3.4769544692436333e-01 -2.1145240603270446e-01
      2.6719990468535065e-01 2.5832998807390645e-01
      6.3702686483616267e-02 -2.8319036801790621e-03
      -8.0411663509976594e-01 -1.2070532119575879e+00
      -3.1074039992522784e-02 -1.0879945582632606e-02
      6.7284140237064222e-02 1.4770939667595928e-01
      -1.4130574403595944e-01 3.1598244589929492e-01
      1.6158127970993591e-01 6.6416175610670605e-02
      -4.5124192741978875e-01 7.8786258432981662e-02
      -4.2475782828643865e-02 -4.6931909413926737e-01
      -4.4410390637181274e-02 1.2330974162737632e-01
      2.4761502818200257e-01 -4.4262249367200845e-01
      1.5941905627041162e-04 2.0608454977465052e-02
      -5.0682414769440819e-02 1.1403033398889966e-02
      2.6269395682507768e-01 2.0533001246616184e-01
      -9.2582742949658514e-02 -6.7247475121315070e-01
      -1.3721614652372199e-01 -3.5159839212944966e-02
      6.2064481890739195e-02 -5.9503698030135617e-02
      -5.5780723883411076e-01 -1.4931404713413457e-01
      -2.2591764686715562e-01 -3.5615233792478572e-02
      -2.6332302564154340e-02 2.8773098572380151e-01
      7.5307114874825443e-02 2.9325439176476831e-01
      -7.5517034989089027e-01 -1.5092814819387521e-01
      8.4172831205019644e-02 1.4634926774994950e-01
      -1.3422450565884139e-01 3.4861418576954611e-01
      -3.9535427371800325e-01 2.8519175501572824e-01
      1.8387597328762628e-01 2.0171192312109582e-01
      5.2826858965887680e-01 1.8626358286341305e-01
      -1.3545515235303493e-01 -2.4806584348185112e-01
      1.6477738032387412e-01 -1.1029106258798131e-02
      3.3772123697990326e-03 1.1008403470109780e-01
      -2.8158024691948963e-01 5.2391488678888855e-02
      2.4220542433308107e-01 3.7404744596103862e-01
      2.1539207601511273e-01 -1.3950682036904352e-01
      1.0857490465183363e-02 6.3471511692012386e-03
      -7.6831749567194407e-02 7.0645304301627146e-02
      -3.2022382960133183e-01 -3.6968335380410666e-01
      4.6791832233567593e-01 -6.7318304247938193e-02
      6.0479952152687172e-02 1.0910719264745956e+00
      6.9589441618803913e-02 1.8442593433410223e-01
      -1.1546078135650868e-01 -1.4407377767249627e-01
      4.3825948849304430e-01 4.7132047064853133e-02
      -2.5322397783407635e-01 5.3943618501789026e-01
      -6.6791992639510911e-01 -1.7401305016088935e-02
      -1.6359926804096295e-01 -4.0499569459147886e-02
      -1.8541107794911488e-01 6.7904680325311620e-02
      4.1553000364648424e-01 7.4547541476383794e-01
      -5.0960120956465849e-01 -7.1805985062631128e-01
      -2.6585557524701063e-02 3.0758988824277866e-01
      -2.5519704909930566e-02 -3.5700355777796988e-01
      4.9275849159350821e-01 5.2682238844351992e-01
      2.9790374634702469e-02 1.9448806675458871e-01
      2.1966127902295748e-01 1.1422649625654840e-01
      3.5578930809636661e-01 1.6530887445665430e+00
      1.9185461686960745e-01 2.1348881206793979e-01
      -5.1705017607506965e-01 7.7915025502779700e-01
      3.7280268639480654e-02 3.7408751643050124e-02
      1.8927683622104896e-02 -3.2611077389150861e-01
      5.4386491189914066e-02 -4.6141198160420549e-01
      -1.0383777779420315e-01 -2.6797433232134171e-01
      5.7156386500782685e-01 1.9352532061062322e-01
      -3.5774639308466825e-02 5.0418224068364392e-01
      -4.2352484383357880e-01 -1.3187761701769357e-01
      -1.1146608166201173e-02 3.8147601092303351e-01
      -5.8756446247772554e-01 8.4330806731665764e-02
      2.7730070288156279e-02 5.9189984582903044e-01
      2.5827611999598099e-01 -8.6837047409729029e-02
      3.3028133781973090e-01 -1.0045985728517338e-01
      -6.4635442149098521e-01 2.6729446129336470e-01
      1.8814951153475790e-01 -2.6566069286768890e-01
      -2.1072259028686938e-01 4.3641117206269781e-01
      -2.0335108527490303e-01 -6.5675722524667890e-01
      8.7937496668435665e-03 7.9505338127040567e-02
      5.5187834346608372e-02 7.7637562480493472e-01
      -4.7308230058789691e-01 -2.7682535768683847e-01
      2.0556710847698605e-02 5.6569286996347279e-01
      1.3609217122212022e-01 1.7874695458469309e-01
      -6.6493005325049381e-01 1.8862718326084371e-01
      2.8397899972542223e-01 6.4653808450570238e-01
      5.3614554629420226e-02 6.7346141434772064e-02
      -3.2683566763759192e-01 3.9314114299927766e-01
      -2.5409436073274755e-01 -1.7739604512332119e-01
      2.4160239854621018e-01 -8.8252165348293055e-01
      1.8085648773264998e-01 -1.6757983062217316e-01
      -5.0884635809450984e-01 -3.6985485752910219e-01
      1.3739445769557670e-02 -2.3469555238170162e-01
      -2.9691547122075751e-01 5.5592309671434847e-01
      -3.5981561565488834e-01 -6.2730321271652470e-02
      -4.3524137242760225e-01 6.2283146829040326e-01
      -1.2962173077030595e-01 6.1113761543878309e-01
      2.0065957007568219e-01 2.4123050537150018e-01
      1.9979103154402378e-01 7.7261522977308081e-02
      -2.2596236071300002e-01 -3.7093370394387482e-01
      -7.7489178422109073e-01 -4.7493481471216356e-03
      2.6328305385967232e-01 1.1201348510246466e-01
      1.2579179173912472e-01 2.4392155806872998e-01
      1.3905513992429896e-01 9.4082000249278985e-01
      -3.4570762092754914e-01 -1.4102831329218857e-01
      9.2785534104542072e-02 -4.7048022687435714e-01
      -4.5246761400869251e-02 4.9942904867183952e-01
      8.2369848787876385e-02 2.7888369126211304e-01
      2.5871643229423469e-01 8.7644527728103785e-02
      -1.8820058695862790e-01 -3.6554927696899178e-02
      -5.4815246778317905e-01 6.3352922997989580e-01
      3.5340149751257977e-01 -4.1188111846655778e-01
      -9.6737455764376798e-02 6.2676593315695042e-02
      -9.5255891585142513e-02 4.2521622148042482e-01
      2.1986664710175097e-01 -2.2438717940813599e-01
      1.2882435663559313e-01 -6.1446390704019659e-02
      -2.6356643034025223e-01 -3.9495555894354345e-01
      -1.5777171269302184e-01 -1.4901583758527071e-02
      1.5148333152474691e-01 -3.7659780991147182e-02
      5.0590593075665539e-02 -1.8770237402829695e-01
      -4.4560786261291993e-02 -4.4293439889334943e-02
      2.1985117024643802e-01 -1.4349638560561701e-01
      -2.7606016695140884e-01 3.6526065969291088e-01
      3.9710594205852295e-01 -9.0536484696388475e-02
      3.2116890852965992e-02 -2.6800488614773033e-01
      -2.1199967775844461e-01 -2.1301592248731824e-01
      5.2939854532756701e-02 1.5031530825209660e-01
      3.0408086330236911e-01 1.0384967991759564e+00
      5.4391215351086370e-03 -6.2127024807583564e-01
      5.4675268031741919e-01 -2.6042959717242653e-01
      8.2732571026166501e-01 2.2856398459927665e-01
      2.0615430129440238e-01 -6.4718539469001857e-01
      5.4623031470144155e-02 5.7835808431714808e-01
      -8.0802282340727352e-03 1.3812050757055880e-01
      -7.5296382398395811e-01 -3.8468866421056086e-01
      3.4466022165152249e-01 5.5094510594184520e-01
      3.1791574279760565e-02 3.2619798046455306e-01
      -1.5670577244567718e-01 -7.8811447697914067e-02
      3.2839884661615075e-02 -5.8867637027181376e-02
      -9.4968793885831626e-01 9.2105107614786297e-02
      -3.2313268252281308e-01 -2.5454500683408249e-01
      -4.6505099204848538e-01 -7.4910982763760370e-01
      -3.9041132267425678e-02 7.5784653373897404e-01
      1.0253279511499560e+00 -1.5224923917605146e-01
      -7.3021096697579180e-01 5.6657890820112335e-02
      -3.8917812186730188e-01 -3.5642104300389477e-01
      3.9607049154782137e-01 3.5177385444416465e-01
      -2.0544242751423514e-01 1.6449113538751550e+00
      6.2404328711506873e-01 -8.3555572837294576e-02
      -2.7268485174999380e-01 -2.7733752657884064e-02
      -5.2756299063490675e-01 3.8911384433174889e-01
      1.6452586193853330e-01 -4.4887866124451470e-01
      -4.9340940935086025e-01 2.0738473020314963e-01
      -6.6887275707310312e-01 -2.0370941133527800e-03
      1.0614609959853496e+00 8.1899435994444048e-02
      1.1227104147999365e+00 1.6814036072491376e-01
      -3.0597122465074583e-01 -3.8868009006318371e-01
      4.2396957847366151e-01 5.6154614039352446e-01
      -7.0566033276764462e-01 5.3584930584494664e-03
      -5.7782482380727453e-02 -3.8176083596544702e-02
      -8.3660037063645798e-01 1.0516770417993626e+00
      5.9413656808681936e-02 1.3083656305262056e-02
      1.0433855447323484e-01 2.8350052030332987e-02
      -1.5586312188664811e-02 -3.2481594640569322e-01
      -5.6709237098159025e-02 -7.0066911086289785e-01
      9.0889133436847436e-01 1.5002725000679398e-01
      5.8422237630975898e-02 -1.7022376599257963e-01
      6.7657997856439656e-01 2.2367692169491143e-01
      -5.3752492731391599e-01 -1.5349611095297752e-01
      -1.2692772208454664e-01 1.7583846496477273e-01
      3.0560182979359851e-01 2.9136358665288131e-01
      3.0618034170311809e-01 2.3904377362239421e-01
      1.1631258915082654e+00 -7.1382472877900161e-03
      1.4413479681281782e-01 2.2266616522773522e-01
      5.5693715112770081e-01 1.6403483564035970e+00
      -1.0561883434499189e+00 -1.2552082543532450e-01
      2.2699899739862966e-01 -1.3405434451015588e-01
      -5.3217210319299635e-01 1.1117561436209640e+00
      3.8078555347344223e-02 -7.6111722034296769e-01
      -7.4514808827988754e-01 2.1734310853536426e-01
      3.3272773630816715e-01 6.7099605393047068e-01
      2.9954415050737015e-01 -4.4507574819117257e-01
      2.5411896739936557e-01 1.0044389864617267e-02
      1.6547997004591566e-01 -5.0305834709754416e-02
      -1.8674869057252438e-01 -6.1469077994497190e-02
      -3.2611659740576837e-01 -2.2799622488529581e+00
      1.9128057653757824e-01 -2.1156508300043386e-01
      -7.2260560265879914e-01 2.1629865884371796e-01
      6.7001808962858467e-01 -4.5837144361310936e-02
      1.8474009168737679e-01 5.7182306913094361e-01
      1.1705829559028493e+00 3.6754874382397183e-02
      1.0633622043939406e-01 -3.2750728074919466e-01
      2.5517014295425516e-01 4.2834324679818500e-02
      2.7809946479325415e-01 -9.1697736137784869e-02
      5.6845490387559505e-01 -7.6222883100564617e-02
      -1.6032745992713765e-01 5.1849738633566833e-01
      3.7097472062965348e-01 -3.3792084117401011e-01
      -5.3397907076023898e-01 -1.4542684352230090e-01
      -9.7708416677248638e-02 -4.9439670475663144e-01
      -1.7310139205793534e-01 -1.1618327430400456e-01
      9.9144983654503582e-02 1.0294353960470809e-01
      -2.7456101169951186e-01 2.2477127445334591e-01
      1.0332113260853615e-01 2.1261876262325966e-01
      -5.9172436386106357e-02 4.4516629966347493e-01
      2.1138940844381846e-01 -4.4337755594231115e-01
      6.0252980907249298e-01 -2.0345155875713133e-01
      7.5230926208507007e-02 3.6064632308923920e-02
      5.0611370684611867e-01 1.7598752618714004e-03
      -1.7091286295507030e-01 2.4363608172042478e-01
      7.1262066812258806e-01 -1.2479864143185432e-01
      -2.0707851644295483e-01 -1.3440836083176355e+00
      4.7253035099971155e-02 -1.7051186525596546e-01
      2.4209439334824065e-01 9.4924596812926110e-01
      7.8070344642829137e-02 -5.2501617745218103e-02
      4.2558323579425977e-01 5.1467590035285164e-02
      1.0775812169324583e+00 2.6028352851859360e-01
      1.3509173083429644e-02 -3.8199940750427941e-01
      1.1458027757956722e-01 -1.0281042173243481e-01
      1.6677413172965705e-01 -8.3716409819933030e-02
      -4.8611287980269841e-02 8.9736984875529863e-02
      -3.4928240030397517e-01 5.1346458365016681e-02
      9.7393082256790486e-01 -6.7919073530988916e-01
      -1.6768583855220043e-01 -1.2775639222375903e+00
      -2.3153138414951910e-01 -3.3348929140533012e-01
      1.2359559482700504e-01 7.3390809041175661e-02
      -3.5088894287711732e-02 5.8938319500260898e-02
      -4.2925973030875464e-01 3.2411634369131875e-01
      -2.5830193679320862e-01 2.5243700631598448e-01
      3.1059049837919578e-01 4.0559828207125131e-01
      -5.2897473846183518e-01 -1.5510911501900024e-01
      1.2257015850925974e-01 8.8593518418240719e-03
      -1.9296766417682212e-01 2.6595477423436770e-01
      -1.3567971886875652e-01 3.4873677903527478e-01
      4.3085099096357021e-01 1.9342360690336388e-01
      7.4271687477291626e-01 6.3222926891209896e-02
      1.7078315748379835e-01 -1.1369094293779569e-01
      -7.2704540067951451e-01 -1.9118977492464634e-02
      -4.6130761447797003e-01 2.9117968001027639e-01
      -1.0903780804578937e-01 -4.2512214192237052e-02
      1.8345741286158779e-01 -5.5631041540967519e-01
      -1.7997909596903594e-01 8.1334562772489460e-02
      -1.0360942618447544e-01 -1.4458689464230742e-01
      6.3192906718331532e-01 2.6293586486437365e-01
      4.5742999047088123e-01 -2.4799546432589423e-01
      -1.0485342864757716e+00 -2.9215855078083086e-01
      4.7637639708876862e-02 5.0087030743202376e-01
      -9.7260610122612307e-02 -2.1901918947141494e-01
      -3.6691582937862960e-01 1.3504629982669714e-01
      9.6087689799138321e-01 4.9657250195393438e-01
      1.9313954771596389e-02 -3.6658438923309755e-01
      -2.3264220072502478e-02 2.1716988313559557e-01
      2.7563304083025481e-01 8.7840972687218255e-01
      -9.0711027219253670e-01 8.1482386590060088e-02
      5.8865605576750624e-01 8.0017251461712124e-01
      -1.3371114594464413e+00 9.9313441354356283e-02
      1.3517878379194457e+00 4.1309056397777028e-01
      -1.1362580871875463e-01 2.3349698213387407e-01
      3.0445058292812704e-01 3.8605082611487825e-02
      4.0558323832158660e-01 -2.3313160934783059e-01
      4.3814508189048355e-02 -3.5230605784570262e-01
      1.3194031096581879e-01 1.0025300619219297e+00
      -2.8842425860960347e-01 3.3059580661095017e-01
      -2.3126467523185959e-01 1.8926070364725459e-01
      9.3814218363662841e-02 -2.7574878597040170e-01
      -1.4582606603944634e-01 -4.2569415237207481e-01
      -4.3623097461322169e-01 -6.8803405118965030e-02
      -4.0161463648916662e-01 -2.8394860315767895e-01
      3.4577073773812755e-01 2.1750351122113631e-01
      6.4243709540742655e-01 5.7585507220533672e-01
      1.4081595774562583e-01 -3.3389246580450449e-01
      8.9055994185845699e-03 -8.3404423382029114e-01
      1.6581932513255040e-02 -1.7266453957918444e-02
      -6.9125991640548376e-02 1.1404650570113202e+00
      -1.8993438117464576e-01 -6.1208027892470554e-02
      3.2279568870553221e-01 -7.4779897068444545e-01
      -1.5895287954417159e-01 -1.1886517836592964e-01
      2.8940045464665171e-01 -2.6173653149072595e-01
      -2.6401771083316072e-01 7.8132420339200648e-01
      -1.6647660438012338e-01 -4.3530738537741759e-01
      -1.0303006923777840e-01 -4.4200269021252899e-03
      7.7513794163945313e-02 6.6681442601183560e-01
      -1.6715406393526566e-01 -2.7210287480625334e-01
      4.5667071659078196e-01 7.9942632257394863e-01
      -8.2128810821832920e-01 3.5690059821550130e-01
      9.7599325651504154e-01 2.3523267686549740e-01
      1.4227814020794088e-01 3.3985694183089937e-01
      -3.6231033995774775e-01 -1.5897442085107030e-01
      -1.6840954752503492e-02 4.0983969126114475e-02
      7.3538229599796098e-02 4.9446333151549088e-01
      -7.6999767749996645e-02 2.7934927557110045e-01
      5.9055828658932252e-01 -2.7106954937708827e-01
      -3.0861520980915874e-01 5.3369239446874595e-01
      -4.7172763442146415e-01 -1.3405773694198968e+00
      -5.4556962089167016e-01 3.1881768200675431e-01
      1.0963732797680481e-01 3.7183869963122262e-01
      9.6392357840651532e-02 -1.4513391884257201e-01
      4.2439593129436487e-02 5.8528326485271431e-01
      4.2436619771494438e-01 -4.9203481597227561e-01
      -1.5445724881046269e-01 2.3358047474759835e-01
      1.0200016959182694e-01 -3.1118041836858229e-01
      6.2380660583618375e-01 -2.7767753058405986e-01
      -9.9873409229375820e-02 4.5738014426363799e-01
      1.4751659178974108e-01 -1.4785310063360221e-01
      -1.7957832466311802e-01 1.3668916506638409e-01
      4.5414473913967229e-01 3.3476961546386470e-02
      -1.3222254698523261e-01 -1.3878613080082813e-01
      1.4988834808059684e-01 -8.9054084366002650e-01
      5.5371335122081304e-02 1.2242138548136281e-02
      -4.8434727751004304e-02 3.5778432683757307e-02
      -3.5776841560512623e-01 3.7665062773135277e-01
      -3.3639375791558168e-01 -2.9913604162568802e-01
      2.7249851827499832e-01 5.4183665141975035e-01
      1.5326897386811847e-01 6.6885054823856527e-01
      2.0885773907677901e-02 -1.1775724047922394e-01
      1.6815807191617915e-01 2.0632034142178055e-01
      5.2992299047102753e-01 -1.9562201274853333e-01
      1.3533212263548744e-01 -7.9137756237036463e-02
      -8.7234005161421879e-02 4.1543072209729283e-02
      4.5888827694866005e-02 2.0771643587474263e-02
      2.6707450724111675e-01 -1.0321202718676355e-01
      2.1106368807849979e-01 -1.8555312570960111e-01
      4.7705193375856332e-02 -2.2031404398657747e-01
      1.9410271514448289e-02 7.6628695170101041e-03
      -1.0661739578055475e-02 2.9920614230832887e-01
      1.6405550997577520e-01 8.3836974220190372e-04
      5.7293506857218479e-01 7.2116376536042281e-01
      -7.7765420211152680e-02 3.3099647464121257e-01
      -2.2358492329967880e-01 1.0591506645769411e-02
      3.7613798610012891e-02 -1.5462366248943163e-01
      -1.5395728222283936e-01 -2.0697051421266772e-02
      -1.1162737178331497e-01 -1.7179383240270032e-01
      4.2533067516469375e-01 5.4214921894379119e-02
      -6.1619473542631542e-01 1.4232597766699972e-02
      4.6864457236624732e-02 -1.3610008883143018e-01
      -5.2107705298304441e-01 -3.2137343437234039e-01
      2.1336331267235062e-01 -2.9044029124473097e-01
      6.7902093891975190e-01 2.0912758593316252e-01
      2.5668933834543733e-01 4.0066040660825711e-02
      -3.6750126623529206e-01 -6.4368395731711370e-01
      -6.1978740470803162e-01 -2.3497859385988260e-01
      4.6369545459868311e-01 -1.5788425453162794e-01
      1.7931117838613156e-01 -1.6127980192602662e-01
      -4.6244297261074159e-02 -1.6412028429308292e-01
      -7.5041684068518869e-02 1.3235004186350385e-01
      -1.8626518813103729e-01 2.8257116502382135e-01
      7.9288552954854444e-02 9.5536157542311384e-01
      -9.3027083525839116e-01 1.0779589799184326e-01
      3.7395333279228254e-01 3.1153557181939118e-01
      7.9188924927005022e-02 3.9968840353039509e-01
      -1.3183028489254103e-01 -3.5537636844432030e-01
      4.6961723930437799e-01 1.7388195875240381e-01
      8.4441473364641167e-02 -3.8867759667629587e-01
      1.8749214350396215e-01 9.3321039113091531e-02
      1.9129837801835967e-01 -6.6315297821261127e-03
      -1.0999485481940664e-01 1.0785472202506385e-01
      2.4165526466361487e-01 -1.0244749861278117e-01
      -1.1311034417183650e-01 -1.1789281198786430e-01
      -5.9126741366537972e-01 -6.9034783608028019e-02
      5.2238594739932820e-01 -3.0303021298004551e-01
      -4.7662662340579592e-01 4.3064516893790716e-01
      -1.9757459629700883e-01 4.2240288586950211e-02
      -1.0389928567145575e-01 -2.9698238660903941e-02
      3.2795579001108421e-01 -9.1133088437876777e-02
      -6.3508608930574673e-01 -1.4685579718077010e-01
      4.2446349675132516e-01 8.6513556131310043e-01
      -4.0425285718608858e-02 -1.0059906014156013e-01
      -3.3601200334819969e-01 2.7662212144696974e-01
      3.6656839146380382e-01 4.8851516323806882e-01
      -1.8992921968732301e-01 -1.8053063414542270e-01
      -5.8566274802595034e-02 8.8276303161916678e-03
      -3.9981029154548917e-02 1.8238622609828298e-01
      -1.8263096891566352e-01 -5.0384757997373519e-02
      -1.2049268697385627e+00 -2.0819054748081287e-01
      3.7905618510386829e-01 5.5035449420777503e-02
      2.0669159996671407e-01 -3.4210844814603097e-01
      -2.3870409578204158e-01 2.6682927508057300e-02
      2.7014550775362889e-01 -1.4992632581237845e-02
      2.0179077228049194e-01 -2.3077082797566983e-01
      4.2069429553123799e-01 1.0173121191943593e+00
      -6.8342325686504468e-01 1.7956930976802288e-01
      -1.2842610806167037e-01 1.7428797491013023e-01
      -4.2499716914259862e-02 -5.3890561439717333e-01
      6.0982331568207468e-02 -4.5096285417581886e-02
      -1.7291528411000512e-01 5.6016585488556103e-01
      1.5123067091825002e-01 2.7071536295836685e-01
      1.2656550956242643e-01 -5.7039806944991667e-01
      8.5309929685136690e-02 -2.2127600042297099e-01
      -2.0763705745907873e-01 2.6203766993810979e-01
      1.9746585732169514e-01 2.0065955475532904e-01
      2.6043001234604030e-01 -4.4530576696088141e-02
      4.1742102584317176e-01 1.1605333243604854e-01
      4.9740288066142746e-01 1.7686339435309298e-01
      -2.6863711874340923e-01 -6.0953863712671186e-01
      -1.2119310909252756e-01 -2.2385935014479103e-01
      2.5117794179427902e-02 7.6716782579266646e-02
      -1.1100227701205319e-01 -2.7784426219772364e-02
      -4.8206108785782131e-02 5.3234190623998492e-02
      1.6639511317153816e-01 -3.9917568569361611e-01
      1.1545161230975103e-01 -3.9777677803422201e-01
      -1.9200438108995932e-01 9.1380356440772845e-02
      -8.5394846534983293e-01 4.2890851131880250e-02
      -6.0557199595897594e-02 -1.0694530309634923e-01
      -3.4372753662244887e-01 1.8353563974559595e-01
      7.4477880547898029e-02 -1.6911080303223205e-01
      -3.2597694834256424e-01 3.1518358981445299e-01
      2.4210850788102997e-01 -7.4887195044228805e-02
      -1.0126591067627780e-01 4.6908560454155240e-01
      3.3634355408834316e-01 8.9308899514249807e-02
      2.0784018213478203e-01 1.0921095258451434e-03
      6.9009585555891029e-01 6.4306386639117891e-03
      -4.3249710454494433e-01 1.9955830736928498e-01
      -5.4176113673822392e-02 7.7685126907549043e-02
      -9.1350380515086869e-04 9.7216672952772462e-02
      -4.6568160015066994e-02 2.1415475127754663e-01
      1.4296104495016512e-01 -1.6095327506981341e-01
      -1.3682664749589760e-01 -3.0875767097079843e-01
      -2.9569270607195741e-01 1.2254483903149849e-01
      -1.8620653688555139e-01 -6.9119276237221500e-02
      -5.7854059695639302e-02 4.1181471306981732e-01
      -4.7009114006194713e-01 -1.8881735980666134e-01
      -9.7341011162675101e-02 2.4004827857854116e-01
      4.7769363422050987e-01 -1.8459717007424192e-01
      5.7704126375214260e-01 3.4225404026753314e-01
      3.3023080120590481e-01 -2.9469114415719450e-01
      -5.8188226401241862e-02 -3.3999793840396636e-01
      2.1715351892559111e-02 1.7746635448617110e-01
      -3.5375213034270153e-01 -6.6301913028591716e-02
      -3.6684644046076509e-01 -8.5959173809612835e-02
      -4.0605882483329719e-02 5.7908234736808961e-01
      -8.0380436148943368e-01 1.4734916111866328e-01
      2.8359304787016848e-01 1.7102775039723661e-01
      -2.2786160549306142e-01 2.2904522486860018e-01
      -7.5152041073488898e-02 -1.3906214540411529e-01
      8.6095925849666424e-02 -6.9455419465324214e-02
      -4.3723290106915547e-01 1.0191514101513391e-01
      -5.8010372229122908e-01 -3.0294979549086321e-01
      8.5743947278152016e-02 -1.4766922025638240e-02
      2.8248528325838351e-01 1.3214260158041991e-01
      -7.0973938699729927e-02 3.1818479447116405e-01
      2.7040647533929752e-02 -4.2216207836701175e-01
      -2.8213386104188037e-02 -2.8152897608933237e-02
      1.1939639052165835e-01 -7.4990682089248903e-02
      -5.5747163883066320e-01 1.5188134218119570e-01
      -2.9962736199778806e-01 -5.5898906927698544e-01
      -2.4174492172013448e-01 8.6583518974503101e-02
      -2.4285722842146099e-01 8.6988204677350828e-02
      1.3535395353784935e-01 -1.8182081867707950e-01
      -1.5898027375073837e-01 -1.2930044455047046e-01
      -4.4618810568922801e-01 -1.3388712737864675e-01
      6.6186204042005381e-01 -9.9089178332801064e-02
      4.9351926848639011e-02 -3.5712039444540017e-01
      9.4382219045200111e-02 1.9368943285920190e-01
      -2.2837068626331239e-01 2.8579592118831360e-01
      7.5147594867911324e-02 2.2065262687458964e-01
      1.2903799108942080e-02 1.6220307506925705e-01
      -5.5346677528095922e-01 -2.8226572265021610e-01
      -1.0542138293134773e-01 1.9429677169850568e-01
      -7.4880325348971843e-01 3.9747184941117319e-01
      5.4974333128758435e-01 -3.2648186603249341e-01
      9.8530221999316103e-01 -6.9047699906804405e-01
      1.4427494179944195e-01 1.0219637390020517e-01
      -1.3112675035642057e-01 8.3200255692118821e-02
      -2.7708863047283854e-02 -1.6680172676142624e-01
      -1.2414091401686536e-01 3.6603022168634219e-01
      -3.8675767341801875e-01 2.3023936195030831e-01
      2.6102655279892045e-01 8.1111204903576428e-02
      -5.6887870212191116e-01 6.1534691987109091e-02
      -7.1184844568948913e-02 1.3149404772174356e-01
      -1.1537676972929005e+00 -7.1665201207723322e-02
      -2.3185904470825089e-01 -1.4563508255508334e-01
      1.9358638591341507e-01 -8.3528152468345995e-01
      7.5579677326347711e-02 4.3338989679367035e-01
      4.5052376763897628e-01 1.1912199729348418e+00
      -2.1834661553958332e-01 1.6817931227413867e-02
      -4.7331372688501916e-01 7.5494783734928073e-01
      -2.7030733068327223e-01 -2.7929570117362401e-01
      -8.3863110995208129e-02 1.1426914712640562e-01
      1.2836588528479242e-01 2.9549428729715305e-01
      7.6687158767170749e-02 -9.9432070657317143e-02
      -7.5129117315125082e-01 3.2519112792286881e-01
      1.3696565751240361e-01 8.6438595161571352e-01
      1.0538027896203275e-01 4.2304084619800647e-01
      8.3640131598721232e-02 -5.7661119943881389e-01
      2.0738933661906715e-02 3.0745010024536540e-01
      -6.0909137098386257e-01 2.1821671106296192e-01
      1.0662279625169062e-01 -4.2380315146923192e-01
      1.9733964878846647e-01 -1.4280545513197931e-02
      2.8847326204584434e-01 -1.9022876435880134e-01
      1.4659352856494642e-01 2.0241574023258932e-01
      6.8127721043927641e-02 3.7112101938523834e-01
      2.1074825789712071e-01 -7.6673279287979151e-02
      -5.1550955099327422e-01 -1.1458658934255780e-01
      -1.2762806330813267e-01 6.6983496670646944e-03
      -7.4106358176993417e-02 3.7562693128212959e-01
      -6.6647896872943346e-01 3.4229417991189733e-03
      2.9276900101179637e-01 3.3141575608391899e-01
      4.0972129481791925e-01 9.3710220854954576e-02
      9.5708694153516530e-02 -1.3008592997106608e-01
      -4.3902123113209998e-02 8.1476727442645891e-02
      1.9307106530502371e-01 4.2133384199338653e-01
      -1.0519243421216985e-01 -1.8493518604466938e-01
      1.4037775255576346e-01 4.0796923706773860e-02
      -1.4897487555880540e-01 8.5199445988502165e-01
      -1.9225064652703833e-01 -5.2860017954392069e-01
      -3.9531446996038200e-01 1.8170731482828331e-01
      1.9496339063012319e-02 9.0379431840188068e-02
      2.2926567951085566e-01 -2.0387041401380204e-01
      -5.8102558115529201e-01 -2.0995148693180716e-02
      -2.4323685030896439e-01 3.5912542796401437e-01
      5.1711576855621888e-01 -3.8056751789892135e-01
      4.6413282359060798e-01 1.0987359762890010e-01
      -6.0659062549923781e-01 -8.3497043653415717e-02
      1.8100214012346066e-01 -4.5613390450915788e-02
      -4.0256704584177155e-01 3.1693788031914055e-01
      1.9651796153388496e-01 -3.7682967479264429e-01
      5.4823435541231265e-02 2.5969478355005310e-01
      1.7195459023381446e-02 -2.0722056050167001e-01
      7.0665560990675169e-01 7.6453789393610139e-02
      -3.1798973391275331e-01 1.3426183506075576e-01
      -2.2695687272119919e-01 3.6823357617708621e-02
      -2.0484613314428562e-01 -5.2662492010392546e-02
      -2.2153121668299147e-01 -4.7104042397254930e-01
      2.3389908580626614e-01 -4.8844552158131915e-01
      1.9267959933315817e-01 5.2856649195138861e-01
      -2.4838477702753212e-01 1.4675300165436878e-01
      4.0788700861146104e-01 1.2927864776341380e+00
      -2.6183076758361984e-01 -6.0119973221204159e-01
      2.5847753030062026e-01 1.8485281991646504e-01
      -1.4735546512832562e-01 3.8674620850746000e-01
      4.6723719386493395e-01 -1.2787393596767099e-01
      -6.6333915054851575e-02 -2.0563965764487196e-01
      -6.9901833848907630e-03 5.4082996353172645e-02
      -5.5684217842053019e-01 -2.2124144464309176e-02
      3.2335454548201592e-01 -1.3066092050245920e-01
      -7.6211441097386534e-02 -3.3919199888898660e-01
      1.5129549954825053e-01 1.2377164128016580e-01
      3.2425707347190427e-02 2.4019250040261311e-01
      2.3345832679989689e-01 -4.0430383567720092e-03
      -3.0287153660639388e-01 -3.3297848652186979e-01
      -5.0487385508554850e-01 -2.8504649961747697e-01
      1.9073678615994802e-01 -8.4119121729605051e-01
      -6.5848357824767834e-02 -1.6289202861531490e-01
      5.9906050653710120e-03 2.6820393541209248e-01
      -1.2282249196277448e-01 -1.6952522435865555e-01
      1.1220956314993169e-02 4.2154288712114107e-01
      -1.2889906273728005e-01 1.8127270385414467e+00
      -3.2940190125335839e-01 2.2310593091683689e-01
      -2.7223966216803819e-01 1.5279937365881702e-01
      -1.0623700401800093e-01 8.9870634173070751e-01
      -2.4225539414627292e-01 -1.2259445713552400e-02
      7.5423729739097733e-01 9.1063268870279310e-02
      3.4400935311262965e-01 -1.1582679268208987e-01
      -1.8183616936328958e-01 -2.3569798287833812e-01
      3.1707876021729253e-01 3.5293031164014566e-01
      -4.2482899237252836e-01 -3.0372710131875952e-02
      2.5760284654549659e-01 7.2544335549269678e-01
      -4.5980127727851866e-01 -2.5194338137926919e-01
      5.1288084326247274e-01 1.4821101617816221e-01
      -1.8131930678813627e-03 -1.6684013048742985e-01
      1.0389622235344507e-02 8.9562043143402686e-02
      1.1619408358923221e-01 -6.0154017454640482e-02
      -1.7745036220240057e-01 1.4139169953229097e-01
      -2.7341262062440608e-01 -9.6219836269000125e-01
      -1.3554719692854211e-01 -2.1573562767661289e-01
      -2.4582932699579749e-01 -7.2440357147294376e-01
      3.6935401972584719e-01 -8.4402550187442568e-02
      -4.9764187818854239e-01 -5.3052286008843053e-01
      -9.4711041510712496e-02 -1.2858174680054765e-01
      -2.3714560181389693e-01 -1.7397272127760630e-01
      -6.4504940507891004e-02 -2.5111917990523264e-01
      1.2074999995586717e-01 3.1004853337224088e-02
      -2.4590647545331948e-01 1.0668991691160525e+00
      -1.8776071221188004e-01 -1.1017105867577472e-01
      -1.5081942723069061e-01 4.5101091878503557e-01
      -1.1360851208668551e-02 -5.1192054590250480e-01
      5.6527211343992456e-01 -6.9501541063139036e-02
      8.5803461800754835e-02 4.4990021471230696e-01
      -3.1829978315099317e-01 -2.4218885488436570e-01
      1.0134319580713300e-01 7.5549561984223523e-02
      3.5737713998474080e-01 2.4501954525501476e-01
      4.3814741152900888e-01 2.8945340818564681e-02
      3.9019098749980696e-01 -6.3732474254508376e-01
      -4.1607050328008921e-01 2.7802998410332364e-01
      4.9088882653786921e-02 -5.1543991090513508e-01
      1.2195567829547917e-01 -8.2184560158285735e-02
      5.2708514146254359e-01 -3.5220483444176526e-01
      2.6839528503228804e-01 -5.7327032255673538e-02
      -3.2465748143728757e-01 -5.5597978264182488e-02
      -2.0324595975403748e-01 -3.8265059604178520e-01
      -3.8335201437300698e-01 1.4787162388755026e-01
      1.7095941867037956e-01 1.9054931021149932e-01
      -5.6579858071541056e-01 1.5906161811893738e-02
      -6.7821551794210344e-02 3.4768018865600991e-01
      1.8025913603685292e-01 -1.8605269272209052e-01
      -2.3700603784834812e-01 -3.7090461472096570e-01
      -4.7987657333142347e-01 -1.7868902074592656e+00
      -4.3860313768381398e-01 1.3722664650407898e-01
      5.3456928297177608e-01 -7.3114805657236115e-01
      -1.3418960229940394e-01 -3.4380525213514812e-01
      2.2274247200865339e-02 -4.1438881563885804e-01
      8.0251392606954880e-02 -9.3552539978539906e-01
      4.0965742502443579e-02 1.9533679449558353e-01
      1.4524977049658988e-01 6.5049558443038313e-01
      2.4864831623916456e-01 1.0515591020763419e-01
      -1.3199202985609308e+00 1.6760130453019270e-01
      7.1870456868510291e-02 1.1760284424072525e+00
      1.1578458361785826e-01 5.4823955601421273e-03
      6.2308672130962872e-01 1.0338910164995324e-01
      3.8164403899233040e-01 1.8660342818288306e-01
      2.9229479425780380e-01 -2.1655873545521311e-02
      -7.9706574870509084e-02 -4.6598495265378792e-01
      -1.8126587481748258e-01 1.4354462074858054e-01
      1.5978457830481279e-02 -1.2394205315356119e-01
      -1.5956924290049506e-02 2.4838827619314671e-01
      -6.5430838798395743e-02 9.3644828130184998e-01
      8.0531974033084575e-01 -7.6572970055159187e-02
      6.5820290266711531e-02 -1.6247241257580765e-02
      5.4127934912587095e-01 -1.2913436667265199e-01
      -5.7275099834991017e-02 2.7443564908922058e-01
      -5.9544644966872051e-01 -1.0007830562501804e-02
      -9.2786464990671905e-02 -6.6372782914186679e-01
      2.1668707876770613e-02 4.8291802521879995e-01
      1.7384882570617197e-01 -2.1713382740942097e-01
      5.6325730219342993e-02 -4.3504217635768927e-01
      2.1972390447261117e-01 -2.2648977416612831e-01
      2.8751390822323586e-01 -1.2757576434229531e-01
      1.0131020505509433e-01 9.0899947120658305e-03
      8.7619413537597862e-02 1.7803231572640224e-01
      6.4234960286712231e-02 2.3945833397956376e-01
      2.2386071173343527e-01 7.2967566332506895e-02
      -5.8346475291424116e-01 -3.2571228815896491e-01
      1.5013599755588911e-01 1.2206355518973299e-02
      -1.9831668218192602e-01 1.3104047361619467e-01
      1.5193285731257239e-01 -4.1056779681140976e-01
      6.8521575821113989e-01 -1.2994165877452524e-01
      -3.1273440683487369e-01 -7.2268709538415488e-01
      1.1179493164557879e-01 5.1255815609918931e-01
      1.0836611064901626e-01 -1.5445330314423891e-01
      -5.4328934180172350e-01 4.2867525915110272e-01
      -2.7653559342443321e-02 -4.7482503409474325e-01
      -2.8482415432540681e-01 -1.0388583018042785e-01
      -9.5355938195586354e-02 -3.6117529767431478e-01
      5.6843297678470439e-01 -5.1488427456058294e-01
      -8.8006526730851617e-02 5.8732450218608914e-02
      -2.6493524657982898e-01 1.7555757022973401e-01
      1.2223371130885492e-01 4.2618201116376636e-01
      2.2461579803083459e-01 -1.8180496797614534e-01
      4.8297280266884651e-02 3.1463831370481915e-01
      -1.3989488590830430e+00 3.3728130699058356e-01
      -3.9503963866134700e-01 1.0158841792976652e+00
      2.8903449923180247e-01 9.1747238374712450e-02
      1.8419851358157566e-01 2.5611577319607493e-01
      -2.5325288338844565e-01 -3.5305858744153644e-02
      2.6121857869261034e-01 1.0271530189541203e-01
      2.4269203752367810e-01 -9.0516745187289291e-02
      5.9849727958808260e-02 1.4241712929757738e-02
      5.1552580731641429e-02 4.6280342041530131e-01
      -9.0748577403391029e-01 -4.2768955498885007e-02
      1.4607939710508958e-01 2.5386786497490949e-01
      5.8706659551720963e-01 -8.8870654453633935e-01
      2.9902462097983584e-01 1.8778928313556206e-01
      -5.2205129077699453e-01 1.6949747389997852e-01
      1.4157859191720806e-01 6.7947237700560992e-02
      -3.7387513969640451e-01 1.4240301566506677e-01
      -5.6661837766564871e-01 1.5949835758395231e-01
      -6.6400320326247653e-02 4.6360623401201878e-01
      -4.6408568815514778e-01 2.0612145336610521e-01
      1.8070339616409828e-01 -1.4412400592694960e-01
      -2.5158581009548481e-01 -2.2526932440168154e-01
      -3.5537145292251626e-01 1.1666407332960096e-01
      4.0391447018316129e-01 1.4481348789036489e-02
      7.7900123952013262e-02 3.8070795039208391e-02
      -2.0033336266321568e-02 8.9220719007576299e-01
      -1.8124059747613286e-01 1.2741341894456154e-01
      -3.2918215767514337e-02 1.7999232192629191e-01
      3.1518078771455871e-01 -2.2563103602089160e-01
      -1.5188822009408579e-01 6.2901271222633759e-01
      -2.2667981205693333e-01 7.3501177186162003e-01
      5.3850942577155572e-02 2.5996396021203944e-01
      9.8644119861922985e-01 -1.8432348597076054e-01
      3.3901920267511260e-01 5.1784730261939284e-02
      5.9023417618782625e-01 5.4010358068813835e-01
      -1.6498692967326042e-01 9.6634107513452430e-02
      -3.4419502908321659e-02 1.0558241465565127e-01
      -6.9033550430461804e-02 -5.6230596776354191e-01
      4.6031436605417408e-01 -9.6837856321005222e-02
      1.6315358185541082e-01 -7.2683929238023401e-02
      4.1339709469735458e-01 -2.0567692398624846e-01
      -3.0087491170518199e-01 -3.5362802249276054e-01
      2.6400841846518537e-02 2.8361892163877517e-01
      7.3366428080630555e-02 2.2911080004548900e-01
      -7.2101881536764123e-01 -8.3012359492809962e-01
      -3.1662263092553933e-01 7.8183080056162424e-02
      4.5841897289151007e-01 3.0065192933958718e-01
      2.0005284698256004e-01 -9.4060689409591849e-02
      -1.1601801015089587e-01 -7.2283494152746064e-01
      4.6784440998974774e-01 1.0821295989399868e+00
      1.2032816061509363e-01 1.0410063780552078e-02
      -4.1594301505753206e-01 -4.5137452260639510e-01
      4.7380406763507876e-01 -3.6095379831715436e-02
      -5.9384374270468374e-02 -2.9019104688119995e-01
      -3.3996999991069282e-01 -2.8160735088617361e-01
      2.2642463713291483e-01 1.1230552983449550e-01
      1.1643226895280152e-01 -7.1963249699785847e-02
      -2.3681328490655235e-01 1.5677337798504762e-01
      -1.8401535252563261e-01 -3.0556373732893033e-01
      1.1648839656859776e-01 2.1444254128898813e-01
      -6.3546300048189591e-02 5.3781552101841074e-02
      5.8916267021949902e-02 2.4528833012397341e-01
      -1.5156045917905697e-01 -6.2992657951145864e-02
      -3.9617093972210242e-03 -6.7179461987822597e-02
      -3.7267365839934197e-01 1.0053449746649945e-01
      -1.8517165025151899e-01 -6.0340508089438116e-01
      1.6078171945967287e-01 3.9236480599448981e-01
      9.9216546640176206e-02 7.6629729168521132e-01
      -3.7106152372220841e-01 -1.9515988044452012e-01
      -1.6376810005314785e-01 3.7589358797162508e-04
      -1.2825121477707052e-01 -5.9735990059344146e-01
      1.9757385968508904e-02 -2.1495303589916737e-01
      4.9092022708150879e-01 1.0384118609074580e-01
      1.6967079999845067e-01 -1.1487187892613308e-01
      -4.3112520779373290e-02 -5.6392515625489503e-01
      -3.6322870915844141e-01 -2.8977837363187747e-01
      -4.8132909969927588e-03 3.0218050629902926e-01
      1.1340596176633046e-02 1.7975752065580125e-01
      2.8194764597816957e-01 1.7382498230558925e+00
      4.3196418128735709e-01 1.5688721698129207e-01
      1.5053987352249834e-01 -9.6088920399884190e-02
      -1.7919091019615724e-01 1.4902884258026403e-01
      -4.3659893860482202e-01 -7.3671588030506219e-02
      -8.0166329518709722e-02 -2.6515112474001318e-01
      -1.7273454297923063e-01 -1.3042538102380075e-01
      -8.1438646412035950e-02 -1.5127476001217155e-01
      2.9655894180483744e-01 -1.1089641733903380e-01
      -7.9701970632377980e-02 -5.3995860061156442e-01
      3.8910904833961002e-01 1.4913970902150997e-01
      -2.2286512107704184e-02 2.7454178989156580e-01
      -1.9029430513609402e-01 -1.5829416246005995e-01
      -2.1802417740014665e-01 -1.2064716538900198e-01
      -1.7163524706572020e-01 1.8014140951635882e-01
      3.4577511394295501e-01 -5.8294108331990523e-02
      3.2481948672810512e-01 -1.6272506544261300e-01
      -1.6376890202278885e-01 -1.0513227640276578e-02
      -6.9370361842718242e-01 -2.4169065521856003e-02
      9.5862270176359982e-02 3.5640220318163413e-01
      1.5087056067324819e-01 4.1833956471619899e-01
      -2.1327508525127392e-01 -7.1104780769123133e-02
      -2.5630616175408399e-01 1.1909661058530710e-01
      -1.0008604748305182e-01 3.8565389082890128e-01
      -2.0871171055085172e-01 -4.1059128951480711e-01
      -1.5117693156699200e-01 1.1175196222327252e-01
      3.1496930650455460e-02 -8.4090189929646467e-02
      -2.6019920721253656e-02 -2.9425098883276168e-01
      2.6417620806566877e-01 -8.0005781869765014e-01
      1.8648960356930408e-02 -4.7133439267487587e-02
      1.8496492673732146e-01 -1.3584744469461523e+00
      -7.1563234358771566e-01 4.1235594647300859e-02
      -4.3431514400108573e-01 3.1899081766494164e-01
      -1.9430248893869892e-01 -3.4388848340176148e-01
      -2.3278776436248597e-01 -1.7370645776839802e-01
      -1.9059340870495542e-01 2.2940675537085881e-01
      -3.6186461364019884e-01 2.3522820611301551e-01
      3.9966571498436201e-02 2.0272229117915949e-01
      1.9114494953438720e-02 -1.8411171759073636e-01
      -3.9247240834610614e-01 1.0290268169799800e-01
      9.7639935840083444e-02 -1.0076243864893583e-01
      -1.2700066284804527e-02 -1.1041252254359249e-01
      -1.1403894034190908e-01 1.4302577934049818e-01
      -9.3017324573398188e-02 -9.8379704149069450e-02
      -5.3003932268340957e-02 1.6433781441219422e-01
      -1.1061490457567949e-01 4.5003479805853031e-03
      -1.0094188201969230e-01 7.1949951945981579e-03
      4.2765182690864323e-01 1.0630208820423173e-01
      6.0138783331863253e-02 -1.9452513335182896e-03
      7.6335241140030527e-02 5.5941043260061940e-01
      3.1608495580213580e-01 -9.2221015970952891e-02
      9.8206511196119561e-02 -1.3966290700261758e-01
      -1.7312113217973230e-02 -2.4541773759544627e-01
      -1.7848025243374999e-01 -3.7038748450936348e-01
      5.2155501795362746e-01 1.8419383333621173e-01
      1.0099140646257282e-01 -3.2516685696902803e-01
      -1.2581296473606372e-02 -4.3590957354760390e-01
      -2.2229130576862516e-01 5.5102159950649987e-01
      -2.9757277389376302e-01 9.2424516947043969e-02
      8.6816171494314226e-02 1.1009239973095986e-02
      1.4084900132991002e-01 -8.8994648218377792e-01
      2.5358086463450913e-01 4.7961207883472101e-01
      -2.7556931873500952e-02 -2.8438914229625717e-01
      2.0340218401454796e-01 1.7685633190579622e-01
      -3.1316817930912655e-01 -1.1629410413950549e-01
      1.0852677669192279e+00 -5.5938929560779269e-02
      7.5419532921982869e-03 4.5365520223820210e-01
      5.9827326870024393e-02 -2.3689441092511920e-01
      6.1011896085560409e-02 -9.5607639135832270e-02
      -8.6232905182645880e-01 -2.7028308898443393e-02
      5.1977145143761491e-02 -9.3936056442420490e-01
      -8.1074470557435530e-01 9.2504131532700970e-02
      3.2719691384609473e-01 -2.4299650357372468e-01
      1.0629325432685531e-01 -3.0587551759500842e-01
      2.3282455047779582e-01 -3.1702404379858334e-01
      2.9050345159994834e-01 -3.1563969704296946e-01
      2.2786801386844910e-01 2.2454693750857890e-01
      3.0697620859616431e-01 3.1893128833187623e-01
      -1.9088151554905750e-01 1.0924396781270090e-02
      -9.6527788087475241e-01 1.0478062231211749e+00
      -3.2569655720935736e-01 3.4293439833354800e-01
      8.1015872582113652e-02 1.0400119540402422e-01
      1.0410572272169483e+00 -3.5268220194960409e-01
      1.7585533280237950e-01 2.0994063877805783e-01
      9.5227743131643089e-02 -5.2618373574377209e-02
      1.5249910894908447e-01 -4.6826105265963758e-01
      -9.2463552627664522e-02 1.8365964319325481e-01
      -8.7155717790479481e-01 -1.2974642037468667e+00
      5.9801646831168641e-02 1.3292045449242099e-01
      3.0587168360840886e-02 -7.4125744663104579e-02
      6.3870889384878271e-01 -1.6329832116004775e-01
      1.4950591331404331e-01 -5.2254505260054462e-01
      -3.0194734476652013e-01 -9.9640424734353680e-02
      4.1097636371589752e-02 1.4559497018681017e-01
      -4.7305870855879889e-01 9.2616761462269193e-01
      4.9766355575350099e-02 -4.5408548162012191e-01
      -1.1711667945402866e+00 9.7710179848999976e-02
      -1.8367022320352477e-01 -2.7032885090271619e-01
      -2.5959701750980918e-01 -5.8741327510125119e-01
      2.1887161272873509e-01 -1.8569329824813052e-01
      1.4574268814624769e-01 -9.4815598318336788e-02
      2.1186227907695698e-01 -4.6224267712721458e-03
      -1.6518962151815250e-01 2.8860825887540215e-01
      -2.3874211699809697e-01 1.9171353262994120e-01
      -1.3836701277773575e-01 5.1488778996311525e-02
      -2.2594625091403572e-01 1.8769917868786057e-01
      1.8132226507507299e-01 -3.3189921361170049e-02
      -6.7554100635984538e-01 1.6007253457280119e-02
      6.0996570028699404e-01 4.0570741853800540e-01
      2.4282192215846382e-01 -2.9008621419535729e-01
      -3.2869605622945969e-01 2.0801161405653329e-01
      4.9693462155161172e-01 4.4522564476965776e-01
      5.8761534853469868e-02 -9.0158856188548675e-01
      8.8599261612149718e-02 -3.6671968646853054e-01
      -2.9644597388620203e-01 1.3917119619935706e-01
      -3.2130687411940384e-01 9.7956052953670436e-02
      1.3649737899796920e-02 1.5774077434083200e-01
      1.2441604289333069e-01 1.9293716484804985e-01
      -1.7463800656814765e-01 -3.0182958414026562e-01
      -6.1754296769561989e-01 -6.5529892909353404e-02
      -2.4865402489606772e-01 -1.9217520655807122e-01
      -1.8061836212194440e-01 1.5790192456216406e-02
      6.8050329462238032e-02 -2.0684546632926037e-01
      -3.1658050178110486e-01 -4.1142214675961658e-02
      -2.1814832199913395e-01 -3.2154720486553143e-02
      -4.4286239567425228e-01 1.0716743910401118e-01
      3.5698412887064113e-01 2.8174036758129495e-01
      -2.3595207675877580e-01 4.1198396262103497e-02
      1.9962063339066949e-01 2.4775738533800909e-01
      8.3938499616226375e-02 -6.4857473049236992e-03
      -1.8139461585037642e-01 -1.2664703817113479e-01
      -3.1787506981300340e-01 1.1702221091276366e-01
      -7.0659255653373798e-01 5.4171320677534240e-01
      -9.5286257263429180e-02 9.8096302987025419e-01
      4.2258798145988603e-02 -3.6006125725346066e-01
      -2.1440062792566042e-01 2.6415435888051347e-01
      1.6978103831427022e-01 -1.7201695238301559e-01
      1.6663138071531045e-01 -2.9223261805675799e-01
      9.2095615041145620e-02 -5.6109697600412045e-01
      -3.4177703669425119e-01 1.0165139107591682e-01
      4.6924922063548635e-01 -5.1138487650216169e-01
      -2.8457547647860854e-01 1.0716688214581928e-01
      5.9827207694362550e-01 -5.9984825440042944e-01
      -1.9965190202066763e-01 -1.3128511855616101e-01
      1.1466979583388638e-02 -3.3249771267823663e-01
      -6.4059620705401041e-02 -5.6502155193950443e-01
      -4.0470987083177916e-02 -1.5757304274556436e-01
      -2.5349799559755171e-01 2.8837169416995534e-01
      -1.6588079824002330e-01 -2.5613906747892229e-01
      -6.2295174643765028e-01 -2.0068589616659430e-02
      -2.3097615244310369e-02 8.9722424169154116e-02
      -9.0797844563815377e-01 2.0882995742229942e-02
      -8.1610769236154856e-01 -2.6211978995330987e-01
      -4.5259384590810081e-01 3.0515854982750373e-01
      1.1896909765265420e+00 -2.2311777795505180e-02
      1.2889891567912892e-01 2.4682180403676830e-02
      -4.6578469364111946e-01 1.7034707236380892e-01
      -4.3542632189807146e-01 3.3380761632238637e-01
      -2.6383119849019715e-01 6.1005305271449234e-02
      -1.2820090907583861e+00 -5.2305425330534694e-01
      5.7448026682951492e-01 -3.4245881958748295e-02
      -3.6565767780078667e-01 -3.1224060066381160e-01
      1.1398888292416927e-01 5.1582959811503293e-01
      -1.3998017381626041e-01 1.5795993696656796e-01
      9.1125245269104413e-02 -1.2673376747963239e-01
      1.4560011053567748e-01 -2.0542111982671141e-01
      -6.6294927942158210e-01 3.2409744404660046e-01
      -2.5246884090663314e-02 2.6511388051523238e-04
      1.9058230608205551e-01 -4.2409051671538217e-01
      3.4922744507689052e-01 3.3329550147562087e-01
      -7.2074663094248004e-01 3.3318446697280724e-01
      -3.5059771545240959e-01 -2.8905752829338183e-01
      1.4260876773093478e-01 4.7895515578270299e-02
      -2.5977675857723848e-01 5.7159554863051798e-01
      -1.9313999471509183e-01 -3.1894639294510913e-01
      4.8277808893017732e-01 -1.3630196542273629e-01
      -6.6890536959818905e-02 -1.0290383193651969e+00
      -7.5412351082806695e-01 -2.9221795062737671e-01
      6.4786405438670369e-02 2.8717208928381199e-01
      3.8323986014704942e-01 -2.7577471743800132e-02
      -5.4192675802704959e-01 2.3553973562802719e-01
      -1.6883228990089574e-01 1.1799730309688196e-01
      4.9777522107406658e-01 6.9219255067902094e-02
      -9.1670864589127976e-01 -1.4444419779983869e-01
      8.9458587429255679e-02 -8.4557322567101412e-02
      -7.7448388822490791e-02 5.0648996593205409e-01
      -5.2630065217131194e-01 4.8160021322446062e-01
      3.2740455630090604e-01 1.0133459445062980e-01
      -1.8983951038754515e-01 -2.0619623211726071e-01
      -2.4424279176858198e-02 -4.7858988855327168e-02
      3.6439441745411116e-01 4.5223827789034289e-04
      2.9884567708296778e-01 -1.6378343650865539e-02
      -4.7446248403017305e-01 2.8306667195330598e-01
      -1.5199908055786981e-01 -2.6084490901978974e-01
      2.6592631775748665e-01 -8.9381011526420348e-02
      2.9525898385824523e-01 4.4427342265871173e-01
      2.6640271103110286e-01 -8.4715878281809320e-01
      -2.1198618466566413e-01 -3.0682413103701561e-01
      -7.4323324878520014e-01 4.9171045635383753e-01
      -1.1087539723616786e-01 -7.3526393882437271e-02
      5.2022045067303391e-01 2.2512558495986394e+00
      7.6097577264832836e-02 -3.2811419579935147e-01
      1.9175405725693812e-01 2.4785653558957352e-01
      -2.6308628871712664e-01 5.0254948766789896e-02
      4.2768776544759052e-02 1.7098691207936023e-01
      1.0087884348049457e-01 2.0898220084174482e-02
      3.4491519656095243e-01 -1.0594508937287626e-01
      -1.3904621391114030e-01 -2.0414810001410136e-01
      -9.8972500641392278e-02 -1.1455282056641584e-01
      -6.1731459581169851e-02 -4.2434214036772572e-01
      1.2652549046139208e+00 1.2770707237919157e-01
      -5.0543952134388809e-02 1.1135606635269204e+00
      1.5574112681086305e-01 -1.4949257354711021e-01
      -7.1829972173806669e-02 -4.4788186532131791e-01
      -1.8013829043592014e-01 -6.4891942219215945e-02
      1.4047823043077759e-01 -9.5186657372531736e-02
      1.9061262124699749e-01 -1.5624587897503572e-01
      -1.7267810837716996e-01 -2.7821842199634716e-01
      -1.3385739034476221e-01 -8.1012844479429580e-02
      1.3090261473437034e-01 3.4930648298634465e-01
      1.5638387625515804e-01 7.7491876479917998e-01
      5.3442781337021059e-03 -8.3578081217049377e-02
      -7.3562907072479533e-02 1.1712444817661580e-01
      -1.8302943947835507e-01 4.1441556364747362e-02
      -2.2758896655131539e-01 -3.6904475826480926e-01
      -1.3068036055171584e-01 8.6198537444108811e-02
      4.1691295472574669e-01 -8.7751025494633220e-02
      6.5594127476379244e-02 -2.4030013162282660e-01
      2.6231533591821554e-01 -2.0153013210999276e-03
      1.6175994339200289e-01 9.6406555057843901e-02
      1.6598147364281376e-01 -1.0517234992544150e-01
      -1.9216590273739748e-01 1.0488523870488274e-01
      1.2519661689318715e-01 3.2521199914119114e-01
      -2.4837077939346713e-01 4.9445282005279707e-02
      -6.0152671425259291e-02 -4.7042814056571797e-01
      4.5588149888541307e-01 2.1482658150111944e-01
      -3.1618190093211013e-01 5.6116955546870251e-01
      -5.8073984438095153e-02 -4.6485034213736197e-02
      1.4671245861817733e-01 -9.5075203702860239e-02
      -2.5941713471056271e-01 -3.4403813960170981e-01
      2.8583506885725396e-01 2.3461318638774634e-01
      7.4395119246557350e-03 3.3378002621704828e-01
      -1.4968128607719447e-01 -1.5352074651893876e-02
      -3.8715308868846859e-01 2.8895305942568938e-01
      -1.4027303238557348e-01 -7.0728760869361959e-02
      1.9154671975182852e-01 6.6452060534516535e-02
      1.5221887427983713e-01 1.8455366120967720e-01
      3.0503725386328168e-01 -1.6959326078549797e-01
      -3.4856751665500030e-01 5.3867946777706344e-02
      1.5691143064454068e-02 -3.0509518064940461e-01
      5.8073326369493661e-01 5.9551550227161330e-03
      3.0276942958982500e-01 -7.9528843704051763e-02
      -1.7145142972494370e-01 -3.3113800200698824e-02
      -1.9994670818013642e-02 4.5004834340918792e-01
      3.2658508237251312e-02 1.8939337791615660e-01
      -1.7754535656672010e-01 -1.1969403364649148e-01
      -2.1260955468163822e-01 -1.9760951310723723e-01
      6.5933799165089263e-02 2.2167896232829307e-01
      1.8249953483141915e-01 1.8636680152670290e-01
      -3.5078928632080436e-01 -1.0210598343765240e-02
      1.4324405363783405e-01 -4.7321511366474023e-01
      -5.9787445537430213e-02 4.9654863290022039e-01
      -8.6150544776528684e-02 -2.1468629457266636e-01
      1.5085584906273353e-01 1.5433197787096825e-01
      -3.1225126070055270e-01 1.2180478459129868e-01
      1.6024418934890733e-01 -7.4660334893732569e-02
      -2.0687377163902299e-01 8.3645169924580251e-02
      1.8738216388106607e-01 -4.5702855143297472e-01
      4.4981741346296913e-02 6.1242065767293952e-03
      -4.8322897419370542e-01 -2.8762535461726912e-01
      -1.4149445720580150e-01 -2.6026272791429106e-01
      -8.0407584107079955e-01 1.0583380441332167e-01
      1.6898554162083676e-01 -3.4860103131486675e-01
      2.3247305943059152e-01 -1.4630853318909129e-01
      3.1018194951849615e-01 -1.1385105535996327e-01
      8.3934322564693864e-01 -1.6648038943167467e-01
      2.1859700606319699e-01 2.0323020053506627e-01
      3.6647368332399899e-02 7.3741893064982935e-03
      1.6965342651865864e-01 -3.9324924623351264e-02
      -3.0316141116286388e-01 5.6571129945663767e-01
      -2.0307680805838604e-01 2.3413707156913782e-01
      2.8192285303535602e-01 -1.6829255948165572e-01
      6.0640702741980823e-01 -3.0356869011285131e-01
      1.3000261331400093e-01 3.5509544001873788e-01
      -1.1719781593236157e-02 -1.1986593649515055e-01
      2.9827494250957987e-01 -1.1178592405149793e-02
      1.6810249000169319e-01 1.6681166023064559e-01
      -5.2007850753480289e-01 -1.6417257252588744e+00
      3.6707247017699958e-02 2.1269617610207769e-01
      1.8872459407088333e-02 -6.9019317157859944e-02
      4.0945745097391734e-01 9.4212449382188312e-02
      3.0883942059087663e-02 -2.7505428456185871e-01
      2.0984292205478888e-01 -1.6983743941845772e-01
      5.6260998635160604e-02 2.8897231667075185e-01
      -5.0875112478846751e-01 3.9696408034567415e-01
      6.5321387312235316e-02 -1.2614315050672980e+00
      -4.8165389211850318e-01 3.1769509238566235e-01
      4.9163967431114959e-03 -3.1245012957734053e-01
      8.0005978356478158e-02 -4.6329742197247697e-01
      2.7935754524450962e-01 -1.2179208482749233e-01
      9.5547416898961526e-02 -3.2888877545875778e-01
      2.0785077466485741e-01 3.3998750729748381e-02
      -1.5957436088579327e-01 3.4535432856885401e-01
      -2.3400466369371403e-01 5.8696361304440470e-01
      -2.8003524230683075e-01 7.2261436486349695e-02
      -1.0736870476433776e-01 2.0552955794487190e-01
      1.6585230453953709e-01 -1.6087980977600647e-01
      -2.5327630644739174e-01 -6.5179951891812762e-02
      2.3319930183847712e-01 2.7308783201632381e-01
      2.3563495390817507e-01 1.3594788418889125e-01
      -3.1449186890618419e-01 -1.7363347654953007e-01
      3.8611910073721656e-01 -1.5333011883084016e-01
      -1.6390915352485338e-01 -5.0334909591549060e-01
      2.2292309288380802e-01 1.9588509731179846e-01
      5.3676960223399584e-01 -4.0272379468870807e-02
      4.8748715203427759e-02 9.5045915277519766e-02
      2.1006583142122179e-01 4.0160042032119919e-01
      1.3850204306648461e-01 1.3354971632356455e-01
      -3.8417365917190788e-01 8.2325389957968426e-02
      2.2522867853107575e-01 3.4339509146239661e-01
      -8.4256323792196719e-02 1.0145859647406059e-01
      -3.5434789074880724e-01 -1.0450348488866709e-01
      1.3361743450848595e-01 2.2012160969417417e-02
      1.2835555121587780e-01 -1.5043022867934655e-01
      -3.3655526474592656e-01 8.3410318782389817e-02
      -1.5372530242781729e-01 3.3097472152436250e-03
      -3.9971844846069526e-01 7.1210881067780327e-02
      -1.0233958621796929e-01 1.5243518494849237e-01
      -4.2197848001894850e-01 -6.8060312242378920e-02
      -1.0669538236844420e+00 9.2679869455863886e-02
      -2.0811677459242123e-01 -2.7608799075775570e-02
      2.7948851619200171e-01 -1.1710349514889290e-01
      -1.3273387199532947e+00 -2.6362233366937250e-02
      4.8394607692316782e-01 1.0721916737463590e+00
      2.6342651508315146e-01 -7.4292791927733204e-01
      -1.2865684109568520e-01 4.8487577494844813e-01
      7.3481083570461680e-01 -1.0821865780194579e+00
      5.8370896742580813e-01 1.9316543659571198e-01
      1.8954353702795784e-01 -2.5939108811708650e-01
      -6.1106035748452425e-01 -6.1273367674136076e-02
      7.0007783498626353e-01 1.6961351440707992e-03
      -2.8402614915309471e-01 1.3674931465749138e-01
      1.9579646574126347e-01 -7.0431171386324196e-02
      -9.6080509058721020e-01 -7.7846858884565506e-01
      1.1292871815303014e-01 -1.3346498756317077e-01
      -7.0343158687691282e-02 1.2735011702419047e-01
      -2.4049598453327478e-01 -9.1939194504317423e-03
      -4.4056618513890605e-01 1.1067866859159237e+00
      -2.1465530718589584e-01 6.1784374181673769e-02
      -1.0241665633494050e+00 -2.2952113600520221e-01
      -1.8814606634174741e-01 -4.9288068356709118e-02
      -3.1911646194659410e-01 -2.6187007686270936e-01
      -6.5224110959531933e-01 -8.7424561565221082e-01
      -3.6311612000649474e-01 1.8519240877738952e-01
      6.7629328777174869e-01 7.2773321805278368e-01
      5.4538092145464186e-02 -3.5295484326894389e-02
      6.1016259767920224e-02 1.1896394508631124e-01
      -1.0228383132268983e+00 3.8779586774138716e-02
      2.5320766691520075e-01 9.2395480136816324e-02
      -1.3798235498547087e+00 -1.5003630515158939e-01
      4.5358558138971666e-01 -2.1751314926147611e-01
      2.4635257082603065e-01 9.1206612506616810e-02
      -1.0756899685347143e-01 2.4386751252276548e-01
      -1.5456455879817493e-01 6.2523606329696932e-02
      3.6217682319393665e-02 2.9024987406510355e-01
      -9.5142846331438921e-02 6.1153156909991402e-02
      -6.4762038798315280e-01 4.8942023983894317e-01
      -2.8013319372030610e-01 6.9826327315246806e-01
      -3.8601644756904469e-01 -5.1795367770694223e-01
      2.4494218407657795e-01 -1.8271299767885679e-01
      -4.8606060391233469e-02 3.4947394908861273e-01
      -4.0895764526272638e-01 1.2779986930249884e-01
      -1.3014017028186509e-01 -2.5376728515698876e-01
      -2.5648627209183350e-01 1.5928389414640429e-01
      3.3765191009773626e-02 -5.5138533962810488e-01
      1.4301163096647432e-01 -6.2815116973254848e-01
      1.6243369457464316e-01 -8.8692856513243046e-01
      9.7590824396798823e-02 -4.5753950008238231e-02
      -1.1119824581027259e-01 -5.8669530111646793e-02
      8.0023294343782958e-01 1.9068020653985174e-01
      1.6602452936679959e-01 1.4067715486514296e-01
      -7.3362407347590897e-01 4.8700265175922858e-01
      -2.4979993547986862e-01 1.2585627101733651e-01
      -4.1337805655732046e-01 -7.5161575295339733e-02
      6.1545912136489067e-01 2.3802646745402785e-02
      4.0351588114449394e-01 -3.3496069226311331e-01
      2.9672390024817463e-01 -5.3648592594593503e-01
      3.9743668798183952e-02 -2.9340629958286196e-01
      -5.9746179859673232e-02 -1.0898729300789012e-01
      3.4200613376132294e-01 -1.1491805243117787e-02
      9.8469320737972432e-02 1.7608656580670175e-02
      -1.6341471843365987e-01 -1.2265393709223418e-01
      -5.7769881674803869e-01 -2.3539518010875912e-01
      -3.5916256123932083e-01 1.6458269648210941e-01
      5.7022052819702726e-02 -1.4479025125165945e-01
      2.1612006023198704e-01 2.2337959774742894e-01
      -2.0978635795072597e-02 -1.3345318728362272e+00
      -2.8331939711411451e-02 3.3221421940394008e-01
      -4.3697430810449071e-02 -2.5588411083139195e-01
      1.4258201479199098e-01 2.3678599013011101e-01
      5.7082303007759849e-01 7.2821917025419303e-01
      -9.3743552873096075e-02 2.4407723794784375e-01
      -9.8644009786726689e-02 -2.1897611879277903e-01
      1.7465781564273189e-01 8.1538470443819934e-03
      7.0299070992446755e-02 -2.2075361404749300e-01
      -1.1599297630315336e-01 8.6033360991723234e-02
      5.4503729520257026e-02 -1.6488161060414111e-01
      -2.3893454303796940e-01 -2.5057149290018477e-01
      -8.2324481292545645e-02 2.2708733877560783e-01
      -7.3402344268017769e-02 -3.2701350204276669e-01
      4.8077643681714954e-01 1.3699644040752046e-01
      -6.8241502735435233e-01 1.6058153438350165e-01
      -3.2364201491292416e-01 -4.8012216464155314e-04
      6.6926467012134075e-02 -2.7581929922575738e-01
      -6.2135322688365335e-01 -2.6418624613228622e-02
      1.9382293029193440e-01 5.7248947908550903e-02
      2.1470015013325641e-01 -2.7081180450100023e-01
      -5.6007020556756137e-01 -5.0071939637178500e-02
      -9.8540478716035829e-02 -1.2913670922697154e-01
      5.4302029817313316e-02 1.1415341398194033e-01
      4.7837198454527302e-02 3.0216652510914175e+00
      2.1256678267613148e-02 5.9207463970110744e-02
      5.0825702592780485e-02 1.3509032467721280e-01
      -1.1176806024402453e-01 2.5154707246115121e-01
      2.1357685472572631e-03 -5.4463008434957705e-01
      2.9248163231359758e-02 8.6221339884254761e-02
      2.1768726042493181e-01 -6.3071059031020574e-02
      7.5754645544658661e-01 -2.4592084741101189e-01
      2.6634818941858929e-01 -4.3752695375544998e-01
      -1.8449709165107719e-01 -9.5548222486536397e-02
      1.6082813073700189e-01 -1.0226844577692171e-01
      -1.5724734545504770e-01 3.0330691653084565e-02
      2.6399376423094360e-02 1.3879317826228491e-01
      -9.7033683381250166e-02 -1.9756618845713247e-01
      -2.6858849622413089e-01 -5.6215522877750701e-01
      2.3687521230288330e-01 3.0416229921557297e-01
      2.6609357051125770e-01 9.1722617464361167e-02
      -4.2720202431467236e-02 3.1566341841788526e-01
      5.6265704512406112e-01 -2.5742416217851560e-01
      1.6522954904333881e-01 1.1298531751778203e-01
      -4.1243254667569179e-01 -3.1600392248084713e-01
      1.3969549261246073e-01 1.1306697608237122e-01
      -1.1664080226869373e+00 6.9191466990029662e-02
      2.1791262891063193e-01 -9.4857444859465193e-02
      -1.1275389821722093e-01 2.0094225604229226e-02
      1.9443422398919694e-01 1.6345180913748880e-01
      5.5044665695377713e-02 -4.1504769201927538e-01
      -1.3334732063662025e-01 -3.4995294399600235e-01
      -2.6606873596544894e-01 2.4757352584633313e-01
      -6.3016171905976167e-04 -2.4647367349933544e-01
      1.9501346615466358e-01 -2.8099270659229864e-01
      3.6783647875388326e-01 4.7980768182163114e-01
      -2.1698076013684070e-01 -7.8678163576852339e-02
      -6.7496878152784087e-02 -5.4779153424779026e-01
      -1.0487530160622189e+00 2.1179031044296306e-01
      1.9643133801721793e-02 1.6578118826346342e+00
      3.4775212678740020e-01 2.3940921168194598e-01
      3.9855122086174588e-01 4.2528496000491239e-01
      1.1848265814973866e-01 4.4491514004678606e-01
      6.4155496886216704e-02 1.1055176579888852e+00
      1.1253278554607572e-01 -3.7791435774206400e-01
      1.6458360660654561e-01 1.8120315458623348e-01
      -4.3000615393916569e-01 -2.2698684782079490e-01
      2.4266511037964503e-01 -1.9616352182847283e-01
      6.5197017542615128e-03 -8.3446109374891511e-02
      9.7369714481219422e-02 -2.1419402530914522e-01
      2.0371470045272391e-01 2.5426441316471093e-01
      -1.6562476247902738e-01 7.4437439973646691e-01
      -2.5777285748127726e-01 -3.2814747493961649e-01
      1.9685757296021572e-01 -2.1457924797005293e-01
      -3.1431920636223043e-01 5.3793134206504212e-01
      -2.5213058059560439e-01 1.1774147364429706e-01
      -3.7890134019182226e-01 -1.2584365154112143e-01
      8.5530891700759518e-02 -4.1090909581514556e-01
      9.8367489172156619e-01 -5.7456791566104359e-01
      1.0449737561030273e-01 -1.7990988074143777e-01
      4.7793003743067164e-02 -1.8519255042563476e-01
      1.9794811760790315e-01 -2.3571781237309705e-01
      -1.5408242038694353e-01 -7.5779654582933742e-01
      1.0786122935459100e-01 2.0775036983561482e-01
      4.5977061261477903e-01 -1.1363498060094475e+00
      -1.7482271355825085e-01 -9.5806122966631824e-01
      3.6447356658142654e-01 5.2590430198957250e-01
      5.1795339494961047e-02 -5.3818591804544208e-02
      -6.4640418841996519e-02 -1.1714611060705277e-01
      1.2556533129024483e-01 -2.3945932757112329e-01
      7.3321597973392705e-01 1.3406650137747106e-01
      6.3058534072434391e-02 -4.0547557132687151e-01
      -3.4204674671216954e-02 2.3883367541891812e-01
      8.3613614308371359e-02 -1.2704100062459117e-01
      -4.2506270684234293e-02 -5.9890792488641105e-02
      2.6660319120896925e-01 2.7703183338103177e-01
      5.0014244306169298e-01 -2.2849114086374592e-01
      -1.5259297302007777e+00 3.0026294374172358e-01
      -8.2850140581172915e-01 2.5856970551032415e-01
      2.8985087471965426e-01 -1.9856870679292626e-01
      -1.0238402291302059e-01 1.3548913830654610e-01
      3.2230880817266483e-01 6.0278518362894128e-02
      1.5073484655678870e-01 -1.5879606443975150e-01
      1.7542628520220951e-01 -2.8188787004788437e-02
      -8.8919198509445664e-03 -3.2066285205551109e-01
      -2.6569336955421102e-01 -7.7375926055725686e-02
      1.0275178560645428e+00 1.2232345750692353e-01
      -1.8258736661941988e-01 8.1184679100268287e-01
      -1.0966599239414807e+00 2.4880986933617538e-02
      2.0240988094695617e-02 1.6073132752926655e-01
      -1.6918883725732281e-01 -5.7315689898856448e-01
      -3.8294590063807626e-01 5.7389976949496491e-01
      3.6571171485949239e-01 -2.4356173176629964e-01
      -9.0929015876877434e-02 1.1205975272533437e-01
      9.9933229339131041e-02 7.3844995775115075e-03
      -4.6347485298018420e-01 5.6098872596926454e-02
      -5.9691721948230353e-03 3.6891620672319358e-01
      2.8676418986624386e-01 3.3507093556551115e-01
      1.8678500987782787e-01 2.7861550828392728e-01
      9.1916174460453290e-02 -2.8247184593435931e-01
      7.8161596791893162e-02 2.8800419653983783e-01
      -6.6584521471145228e-02 5.4130955066498665e-01
      -1.1427310187987443e-02 2.2213135710389029e-01
      5.4686777920673324e-01 -2.8281693444982697e-01
      1.7034553589213072e-01 6.0496566615828062e-01
      2.5278196701301009e-01 -3.4841100331792341e-01
      -1.2088216297624652e-01 4.6120322695944085e-02
      -3.6131493259365910e-01 2.9955788425021085e-01
      1.9682131618706172e-01 -2.5898739244493058e-01
      2.3950915580041182e-01 3.3800877345261843e-01
      -1.1794360890950852e-01 -1.2681008542215244e-01
      -8.6712797719963285e-03 -2.5770637770905735e-01
      -2.0174287223525772e-01 3.3667491496430235e-01
      -4.9147900342445922e-01 -2.9047164271089426e-01
      -3.6257913478491610e-01 -5.3368921636137356e-01
      1.9522075938843256e-01 6.7174798861712112e-02
      -1.0352769838141782e+00 -8.1412138195320594e-01
      5.2347179010470357e-01 -1.0439955991258117e-01
      -9.3653818057488972e-03 -5.4630009849559547e-01
      -5.1362250584430158e-01 -1.0268321930835903e-01
      6.7429480312777290e-01 -4.0859668092680823e-01
      4.5725571008689181e-01 4.5069233999777958e-01
      1.5694915980619559e-01 1.4608896622363174e-01
      -8.7873015725729708e-03 6.4643785966741099e-02
      7.8377970542039599e-01 2.2093427954588366e-01
      2.2696342918804686e-02 4.4732507431509812e-02
      2.0574871877681332e-02 -1.3849415428170801e-02
      -1.6567482521360530e-01 3.4353034783498049e-02
      1.9075490509637885e-01 -1.5973116669000850e-01
      -2.3255723878680562e-01 7.9430815358327814e-02
      -8.5229497498787287e-03 9.0695657004148514e-02
      -1.3778959420623035e-01 -1.5429706328486913e-02
      -1.2281399390422718e-01 -6.1796174436021020e-02
      -5.5757145502610894e-01 4.3980898084225159e-02
      -1.9618590000886713e-01 -2.6975073268570976e-01
      -2.4552775304745394e-01 -7.8280762267803172e-02
      -1.2032670164013103e-01 -1.7915560449803586e-01
      -4.2570413562239889e-01 1.1106899605511626e+00
      9.9890335899051896e-01 5.0676076487438448e-01
      9.1205009848695340e-02 -9.5500395807469139e-03
      -9.4227579773552325e-02 1.2964242629071818e+00
      -5.6830642371081719e-01 -1.4142319651296978e-01
      5.0052114706932815e-01 -1.1953065716567589e-01
      -3.7673908076186495e+00 -5.8839437059737189e-02
      -5.4117829562843289e-01 6.8552767840409301e-01
      -8.9303736135766665e-01 2.7882730820311735e-01
      -2.7167168195352037e-01 -2.4829107287608357e-01
      -3.9563409086563550e-01 -1.3222762950869750e-02
      -2.1079967834106339e-01 1.2873156812711823e-02
      -3.8542481699431552e-01 6.6770405290603740e-02
      3.9214016329771256e-01 9.7538744150764323e-01
      2.2209025426484133e-02 1.1105420965603301e+00
      -1.7743529927084742e+00 -1.5305219752983878e-01
      6.2189164963126664e-01 -5.5936629522215964e-01
      -7.6890189004100579e-03 4.6715189312361116e-01
      7.9155617829315061e-01 6.0147643048197363e-01
      -8.6224159225908883e-02 2.9361067611838759e-01
      2.0667344191763792e-01 -3.3177525939253133e-01
      -5.8233180547853935e-01 -6.2203385679388545e-01
      -1.9195217229611122e-01 -3.8878869064209953e-01
      4.0510607400752696e-01 -1.7196795761941175e+00
      4.6554203159467664e-02 -1.8013239395635824e-01
      3.2256283779894163e-01 5.8129540656960099e-01
      -1.0038309182281135e-02 2.7122306530678325e-01
      1.3284457988003706e-01 -4.5336041539984639e-01
      -2.1129968670163700e-03 1.6470822011452890e-01
      1.4243612892327601e-01 1.4034865441071620e-01
      -2.1571213670538110e+00 6.4973016037132209e-02
      7.4829246496807889e-01 -6.0360367907702217e-01
      5.9603497133565747e-02 4.0819585901634076e-01
      -8.6010680792624195e-02 8.2677180549465823e-02
      2.5582203301613454e-01 -2.4992265742803313e-01
      -2.4263148961158251e-01 -1.7374666989186891e+00
      3.6709697229370936e-01 9.6134662448760635e-02
      2.8050184730356923e-02 2.5244286641407004e-01
      -6.0724714786744204e-02 1.8080865061221760e-01
      -4.3787350684009652e-01 2.1745507962959645e-01
      -1.1966900296268522e-01 -3.3119745861900740e-01
      1.4234967850425953e-01 -2.3495702267423718e-01
      1.7104137248182663e+00 1.1573687400404396e-01
      -2.7880508301504908e-01 -1.9802234812964972e+00
      -1.4345876842091176e-01 -1.7030398137633431e-02
      -1.6330287645133440e-01 3.0931882007510114e-01
      7.1596300469004698e-03 -1.8736076448421499e-01
      2.7301783097434940e+00 1.4215292918487821e-01
      -2.8762050523208998e-01 -3.3590736756596290e-01
      -1.4711781524197204e-01 -1.7516850756188593e-01
      -7.4155310709725836e-02 -1.1787428112981042e-01
      -3.4990984348872078e-01 -8.2796537900121356e-02
      -4.4909044740869053e-01 -3.5053866535456851e-03
      -4.5925348344834039e-03 -5.9781478863806436e-01
      -2.0873431685307117e-01 -6.4866393345919604e-01
      -7.8521676713504782e-02 3.5103662374777528e-01
      -6.3555681745343554e-02 -3.0532695337354226e-01
      1.4060192332099442e+00 -3.3969400712056605e-02
      -2.3915954785215601e-01 -1.5360632619779879e-01
      4.2130011720197169e-01 2.6190854259849855e-01
      -5.5847916730941215e-02 -1.8019315923790988e-01
      -5.8685569087825984e-01 -8.2995088511206377e-02
      6.8415081118781773e-01 5.6342919153398163e-01
      2.3329704288458517e-02 -2.2431822749121164e-01
      -3.5778387304132370e-01 4.2438779717516827e-02
      -1.8485597161413983e-01 -2.5388816393356349e-02
      3.4854916629304317e-02 4.2871464629371275e-02
      5.6875525216749642e-02 7.4700321080176291e-01
      -6.9203640247997439e-02 1.9674910720250766e-02
      5.1418431205642023e-01 1.1144049953088260e-01
      5.0616358281178164e-01 7.6329446560799208e-01
      -1.7552329939458289e-01 -8.8930083789114411e-01
      -1.1472930630714884e-01 8.8017467287686404e-02
      1.7893112219148405e-01 8.0513069595372314e-02
      -1.3772075590768627e-02 -3.1242877236987388e-01
      7.6419656350569784e-02 -4.1424217633590769e-02
      -6.3423948757267673e-02 -4.2499178954981220e-01
      4.7657574294370614e-01 -1.2588603739414347e-01
      -1.5192211079629775e-01 -2.7027320641221120e-01
      5.6351093774481509e-01 5.2704149140956713e-01
      -3.9152871231113814e-02 3.4804170388857697e-01
      -4.9720339552434994e-01 5.8872965338640920e-02
      -3.1360933727990664e-01 1.6057915176915499e-02
      -1.1998931823194618e+00 -3.4220350156130530e-01
      -5.6980221908862379e-02 1.0836815614009334e+00
      4.5288973864928844e-01 8.5396477980516389e-02
      1.6514609371490765e-01 5.7577023031181185e-01
      4.6845450698822244e-01 -2.8788242596286640e-01
      6.7934104988072785e-02 -2.5754419982499288e-01
      -5.3546094830070912e-01 -4.5524532475460494e-01
      -7.9879947581658524e-04 -3.0417634129921189e-01
      -2.5077773966511652e-01 -1.5098970164727035e-01
      -9.1293399626722019e-02 3.1013828682672206e-01
      1.5672184339998727e-01 -3.1627359344155687e-01
      -1.7474279381880259e-01 -1.2319727715118187e-01
      -1.2385840463029092e-01 -5.3364090552766218e-02
      -8.7254950013651144e-03 -7.5774303191096914e-01
      1.3908368106029845e-02 1.4287251832945386e-01
      1.2227432498496765e-01 -1.1002656597681826e-01
      2.2210472784098378e-01 -7.1451381707255335e-01
      2.0316940940031147e-01 -6.8950437374665607e-01
      1.0383684713741942e-01 -4.8384219786038041e-01
      1.3184298820763071e-01 -1.0710779039288059e+00
      -2.5598727184622849e-01 1.8956731428613924e-01
      3.0160304762161227e-01 3.6170277314427612e-01
      5.4726793352042069e-01 1.7994378175176998e-01
      1.7590465762935115e-01 3.3001100901492320e-01
      -1.2528917604694217e-01 -3.2552001738708164e-01
      4.6846146856169280e-02 1.7552336756150566e-01
      -5.3694621242011731e-01 -5.5528055140825761e-01
      6.1769805921745791e-01 5.5796226161738838e-01
      2.7677107262336118e-02 -6.1339593497273803e-02
      -3.9712586066053640e-01 -2.3560387633640348e-01
      8.6317228431511450e-01 -2.5977122777791017e-01
      -1.4257662647911068e-01 5.3241356627759182e-02
      -7.8687378750387771e-01 -8.3419195490876086e-01
      -1.3991193223944909e-01 1.3232756610069642e-05
      -3.4817126558471856e-01 1.4086027585464092e-01
      -2.4970532602182290e-02 3.7923652630580236e-02
      -5.6191212372775212e-01 1.2385005256074695e+00
      -1.8023652273461727e-01 -1.4731877285649283e-02
      4.3517160050045639e-01 -5.2263827346778913e-01
      -2.0662128501655244e-01 -4.8023032878992296e-02
      -1.7029147634063299e-01 -1.6857041093916170e-01
      -1.7581091876097454e-01 -1.8486192476169871e-01
      4.1457542388746528e-02 -2.6770685497843488e-01
      1.1986468916570457e-01 -3.8818172486609154e-01
      4.4520639293920605e-01 2.7361451309911944e-01
      1.2452492998570840e-01 9.8243038672070315e-01
      -3.5302617393628050e-01 3.5148127498574144e-01
      6.4199120209635663e-01 -4.4683939504104436e-01
      2.9763565401060732e-01 3.0624738048085876e-01
      -5.1360879053581243e-01 -1.5070465615047291e-02
      2.0979705863346920e-01 1.2189349025066597e-01
      -3.8424070170392753e-02 -3.5608270055305136e-01
      3.7235766135621612e-01 5.4277255813927083e-01
      1.1919632346962694e-01 -1.5881502437078948e-01
      -4.6583135848001456e-01 -5.9581407486252147e-01
      2.0028143077967936e-01 1.4626129850129579e-01
      1.3576280789276052e-01 -2.9162461636641358e-02
      -6.2802971727270729e-01 -5.7888713643904383e-02
      2.5157925005776177e-01 -2.9472724216641294e-01
      2.0113199458957212e-01 -4.2018810163847986e-01
      1.8744557337052322e-02 2.7922605195478883e-01
      -1.9435850552149353e-01 1.1848963297221813e+00
      7.1539420960690336e-01 -1.5322598202182633e-01
      -3.1188940979511182e-01 -1.8866592716910302e-01
      -3.1036365222497536e-01 -1.1452745571459627e-01
      -3.6223308381200225e-01 8.1909840604706234e-03
      6.9756464440552904e-02 -2.5487474176576275e-01
      7.0974665382320529e-02 8.3402208068842049e-02
      -8.4108599046572730e-01 -1.5537511752686761e-01
      4.2886064093817600e-01 1.0591378375315641e+00
      3.0574895309249628e-01 -9.5777764590575298e-02
      -4.2031149116477734e-01 6.0550606019748521e-01
      7.6592680681933956e-01 -6.1536753260638377e-01
      3.7133780004042788e-01 8.1493861267127776e-01
      -1.8897456402577170e-01 1.2727253889454149e+00
      5.2052679981474537e-01 -1.0848011631692846e-01
      9.7903416690449330e-01 -7.8141762014340602e-02
      4.3818767130393238e-01 1.6969406168144824e-01
      3.0597773738310419e-01 5.1870315782464194e-01
      7.2110905461869013e-01 -5.9813209187313776e-01
      1.6078018476263531e-01 1.7026190414619574e-01
      -8.6117278928107599e-01 -6.0105308007512903e-01
      -1.6585157278609217e-01 4.3660075741749982e-01
      -1.7810635739462924e-01 3.7728118750299924e-02
      1.2764458999912029e-01 -4.9475735891518102e-02
      5.7633330888822532e-01 4.5788158867385587e-01
      -2.4603619363144347e-01 5.0053254193870889e-01
      -7.3286599367993077e-01 7.1693103097354427e-01
      1.8041916235690972e-01 -3.3165152090033539e-01
      8.6086410829429938e-01 -2.5727105783895876e-01
      -3.5470792632961851e-01 -8.7286913351777115e-02
      3.8351470781820579e-01 -6.2511884284539715e-02
      -1.4598198566714923e-01 -4.7033850150629143e-02
      9.6656413006077843e-02 -9.7393248747676922e-02
      -6.3284287597732330e-02 9.5101981151979409e-01
      6.1121473258216961e-03 7.2238582319423639e-01
      -6.1439373291218291e-02 -1.9499440219428457e+00
      9.3240447898690637e-01 -2.2759092168993988e-01
      1.7876827527283031e-02 8.4098960060973960e-01
      1.9959292900073144e-01 1.3999907021539998e-01
      -9.4394675177722452e-03 -7.7864192392510037e-02
      5.9099457939110611e-01 3.3453139518309957e-02
      7.5270395851347394e-01 2.9890199672727530e-01
      -1.1797545321170499e-01 1.7621684512926190e-02
      1.1175851784082980e+00 -2.7941912585544845e-02
      1.2038374689019626e+00 1.5602868936289735e-01
      -4.1139229267938959e-01 3.5916006070831369e-01
      -8.8462509002336054e-01 5.3423056708653938e-02
      2.3304231528514899e-01 -2.6077418429986809e-01
      9.7164561869138757e-02 -3.8613174585439131e-01
      -1.2636174315055373e-01 -8.7581900411411928e-01
      2.0206047215122255e-01 -9.1604322693657994e-02
      -1.2016619494767784e-01 5.0297163609622941e-01
      -3.7256733993049007e-01 -3.0597575573853097e-01
      -8.3286566556047059e-01 9.7471954540976555e-02
      2.1354347468628285e-01 -1.2477385945648334e-01
      1.9544444031303318e-01 -1.2174700951710594e-01
      8.2148241075012327e-02 5.2750109268839829e-01
      8.9713803756852872e-01 -2.8446349404187549e-01
      5.7933133953185978e-01 -1.8093098971211630e-01
      -2.9442597682884114e-01 2.5270254585400204e-01
      -6.5184370349665732e-01 -6.8548993402883496e-01
      1.5081691632070116e-01 -4.2929634077611384e-01
      -3.3941117300430235e+00 -1.8414881338943198e-01
      -4.5200798534387193e-01 -6.1475844614114883e-01
      3.1985195606790506e-01 -7.0793857620092715e-02
      6.2331346581439617e-01 -6.6028516567061801e-01
      -1.7356993588457520e-01 6.9006696819061495e-03
      -5.4529623474005959e-02 8.2250067250583692e-01
      1.4791715858541463e-01 3.2023354280523181e-01
      -2.7924444052502240e-01 1.0759490116964219e+00
      -4.3759691351741592e-01 2.9941636089519047e-01
      -8.8688450397841867e-01 1.6269559992178076e-01
      1.9616898924476209e-01 -5.6948397995275381e-02
      -3.9786456868956982e-01 -6.2584944528008418e-02
      1.8178915502347726e-02 5.5273467491093520e-01
      4.6566790602388641e-01 1.7970192109179053e-01
      2.9901573847492463e-01 1.1403082713045409e+00
      4.3330027502541030e-01 6.1570566587301778e-01
      -6.9964162786363693e-01 -1.9427808201151989e-01
      4.4251458239355962e-01 -1.2183136428129611e+00
      2.9488232632215094e-01 1.6613369711465636e-02
      2.4647166890535331e-02 -6.2502216466283134e-01
      4.8127003289178882e-01 2.6282328775037339e-01
      -1.2674772090035399e-01 -2.9579115286185265e-01
      -9.4800809853406443e-02 -1.4505949684191288e-01
      -1.4207450543047123e-01 -3.4141609559325453e-01
      -3.1724124910727242e-01 8.4684521199188914e-02
      -1.1764883542565061e+00 1.9974394345827601e-01
      -4.4003590170128240e-02 2.2371899693124972e-01
      -3.2103138264392650e-02 3.4543119560180996e-01
      2.7229725245639852e-01 1.5093568858976372e+00
      3.5760509100409066e-02 -9.8591829637796935e-01
      -1.0140198205296326e-01 4.2019231473517588e-01
      2.0240722281374884e-01 2.4360057133684165e-01
      1.9574186824493697e-01 -6.6461617066980183e-01
      -3.1792732465232576e-01 2.1738162819377674e-01
      -8.0555110545737296e-01 -5.5930064435748952e-02
      -1.8987753836325136e-01 5.2377894488071189e-02
      1.7191119380149802e+00 5.1643123163374760e-01
      4.4255595970771937e-02 -1.9713271603751403e+00
      4.8281210283794024e-01 1.1965862824474878e-01
      -6.7549897050033045e-02 -2.8602068738495595e-01
      -1.3613333928448246e-01 1.1816364672734096e-01
      -5.7206537938955082e-01 -5.8790134069775513e-01
      1.2048380877809783e-01 -6.1988216094011228e-01
      -3.0127515090721833e-02 -1.6061936064644361e-01
      -2.5372283645064973e-02 7.6648894587010730e-01
      -4.7476191013943575e-01 5.9037800737225654e-01
      7.2016641254314812e-02 -3.1349905927008190e-02
      2.7529618493075465e-02 -3.4637574713423080e-01
      -8.9886124921575028e-01 -1.4450581473320756e-01
      -9.4262487014041357e-02 -1.2648025676989785e-01
      -1.8732893486523813e-01 1.7539624053486852e-01
      1.6111183737894416e-01 3.8321655929079956e-01
      -1.5899677552598562e-01 1.8656727022493527e-01
      2.2828153493583606e-01 1.3837381215230397e-02
      -9.8750001231293461e-02 -1.3581265199033074e-01
      -2.5483389537371975e-01 1.6972724768422803e-01
      1.1723779588682728e-01 4.1647622109754517e-01
      8.7245650925090804e-02 -9.5064442625557549e-02
      -6.3033081381664968e-01 4.7082971223335202e-01
      -1.4515129318710290e-01 1.2031530335684924e-01
      9.7415198479640719e-01 1.8768045224732143e-02
      2.9406462156090735e-01 2.1344050490378513e-01
      -1.1240039040400111e-01 -3.0037505290700608e-02
      3.6547563466607391e-01 1.3257861593937126e-01
      -7.9521212844910830e-02 -5.4528217564029140e-02
      8.1779986257659545e-02 -2.3002134717114230e-02
      -1.2107970224967271e-01 1.1691004035524480e-01
      1.6223270627842140e-01 -2.5044180846685613e-02
      2.0110141752659416e-01 -7.3712970115440091e-02
      -2.4224470491998318e-01 1.9370614278907488e-03
      2.0272886999479815e-02 -3.3261017585761776e-01
      2.3917164892462938e-02 -3.4468974421050447e-01
      1.1001005008790503e+00 -5.1131771449348835e-02
      -1.6945049722478986e-01 2.0531537694029059e-01
      3.7239850525310214e-01 1.8015014985684838e-01
      2.3591421713645089e-01 -7.1665764633149845e-02
      1.2846116546559636e-01 2.4167126533250918e-01
      1.9850945537017448e-01 -1.0390193714273553e-01
      1.1777811832409018e-02 1.8567766515835939e-02
      -1.6936307657730590e-01 1.7413796813575771e-01
      2.8331107943414402e-01 1.1284774350027783e-01
      2.3216404382267894e-01 1.4075362687498302e-01
      3.9615284368466563e-02 6.9272832045583516e-02
      9.6054943069598575e-01 -1.2939480599447206e-01
      8.3004390686512511e-02 1.3616522923167208e-02
      -1.3439904547625126e-01 9.4664630156938587e-02
      5.8498748503081864e-02 5.1140007842187543e-02
      9.6376862807902114e-02 -2.0605996534433604e-01
      -9.7969777400223546e-01 3.3317950403732516e-01
      6.7440901203966730e-01 -5.8328065381912722e-02
      -4.2178128851850523e-02 -4.7423866851640989e-02
      -3.4043590869140733e-01 1.8494934987659772e-01
      6.9345836882998696e-02 -1.3089705491556616e-01
      9.2252137383269361e-01 -2.5891828323443783e-01
      3.3830586891829446e-02 -4.4784046520775861e-02
      4.7935620716209565e-01 -6.1973631779640270e-01
      -3.7039381935332250e-01 -2.7125065550384870e-02
      3.6934786998529762e-01 9.0977324894304573e-02
      -1.8408173302130867e-01 2.3055852837359098e-01
      -7.6195299664303565e-02 -1.4814636288498562e-01
      -2.9998760342916536e-01 2.2688193017544214e-01
      6.0743742505030407e-01 1.8210515713934863e-01
      -1.5988894787821664e-01 -1.1464060747722682e-01
      -3.2011221993766559e-01 -3.7185523052235853e-01
      2.1967926257496889e-01 -1.5078315822803182e-01
