<?xml version="1.0"?>
<opencv_storage>
<opencv_ml_svm>
  <format>3</format>
  <svmType>C_SVC</svmType>
  <kernel>
    <type>LINEAR</type></kernel>
  <C>1.</C>
  <term_criteria><epsilon>1.1920928955078125e-07</epsilon>
    <iterations>1000</iterations></term_criteria>
  <var_count>4752</var_count>
  <class_count>2</class_count>
  <class_labels type_id="opencv-matrix">
    <rows>2</rows>
    <cols>1</cols>
    <dt>i</dt>
    <data>
      0 1</data></class_labels>
  <sv_total>1</sv_total>
  <support_vectors>
    <_>
      5.93500517e-05 5.68358082e-05 2.30948044e-05 -1.42693389e-05
      -2.83384525e-05 -3.24766334e-05 -3.51206218e-05 -1.94568274e-05
      -8.70395888e-06 -1.61127355e-05 -4.52465283e-05 -6.74397088e-05
      -6.46862682e-05 -4.72315296e-05 -2.04244461e-05 1.98974703e-06
      1.31697498e-05 6.84442102e-06 -2.01294497e-05 -4.59275798e-05
      -6.05289461e-05 -5.69388467e-05 -5.27771263e-05 -3.22474261e-05
      -1.02710401e-05 1.59383296e-06 1.27892281e-05 2.13403073e-05
      1.32613768e-05 1.76519334e-05 3.26287882e-05 5.18464367e-05
      5.69230870e-05 4.42754135e-05 4.36698429e-05 3.59642254e-05
      4.78098482e-05 8.84176698e-05 1.06555875e-04 8.90464871e-05
      7.80913106e-05 8.28755801e-05 6.54839678e-05 5.80076303e-05
      7.36522343e-05 8.92583557e-05 7.93656145e-05 3.69168229e-05
      -1.59064293e-05 -1.71369957e-05 -7.51199968e-06 1.40552729e-05
      8.15150124e-05 1.21463185e-04 1.12622794e-04 9.75620933e-05
      7.77558380e-05 6.79417353e-05 5.08943522e-05 3.34250144e-05
      2.48622691e-05 2.38038156e-05 3.20430991e-05 3.68731562e-05
      3.26166009e-05 2.57906431e-05 1.16005258e-05 9.15939472e-06
      1.48378313e-05 1.63794484e-05 1.39739741e-05 -1.00374182e-05
      -3.38300233e-05 -3.67486573e-05 -3.34209326e-05 -2.98600407e-05
      -3.19374194e-05 -2.97750685e-05 -2.35893967e-05 -6.29960550e-06
      1.09224275e-05 1.56582973e-05 5.22480741e-06 -7.22554842e-06
      -5.54176813e-06 7.31955924e-06 1.58781204e-05 7.34694322e-06
      -7.11529492e-06 -2.41321450e-05 -3.68471992e-05 -4.28907879e-05
      -5.19820096e-05 -7.56264999e-05 -7.98976980e-05 -6.07257025e-05
      -5.54634898e-05 -6.59385259e-05 -7.77799287e-05 -9.06118439e-05
      -9.26098946e-05 -6.48249552e-05 -1.08504428e-05 4.53571956e-05
      7.58326350e-05 8.46242765e-05 5.04792479e-05 2.25507865e-05
      1.02008880e-06 1.28044749e-05 2.61315618e-05 -5.27735574e-06
      -4.25785984e-05 -3.63304462e-05 -2.79793076e-05 -3.08269591e-05
      -2.76023820e-05 -2.47184616e-05 -4.10983084e-05 -6.86592175e-05
      -8.25804309e-05 -9.13571494e-05 -1.05290259e-04 -1.27470485e-04
      -1.39247713e-04 -1.28267304e-04 -1.21174598e-04 -1.15615672e-04
      -1.02777529e-04 -8.61012959e-05 -8.42287627e-05 -6.74900148e-05
      -6.74593393e-05 -1.01878759e-04 -1.02436286e-04 -9.44866842e-05
      -8.18823755e-05 -6.28545749e-05 -3.92282964e-05 -4.36107257e-05
      -5.49151155e-05 -6.20691135e-05 -3.48535141e-05 2.81296434e-05
      3.01372238e-05 3.21842481e-06 -6.55877830e-06 -5.39623506e-05
      -4.35479451e-05 -3.84126761e-05 -1.95256853e-05 3.35786535e-06
      2.01247822e-05 7.90486956e-06 -1.94851455e-05 -4.38088282e-05
      -3.74330921e-05 -1.69660198e-05 1.32186369e-05 5.03141891e-05
      7.69989128e-05 7.48359453e-05 3.21758271e-05 4.24082145e-06
      -1.14885997e-05 -6.89899935e-06 2.25458649e-07 1.47501478e-05
      3.46515626e-05 5.45113544e-05 6.23372398e-05 4.36866612e-05
      1.07883707e-05 -6.69878364e-06 -2.21457526e-07 2.78823463e-05
      4.54591791e-05 4.43806566e-05 2.18657897e-05 1.32251625e-05
      3.14500394e-05 6.49323410e-05 8.19674970e-05 8.98298604e-05
      6.79376535e-05 8.16551110e-05 7.86540913e-05 6.34314856e-05
      5.40885339e-05 4.82443356e-05 3.48535214e-05 8.11959126e-06
      -1.29149257e-05 -3.81898972e-05 -3.20756662e-05 -5.10710106e-06
      3.49605070e-05 6.10724819e-05 2.88893425e-05 9.57867996e-07
      -8.19568504e-06 -1.45622171e-05 -1.89885468e-05 -1.27227368e-05
      -6.15327735e-06 -3.78383925e-06 9.17732450e-06 1.79209601e-05
      2.16013468e-05 -6.22412244e-06 -2.62196172e-05 -2.86729846e-05
      -2.65438866e-05 -1.59967403e-05 -7.20648086e-06 -1.86671277e-05
      -5.35820000e-05 -6.96003408e-05 -8.40123321e-05 -8.84685651e-05
      -8.04540905e-05 -6.93369948e-05 -4.55376176e-05 -2.66154384e-05
      -1.95789980e-05 -1.24262151e-05 -4.50739179e-07 7.50701747e-06
      7.61899082e-06 2.19056055e-05 4.55259105e-05 4.82603900e-05
      1.48481759e-05 -1.64115372e-05 -3.25078217e-05 -2.80161967e-05
      -2.72655743e-05 -3.03543802e-05 -3.05030317e-05 -2.68827043e-05
      -2.08335896e-05 -2.98472696e-05 -5.75964987e-05 -6.96034404e-05
      -5.51006597e-05 -1.29025575e-05 5.78410290e-05 1.16638017e-04
      1.68985454e-04 1.13222464e-04 1.05524905e-05 -5.12031365e-05
      -6.74000039e-05 -3.75647724e-05 8.27886397e-05 1.01940721e-04
      7.21458055e-05 4.70455634e-05 2.20524016e-05 5.33688990e-06
      3.71970350e-06 7.05983894e-06 9.82835809e-06 6.36358618e-06
      3.34286665e-06 2.79000005e-06 -3.71253082e-05 -6.95840718e-05
      -7.12922047e-05 -5.06006654e-05 -4.17090378e-05 -5.25118303e-05
      -6.62446037e-05 -8.06852695e-05 -7.39374009e-05 -7.34109199e-05
      -7.98314650e-05 -9.43650011e-05 -1.19441313e-04 -1.24732251e-04
      -1.15389506e-04 -1.02679987e-04 -7.57625967e-05 -4.51211417e-05
      -6.71372109e-05 -5.22876398e-05 -4.62191711e-05 -6.84532688e-06
      2.11483548e-05 -5.27541533e-06 -2.05319575e-05 -9.53467606e-05
      -8.15796739e-05 -7.21918259e-05 -3.32910531e-05 1.37593015e-05
      3.51362614e-05 1.18105900e-05 -1.70618587e-05 -3.78015920e-06
      9.25969289e-06 1.64202447e-05 5.05679018e-05 9.80031109e-05
      1.27411782e-04 1.22509155e-04 6.74365438e-05 2.71713070e-05
      1.57244849e-05 2.56079766e-05 3.00038064e-05 2.10901617e-05
      2.98774503e-05 6.09838935e-05 5.48732642e-05 2.37997974e-05
      -1.84356049e-05 -5.28974742e-05 -4.56405432e-05 -3.05213712e-06
      3.80518213e-05 1.71955398e-05 -2.59763037e-05 -2.43050054e-05
      -2.55533487e-05 -1.55428679e-05 1.60247127e-05 6.01311694e-05
      4.59678704e-05 1.68833485e-05 4.40082040e-05 4.03681915e-05
      7.22516870e-06 -7.51710286e-06 -1.83151369e-05 -2.41444668e-05
      -1.62324104e-05 -2.12474752e-05 -2.51495894e-05 -2.98071645e-05
      -2.35735188e-05 1.91453159e-06 -3.20847248e-05 -6.31700168e-05
      -7.53770364e-05 -7.43661658e-05 -7.36100337e-05 -6.44085740e-05
      -5.58415195e-05 -4.73587788e-05 -2.43511822e-05 -1.10634016e-06
      4.83126632e-06 -9.48886463e-06 -1.47627370e-05 -2.45338069e-05
      -3.36045050e-05 -1.22964275e-05 3.36821950e-06 -9.27374640e-06
      -6.11242795e-05 -1.01010774e-04 -1.18350479e-04 -1.12916590e-04
      -7.55422807e-05 -5.80950364e-05 -3.21635271e-05 -1.13647557e-05
      -1.27890962e-05 -7.52695541e-06 5.44102704e-06 2.45502924e-05
      4.23867677e-05 4.76499590e-05 6.30650247e-05 7.01435711e-05
      3.64755797e-05 -6.20315313e-06 -3.88886765e-05 -4.82773103e-05
      -3.45452900e-05 -2.68522690e-05 -2.45806295e-05 -3.27170019e-05
      -3.09547213e-05 -3.27590242e-05 -4.56549060e-05 -5.61731540e-05
      -2.86097438e-05 1.22828233e-05 6.45208056e-05 9.38624653e-05
      1.09738998e-04 9.80683471e-05 2.93476660e-05 -2.39690125e-05
      -6.56170814e-05 -5.50170880e-05 6.14026139e-05 1.07879292e-04
      1.31340450e-04 8.14373780e-05 3.39545804e-05 3.61634193e-06
      4.67244081e-06 1.44358728e-05 1.25291399e-05 2.12343130e-05
      2.74176982e-05 3.33875651e-05 4.41717339e-06 -2.81885932e-05
      -2.33784558e-05 1.33085200e-06 2.24836713e-05 2.08482197e-05
      -8.01058195e-06 -3.50178743e-05 -3.35951481e-05 -2.60748584e-05
      -4.96012399e-06 -1.23960513e-06 -1.60951167e-05 -2.12978648e-05
      -2.23409043e-05 -3.19113424e-05 -2.80978857e-05 2.28383669e-06
      -1.43167335e-05 1.57590202e-05 -1.51456825e-05 -8.10784331e-06
      1.40230313e-05 -1.63530913e-05 -1.58389121e-05 -5.08205085e-05
      -4.58142749e-05 -6.46784320e-05 -3.24790817e-05 1.10879046e-06
      -6.45100499e-06 -4.35422371e-05 -6.87950669e-05 -6.63321334e-05
      -3.98874399e-05 -8.31003490e-06 1.63724617e-05 5.09162710e-05
      8.00509733e-05 7.59830364e-05 4.24952123e-05 2.16398403e-05
      8.35891933e-06 3.18029902e-06 8.71182783e-06 8.28163593e-06
      1.17437594e-05 3.98430893e-05 3.60940139e-05 -6.57651799e-06
      -2.61531350e-05 -3.99031305e-05 -4.04419807e-05 -7.30866395e-06
      4.31189510e-05 7.87234530e-05 6.10329516e-05 5.12175247e-05
      5.29987410e-05 2.25642762e-05 2.42723454e-05 7.96144959e-05
      4.73523796e-05 9.57782959e-06 -3.15862926e-05 -3.06005350e-05
      -7.17174189e-05 -6.71844828e-05 -6.52888993e-05 -5.56810082e-05
      -3.40677616e-05 -4.72345018e-05 -4.98087720e-05 -6.70518129e-05
      -7.81907875e-05 -5.50935656e-05 -6.54844698e-05 -8.22447983e-05
      -7.88987672e-05 -7.55287983e-05 -1.03578255e-04 -1.03755454e-04
      -7.14367925e-05 -5.08766279e-05 -3.51699127e-05 -1.00788711e-05
      3.56840678e-06 1.68899601e-06 -5.85199541e-06 -3.94938206e-06
      9.18881324e-06 1.52776702e-05 4.59644070e-06 -4.05602041e-05
      -1.24895509e-04 -1.56253052e-04 -1.47473460e-04 -1.20320452e-04
      -9.82264610e-05 -8.56691477e-05 -7.35075446e-05 -3.70125817e-05
      -5.61545312e-06 -1.87995488e-06 2.20680135e-06 1.01265887e-05
      2.22528179e-05 3.30780567e-05 1.54156787e-05 -8.61297758e-06
      -4.10574648e-05 -6.23422311e-05 -8.82287786e-05 -6.65994085e-05
      -2.64511600e-05 -2.89702689e-06 2.74421700e-06 -3.50108821e-05
      -6.51895461e-05 -7.34643618e-05 -7.44925201e-05 -2.81793782e-05
      3.00247139e-05 8.11294303e-05 8.58325511e-05 9.17785292e-05
      1.17492549e-04 1.15112023e-04 9.33931442e-05 3.51250492e-05
      -1.85997505e-05 -3.57173371e-06 8.00382113e-05 1.42360426e-04
      1.48265695e-04 9.65906584e-05 4.64596924e-05 2.23117677e-05
      1.46812608e-05 3.25581959e-06 -6.52082099e-06 -1.22044203e-05
      -8.67750805e-06 -2.02838746e-05 -3.96001233e-05 -6.94502523e-05
      -7.45409197e-05 -6.96356146e-05 -4.61907512e-05 -3.54464901e-05
      -4.19635799e-05 -4.26952320e-05 -2.47638454e-05 5.61975457e-06
      2.56727781e-05 2.57296451e-05 1.63124932e-05 1.96959377e-06
      -1.56472288e-05 -1.65584370e-05 -1.25548886e-05 1.26620789e-05
      -8.65676702e-06 -3.48661933e-06 -2.78346452e-05 -2.43379291e-05
      2.46390737e-05 7.19424088e-06 2.14689098e-05 -1.76303945e-06
      3.29361399e-07 -2.61140194e-05 -1.97746085e-05 7.21939159e-06
      -1.51630456e-06 -5.90608179e-05 -1.39432086e-04 -1.58142720e-04
      -9.81559424e-05 -2.72657089e-05 1.51370341e-05 1.06689131e-05
      -4.14353144e-06 2.60349134e-06 3.97482927e-06 2.40949576e-05
      5.56923442e-06 -1.53977035e-05 -3.06264866e-07 2.60939341e-05
      3.38118189e-05 4.10177745e-05 3.92641487e-05 2.50152443e-05
      8.43546422e-06 -6.41126826e-06 -1.62903634e-05 1.53288565e-05
      6.42819505e-05 1.62226672e-04 2.35255589e-04 2.03939577e-04
      1.75326437e-04 1.38430449e-04 1.33011577e-04 1.26664672e-04
      8.73932586e-05 3.53553878e-05 -4.06476938e-05 -3.08579474e-05
      -3.94268027e-05 -4.61971104e-05 -2.42823389e-05 3.83967608e-06
      3.82366270e-05 2.08988768e-05 4.58607838e-06 -3.16132173e-06
      4.89201420e-06 4.20180149e-05 1.99051974e-05 -5.50600703e-07
      -3.12412226e-06 -1.12339085e-05 -2.17704965e-05 -8.11525751e-06
      9.74958493e-06 1.53348883e-05 3.07405207e-05 4.32518573e-05
      7.90813356e-05 9.70998299e-05 8.87676797e-05 8.78620413e-05
      1.16153751e-04 1.07262764e-04 6.72342576e-05 1.90668852e-05
      -4.57489696e-05 -6.00049316e-05 -5.02311086e-05 -2.52873797e-05
      -1.79319140e-05 -7.88776924e-06 -1.25647512e-05 1.15225123e-06
      2.90751868e-05 6.78820943e-05 5.63412759e-05 4.70488958e-05
      4.40792101e-05 4.33050263e-05 5.04028412e-06 -3.82385879e-05
      -6.63561950e-05 -6.22295338e-05 -3.08064009e-05 3.85129060e-05
      8.71389930e-05 1.01092788e-04 9.04012195e-05 3.56625351e-05
      -1.01811047e-05 -2.38885023e-05 -1.64329213e-05 2.45519841e-05
      7.82978823e-05 9.62044942e-05 9.22888648e-05 9.83780337e-05
      1.11348258e-04 9.40626051e-05 1.14310598e-04 1.22637604e-04
      1.23040576e-04 1.45147686e-04 1.95365690e-04 2.24757750e-04
      1.83632466e-04 1.38554067e-04 1.16589472e-04 8.07531469e-05
      2.86001541e-05 -1.40315251e-06 -8.00164253e-06 -2.97604083e-06
      -2.17860252e-05 -4.31072440e-05 -5.74313926e-05 -8.48594354e-05
      -8.08633995e-05 -8.57409032e-05 -5.33994571e-05 -1.72098225e-05
      -4.71701424e-06 1.61029529e-05 4.74955450e-05 9.48504385e-05
      1.14201619e-04 1.20931531e-04 1.09701345e-04 7.51149928e-05
      3.82562066e-05 2.27699365e-05 3.20731197e-05 -1.34492075e-05
      -5.05868302e-05 -3.50736354e-06 -5.52936508e-05 -4.93090120e-05
      5.54196122e-05 3.58819998e-05 3.40143197e-05 -1.12241150e-05
      9.36776178e-06 -5.42741759e-07 -2.33520905e-06 3.41971790e-05
      4.10026114e-05 -3.35939803e-05 -1.60490861e-04 -1.87282101e-04
      -1.09182372e-04 -1.53975980e-05 2.70769251e-05 9.93228059e-06
      -2.74077920e-05 -8.78485935e-06 2.42495759e-07 5.76156963e-05
      9.60925718e-06 -1.33832782e-05 3.23072745e-05 7.19340605e-05
      3.88450862e-05 1.68901515e-05 1.25160541e-05 2.29495763e-05
      4.17223964e-05 8.13160750e-06 -2.66663283e-05 2.37401036e-06
      1.09807930e-04 2.06312921e-04 2.70922901e-04 2.73569982e-04
      1.95951332e-04 1.77454131e-04 1.37272000e-04 1.05925617e-04
      7.15362330e-05 1.43813559e-05 -4.57382266e-05 -4.00915815e-05
      -4.96382308e-05 -5.67564639e-05 -4.28342864e-05 -1.80436314e-06
      5.78240870e-05 6.41157167e-05 4.85513592e-05 2.90331736e-05
      2.41505168e-05 6.64624022e-05 8.86170528e-05 7.42138509e-05
      6.77236749e-05 5.57678140e-05 5.29776516e-05 6.99887096e-05
      6.23000305e-05 2.90124462e-05 3.09130883e-05 7.08486114e-05
      1.14994255e-04 1.46848499e-04 1.34607428e-04 1.29844659e-04
      1.44057383e-04 9.28061418e-05 5.61589986e-05 3.80984566e-05
      1.14285094e-05 1.45442709e-05 5.08306839e-05 8.37087355e-05
      9.18658116e-05 1.07916712e-04 9.38454541e-05 7.02912148e-05
      5.40781439e-05 4.34196591e-05 3.93834234e-05 2.98632876e-05
      5.42749785e-06 -1.28618785e-05 -3.13736346e-05 -3.89571433e-05
      -5.39229950e-05 -4.97052351e-05 -1.61562753e-06 8.98277940e-05
      1.36397881e-04 1.36147966e-04 1.02913335e-04 7.23671110e-05
      5.17054686e-05 4.15851064e-05 3.82035687e-05 5.35497056e-05
      7.84608492e-05 9.22748295e-05 1.07172753e-04 7.84692384e-05
      9.06028290e-05 6.14713208e-05 9.10931340e-05 1.57331830e-04
      1.77719412e-04 2.19696449e-04 2.41620466e-04 2.03433752e-04
      1.95363391e-04 1.76165093e-04 1.38846852e-04 8.26264222e-05
      3.45804547e-05 -4.62501657e-06 -6.84259362e-07 7.66024277e-06
      -2.04320859e-05 -4.70482883e-05 -3.92966504e-05 -3.47097084e-05
      -1.80216430e-05 -4.23244383e-05 -1.11232634e-06 5.80510714e-05
      6.13309312e-05 6.81811289e-05 8.19819761e-05 1.31951383e-04
      1.61845033e-04 1.72428277e-04 1.43345780e-04 1.05480649e-04
      6.44723987e-05 3.44510336e-05 2.81427529e-05 -3.06275870e-05
      -7.20771786e-05 -2.10323633e-05 -7.89861515e-05 -6.80143494e-05
      6.98665608e-05 4.23616184e-05 3.00201827e-05 -3.26696972e-05
      8.54799237e-06 1.54082827e-05 4.18041673e-05 5.39206485e-05
      4.86740100e-05 -3.03510533e-05 -1.13189257e-04 -1.04905739e-04
      -6.24555978e-05 1.38535797e-05 4.30385298e-05 1.97088630e-05
      -5.33057173e-05 -1.95558587e-05 1.08005306e-05 4.13335911e-05
      -1.77564525e-05 -1.99162496e-05 4.56230882e-05 7.81786075e-05
      1.14525437e-05 -4.55254594e-05 -5.72554854e-05 -3.91828144e-05
      1.53278379e-05 8.24187919e-06 -2.81149878e-05 -1.17758345e-05
      3.60114791e-05 1.10090397e-04 1.71792184e-04 1.79856012e-04
      1.30978966e-04 1.00021927e-04 3.74072224e-05 3.62792343e-05
      8.18620265e-06 4.42362875e-07 -2.55319519e-05 -6.88660584e-05
      -8.50830402e-05 -1.07747655e-04 -1.30474335e-04 -8.76004415e-05
      -1.66158006e-05 1.61593562e-05 8.23268692e-06 -5.84525078e-05
      -7.61081028e-05 -2.67447704e-05 5.52744386e-05 1.06606640e-04
      1.09501547e-04 6.71074013e-05 5.43951210e-05 4.29341781e-05
      -1.30913204e-05 -4.20089164e-05 -3.97845361e-05 1.17293666e-06
      6.47657871e-05 1.12521644e-04 1.32260771e-04 1.20893863e-04
      7.77090900e-05 -2.27169494e-05 -1.19083357e-04 -1.30695465e-04
      -8.16343672e-05 -1.79660292e-05 5.05430289e-05 6.74250550e-05
      7.26956278e-05 8.35950632e-05 7.87473618e-05 2.31283975e-05
      -5.14643289e-05 -9.55153373e-05 -8.94572804e-05 -4.93475491e-05
      -4.17740011e-05 -6.13086522e-05 -3.97355143e-05 -4.27685809e-05
      -4.92412400e-05 -9.69652956e-06 2.63377260e-05 9.56097938e-05
      1.15857714e-04 1.06995343e-04 6.94608607e-05 4.08335618e-05
      -1.78527152e-05 -1.45553058e-05 2.73464975e-05 5.97925100e-05
      5.36316693e-05 5.94295889e-05 7.99041882e-05 8.65199981e-05
      5.02111034e-05 1.38161367e-05 2.77617564e-05 6.13296579e-05
      1.12390851e-04 1.87063299e-04 1.60353782e-04 1.27876992e-04
      1.11721543e-04 9.34853597e-05 2.57260617e-05 -2.01718867e-05
      -4.53768516e-05 -5.07300902e-05 -3.72006725e-05 -1.87818587e-05
      -7.22331097e-05 -1.09915403e-04 -9.11940660e-05 -4.22575249e-05
      -7.66762059e-06 -2.20585425e-05 1.71564134e-05 6.50683505e-05
      5.96884529e-05 4.98687477e-05 4.28610801e-05 3.30085968e-05
      5.33504135e-05 7.49798346e-05 6.39251812e-05 2.59524768e-05
      -2.46157106e-05 1.08488548e-05 2.07250305e-05 -9.61463866e-06
      -5.52819401e-05 -2.79559099e-05 -7.24867714e-05 -5.36583357e-05
      7.05397615e-05 3.77660217e-05 8.43257840e-06 -4.92198596e-05
      2.99781259e-05 3.20473664e-05 5.93459299e-06 -1.12857115e-05
      -1.68670394e-05 -1.00415891e-04 -1.23729333e-04 -5.22638547e-05
      2.18003350e-07 8.66875052e-06 1.76277954e-05 -3.15541947e-05
      -7.23715420e-05 -1.86548023e-05 2.39993224e-05 -4.06477011e-06
      -1.36750723e-05 -6.94658109e-09 6.49996364e-05 6.75566625e-05
      1.19199785e-05 -3.73432522e-05 -6.59920770e-05 -5.30135039e-05
      -1.09719633e-06 -1.19264541e-05 -4.45123733e-05 -5.12772240e-05
      1.15181592e-05 4.90065358e-05 6.55178374e-05 4.81043171e-05
      -1.33079202e-05 -1.97510462e-06 -1.84351084e-05 3.47023997e-05
      3.38750542e-05 -8.74546004e-06 -3.66915519e-05 -5.53324135e-05
      -8.26043906e-05 -1.18718555e-04 -1.40230812e-04 -1.11763176e-04
      -3.68263463e-05 -1.30657882e-05 -2.41511552e-05 -1.04996136e-04
      -1.17327276e-04 -5.78701183e-05 1.14089598e-05 7.12933761e-05
      8.55908220e-05 7.91116399e-05 7.33752095e-05 6.90300585e-05
      -1.90301271e-05 -9.64478095e-05 -1.30858389e-04 -8.45538452e-05
      6.13969678e-06 8.52649318e-05 1.22340934e-04 1.11711714e-04
      2.56110106e-05 -1.08636639e-04 -2.08279249e-04 -1.81534269e-04
      -8.21345748e-05 3.36994672e-05 5.48220960e-05 3.35466648e-05
      1.61440857e-05 6.56510238e-05 4.76205714e-05 -3.22313717e-05
      -1.28249623e-04 -1.75139998e-04 -1.32295594e-04 -2.50605717e-05
      -3.06942966e-05 -3.99939127e-05 -3.42597050e-05 -4.25992876e-05
      -3.21603438e-05 1.15419452e-05 3.91087669e-05 6.69635629e-05
      7.89784535e-05 6.67724016e-05 1.50693122e-05 -6.59085781e-05
      -7.94258303e-05 -5.49318720e-05 -1.12755670e-05 2.42815422e-05
      1.57343220e-05 4.58824688e-05 4.11153596e-05 2.22216604e-05
      2.16927801e-05 -7.98902511e-06 -1.96336587e-05 -1.61520384e-05
      -8.27867825e-06 5.03581432e-05 7.98450565e-05 6.36433106e-05
      1.09940856e-05 -4.63580400e-05 -8.52877056e-05 -1.27292224e-04
      -1.36955074e-04 -8.89848307e-05 -6.64271211e-05 -7.90169506e-05
      -1.19022967e-04 -1.54552734e-04 -1.13882234e-04 -5.50703044e-05
      -2.55473260e-05 -2.56237690e-05 6.60400565e-06 5.85166599e-05
      8.26857431e-05 3.41083942e-05 -6.68590947e-05 -6.06023314e-05
      -2.48449651e-05 -2.38262692e-05 -4.79504015e-05 -5.51118283e-05
      -7.86248202e-05 -2.25855092e-05 -2.34447834e-05 -3.32846976e-05
      -7.68368045e-05 -4.27190353e-05 -5.68568430e-05 -3.21975640e-05
      8.13611332e-05 2.60676152e-05 -2.72582110e-05 -7.09614105e-05
      6.98149415e-06 1.68583738e-05 -1.99957140e-05 -6.33810341e-05
      -6.48113564e-05 -1.20660494e-04 -1.17423711e-04 -7.85475786e-05
      2.18757614e-05 1.81255291e-05 8.40607015e-07 -5.14137719e-05
      -7.37843511e-05 -4.02382575e-05 5.88623038e-07 -2.49198947e-05
      -2.01986459e-05 -5.09353231e-06 4.51686756e-05 5.63935500e-05
      5.83888959e-06 -1.86189427e-05 -3.36694065e-05 -7.24317142e-05
      -1.38003807e-05 1.73519929e-05 -9.62039849e-06 -5.39801222e-05
      -7.15267561e-06 4.97653236e-05 6.78944489e-05 3.73606963e-05
      -3.49413167e-05 -8.23663722e-05 -1.08682420e-04 1.82117146e-05
      1.71895481e-05 3.62255150e-06 -1.85754034e-05 -4.88736659e-05
      -6.27179397e-05 -8.30895005e-05 -9.90393964e-05 -8.08339028e-05
      -3.08240560e-05 -3.32662376e-06 -3.25483925e-05 -1.00566816e-04
      -9.83458158e-05 -8.24958697e-05 8.41256588e-06 3.10456708e-05
      4.84597622e-05 4.20156466e-05 4.20624419e-05 5.57603998e-05
      1.32894556e-05 -7.49406026e-05 -1.36408533e-04 -1.39141877e-04
      -5.58800493e-05 4.74492263e-05 7.37099399e-05 6.89402877e-05
      -2.98808536e-05 -1.53398665e-04 -1.85325014e-04 -1.27832362e-04
      -2.76535047e-05 5.24648749e-05 3.35695549e-05 -3.08414237e-05
      -4.19899625e-05 -5.49814104e-06 -3.52216489e-06 -9.86942032e-05
      -1.73133871e-04 -1.88288424e-04 -1.01058446e-04 4.67498867e-05
      2.75670045e-05 9.68437689e-06 -5.57312842e-06 -8.93846300e-06
      1.44639025e-05 1.86739562e-05 5.55960651e-05 7.90488775e-05
      6.81011952e-05 -1.63356945e-05 -1.13777431e-04 -1.32685833e-04
      -1.09156666e-04 -6.53076058e-05 2.95655695e-06 5.32185040e-05
      4.33382847e-05 7.06663341e-05 3.44477739e-05 -1.58870498e-05
      -5.15425472e-06 -2.18084824e-05 -3.15496691e-05 -2.60820361e-05
      -4.70239247e-05 3.12084762e-06 2.49499626e-05 -2.64044666e-05
      -6.99463490e-05 -1.10133900e-04 -1.25990002e-04 -1.19645498e-04
      -8.53172387e-05 -1.95624707e-05 -1.86330653e-05 -5.74685218e-05
      -1.18076729e-04 -1.59765070e-04 -1.00806174e-04 -2.99696221e-05
      -1.52533412e-05 8.40926714e-06 5.57417261e-05 1.16071416e-04
      1.09833243e-04 1.43302623e-05 -4.85058481e-05 -5.66331764e-05
      -4.62524258e-05 -4.82110190e-05 -4.09871755e-05 -5.63865506e-05
      -7.96888125e-05 -3.02858152e-05 4.41043267e-06 -1.58299026e-05
      -8.41027213e-05 -5.65659320e-05 -3.53428077e-05 3.53201699e-06
      9.58484306e-05 6.55248823e-06 -4.66695565e-05 -9.91598718e-05
      -4.71558378e-05 -6.60088335e-06 4.41051234e-05 -4.24491600e-06
      -8.06977732e-06 -5.12553270e-05 -9.17735961e-05 -5.53469108e-05
      3.11796248e-05 2.45051197e-05 -1.56592323e-05 -8.96460042e-05
      -1.18133234e-04 -1.15485505e-04 -1.13918410e-04 -4.52742352e-05
      -1.78449773e-05 -3.00305655e-05 2.56776329e-05 5.39256289e-05
      2.05225092e-06 -2.61107889e-05 -8.53205056e-05 -7.31114778e-05
      1.27607791e-05 2.67140113e-05 -4.39189062e-05 -6.80088851e-05
      -7.74162982e-06 3.72898721e-05 6.51913797e-05 4.22391713e-05
      -5.61398474e-06 -3.59264814e-05 -7.32793997e-05 4.47597313e-06
      1.58716030e-05 -1.01726414e-06 -1.80900242e-05 -2.62131052e-05
      -3.08511808e-05 -3.84196574e-05 -5.72434910e-05 -5.72009158e-05
      -2.70830369e-05 -1.96593646e-05 -4.27010746e-05 -5.05888347e-05
      -9.85458464e-05 -5.11497565e-05 5.66769377e-05 2.11304305e-05
      4.01125581e-05 6.75867050e-05 5.75983686e-05 5.67438656e-05
      1.70678650e-05 -4.10703324e-05 -9.24657797e-05 -1.23347287e-04
      -8.23523442e-05 2.00196991e-05 3.33633488e-06 -2.17266177e-07
      -6.49526773e-05 -9.67963570e-05 -5.79701373e-05 -2.66189254e-05
      1.10387911e-04 9.71646950e-05 3.23189743e-05 -4.40840959e-05
      -1.26633704e-05 6.72428996e-06 -3.39027174e-05 -1.33837122e-04
      -1.87949103e-04 -1.48762803e-04 -3.74364172e-05 5.82827524e-05
      4.45672304e-05 4.48822793e-05 2.29823545e-05 4.08268679e-05
      2.95785194e-05 4.46263039e-05 1.22130557e-04 1.29214910e-04
      4.83352815e-05 -4.60589872e-05 -9.30257665e-05 -1.35733586e-04
      -1.39706608e-04 -8.00481794e-05 -1.15788998e-05 2.67281303e-05
      4.94364431e-05 6.90236993e-05 5.41679765e-05 -2.07875037e-05
      -3.46798952e-05 -4.64937875e-05 -1.73179233e-05 -4.61921417e-07
      -2.75899492e-05 -1.83658576e-05 -6.33137970e-05 -9.78941025e-05
      -8.93237811e-05 -9.13089170e-05 -1.05649196e-04 -6.09170456e-05
      -2.14321553e-05 1.73049611e-05 3.11562035e-05 -3.37047072e-06
      -6.82417740e-05 -1.23515492e-04 -8.65073962e-05 -3.38665777e-05
      1.26069949e-07 1.89627062e-05 8.23578812e-05 1.28997839e-04
      4.32462548e-05 -2.49492514e-05 -2.39360215e-05 -1.95403045e-05
      2.47543971e-06 1.43173356e-05 4.83003487e-06 -2.55856830e-05
      -1.16619649e-05 3.30573384e-05 8.19420093e-05 3.41184386e-05
      -7.15033311e-05 -5.04353484e-05 -1.60624149e-05 4.71899766e-05
      9.65044310e-05 4.46869649e-07 -6.58291247e-05 -1.01734389e-04
      -6.01612846e-05 -7.40803034e-06 4.06767867e-05 8.03479052e-05
      6.22760999e-05 2.57834813e-06 -7.55065412e-05 -3.56571800e-05
      5.60268745e-05 9.13621843e-05 8.18901244e-05 1.75534551e-05
      -4.51242158e-05 -5.48217431e-05 -3.85692438e-05 1.11884492e-05
      4.00993349e-06 -2.06433069e-05 4.18284108e-05 8.39064596e-05
      -1.08942240e-05 -7.58507376e-05 -9.94842121e-05 -5.21790862e-05
      1.26878740e-05 -1.04761566e-05 -6.69014262e-05 -1.16882053e-04
      -1.00694640e-04 -1.05127321e-04 1.78704504e-05 3.38793652e-05
      1.81196865e-05 3.26401278e-06 -4.95566383e-05 -2.55084451e-05
      -1.21495145e-06 5.30464649e-06 8.88433897e-06 1.48451782e-05
      1.09930979e-05 7.83340784e-06 -6.86517387e-06 -3.11268523e-05
      -2.63102047e-05 -4.86674107e-05 -4.75884299e-05 -4.48960855e-05
      -7.04804625e-05 -6.26960173e-06 8.50135548e-05 7.29056483e-05
      1.06332955e-04 6.08942828e-05 1.99701353e-05 1.35677583e-05
      1.31891429e-05 -3.65590131e-05 -5.02330040e-05 -6.52173258e-05
      -3.92273359e-05 -8.67970266e-06 -2.64098071e-05 -2.30315582e-05
      -4.12015143e-05 -4.28086132e-05 1.16122976e-06 7.02469106e-06
      8.01126662e-05 1.32963478e-05 -1.23571717e-05 2.15976688e-05
      8.76093691e-06 -2.06170898e-05 -5.79936495e-05 -1.28382453e-04
      -1.39979325e-04 -5.98527222e-05 4.47225393e-05 7.05709390e-05
      5.01565955e-05 3.14515601e-05 1.59372030e-05 1.58119792e-06
      2.02762621e-05 6.52398521e-05 1.17079915e-04 1.60909331e-04
      6.05208879e-05 3.52790903e-06 -1.55238376e-05 -2.03878790e-05
      -3.55081211e-05 -5.83848669e-05 -5.30650177e-05 -1.09937291e-05
      5.20119065e-05 6.24918248e-05 3.89390952e-05 -2.23483185e-05
      -2.40283134e-05 -4.06253603e-05 1.12883063e-05 1.84069268e-05
      2.50087123e-06 -2.57407919e-05 -8.18513799e-05 -4.71943713e-05
      -1.22570355e-05 -3.03373890e-05 -3.71383248e-05 -4.49370054e-05
      -2.01653565e-05 5.90251366e-05 7.14033449e-05 2.86567210e-05
      -1.41655528e-05 -8.20189671e-05 -8.70027652e-05 -6.34365279e-05
      -3.39223079e-05 1.43473017e-06 7.84343356e-05 6.24075037e-05
      -4.31846411e-06 -2.75010570e-05 1.06724647e-05 3.42119929e-05
      5.48938915e-05 -1.80483244e-06 -2.25872227e-05 -1.90829924e-05
      -1.24163444e-05 4.92174258e-05 1.22597441e-04 7.60883559e-05
      -5.08794001e-05 -5.82194189e-05 -1.51166232e-05 6.51034643e-05
      1.25257036e-04 4.47919047e-05 -2.69080629e-05 -5.41405316e-05
      -3.16143223e-06 1.20441027e-05 -1.03602879e-05 -2.58314503e-05
      4.15584946e-05 5.77629216e-05 8.41861111e-05 1.01510210e-04
      1.98181933e-05 -3.71666429e-05 1.28643569e-05 5.40850269e-05
      4.68387843e-05 3.60384838e-05 -3.93208138e-05 -5.56480954e-05
      -1.05739549e-04 -7.56298832e-05 4.55584486e-05 1.33624126e-04
      5.61377492e-05 -4.02846053e-05 -8.48405907e-05 -5.93250297e-05
      -1.80599193e-06 -5.68053929e-06 -2.58262935e-05 -1.15694784e-04
      -1.16060510e-04 -1.15217954e-04 -7.75505177e-05 -4.86655210e-07
      5.75212243e-06 1.00956299e-06 -5.67700772e-05 -5.18995694e-05
      -2.47800617e-05 2.06152490e-05 3.03936577e-05 3.50482806e-05
      5.14244784e-05 4.58211362e-05 9.90132776e-06 -3.09733405e-05
      -1.76332924e-05 -4.36490773e-05 -3.41861924e-05 -4.49550607e-05
      -2.82885885e-05 3.38787795e-05 1.20223129e-04 9.54771604e-05
      9.52589689e-05 7.86385353e-05 8.90284082e-06 4.07205971e-06
      1.02569493e-05 6.41927545e-06 -3.24957291e-05 -1.77766542e-05
      -9.74286195e-07 -5.41270856e-06 -3.13288292e-05 -3.57305944e-05
      -3.57601966e-05 -2.36131673e-05 9.98767609e-06 4.02122078e-06
      4.24451173e-05 4.67521168e-05 9.38194935e-05 1.17621610e-04
      3.55190168e-05 -2.34056533e-05 -1.04606421e-04 -1.49148909e-04
      -1.02454367e-04 6.56786824e-06 7.57808593e-05 7.35444264e-05
      3.58563302e-05 2.10980870e-05 9.74547675e-06 -1.09624693e-06
      2.68119384e-05 9.40500977e-05 1.17970492e-04 1.27722145e-04
      6.85403720e-05 2.48445758e-05 -1.46317470e-05 -3.18072416e-05
      -6.02172440e-05 -5.77560204e-05 -6.74339171e-05 -2.12595241e-05
      4.35165894e-05 5.52081183e-05 2.81057073e-05 -1.75029400e-05
      -5.25471223e-05 -5.94053417e-05 2.00698250e-05 4.12453519e-05
      -4.08063861e-05 -3.76771022e-05 -9.61540645e-05 -3.32001691e-05
      2.37447034e-06 -5.49665458e-07 -6.69619840e-05 -4.95411696e-05
      3.19377068e-05 9.81785633e-05 1.05066392e-04 5.22179726e-05
      -1.34107731e-05 -8.15009116e-05 -8.77176644e-05 -7.31731852e-05
      -6.82543905e-05 -1.65468209e-05 1.43750049e-05 1.45673775e-05
      -3.04338464e-05 -4.26884653e-05 -1.39534723e-05 1.21598696e-05
      -1.29954851e-05 -1.95113498e-05 -1.16711499e-05 -1.90166320e-05
      -3.94402268e-05 4.12701193e-05 1.19446064e-04 4.40537078e-05
      -5.44493669e-05 -7.01855824e-05 -2.76456722e-05 5.84974005e-05
      1.09604684e-04 6.13732191e-05 2.96780581e-05 3.42016974e-05
      7.68894388e-05 4.94695596e-05 -2.71636400e-05 -7.08735752e-05
      -4.73722002e-06 1.10954519e-04 1.82622156e-04 1.36617164e-04
      -2.86319155e-05 -1.22102647e-04 -3.30641778e-05 6.29341375e-05
      4.98367299e-05 3.61772873e-05 -2.03241470e-05 -1.36985342e-04
      -1.87657570e-04 -1.06997890e-04 6.13730008e-05 1.06528933e-04
      5.45741314e-05 6.71522594e-06 -4.87514226e-05 -4.04415732e-05
      8.62977868e-06 4.21204459e-05 3.38115642e-05 -2.64965129e-05
      -5.24798306e-05 -8.28061093e-05 -7.76657034e-05 -1.78855698e-05
      3.82014587e-05 3.96275391e-05 -1.80852458e-05 -2.80748191e-05
      -3.54682161e-05 1.90966348e-05 4.26251645e-05 3.78220138e-05
      5.44954164e-05 5.78490290e-05 2.42564329e-05 -5.00791703e-06
      9.53749441e-06 -1.76285812e-05 -2.24721734e-05 -2.62050635e-05
      -1.43968591e-05 3.29388931e-05 1.09618341e-04 7.19060990e-05
      2.56586245e-05 -2.29959805e-05 -2.36740980e-05 -1.78779192e-05
      3.06997299e-06 7.27471252e-06 -1.01242076e-05 1.11876307e-05
      5.20824551e-06 -1.71815609e-05 -3.88713997e-05 -3.57156532e-05
      -4.11688816e-05 -5.80681044e-05 -3.04589885e-05 -4.98896370e-05
      9.50480990e-06 7.66578160e-05 1.05902880e-04 3.47135647e-05
      -1.78406899e-05 -4.76414643e-05 -9.18229853e-05 -1.09394467e-04
      -6.16247926e-05 2.17400848e-05 7.27857041e-05 6.49227222e-05
      1.57385457e-05 -2.99131061e-05 -3.73635958e-05 -2.71481167e-05
      1.94471904e-05 7.07417348e-05 5.51517696e-05 6.07690854e-05
      1.90801838e-05 -5.20264184e-05 -8.53477395e-05 -1.08650951e-04
      -1.57049057e-04 -1.22868325e-04 -6.57753335e-05 -4.83757321e-06
      1.46477096e-05 2.01824168e-05 2.23591906e-05 -2.53248181e-05
      -4.00305362e-05 -6.49324720e-05 2.07469129e-05 1.12928225e-04
      4.53703615e-06 -1.65781203e-05 -8.79680374e-05 -3.85109524e-05
      2.66277693e-05 -5.04695927e-05 -1.22620884e-04 -1.05371022e-04
      -4.18972013e-06 1.04402898e-04 8.93581382e-05 2.53503422e-05
      -3.94993694e-05 -6.84208571e-05 -5.03203155e-05 -2.99032436e-05
      -2.37325185e-06 1.06097923e-05 1.17898317e-05 3.65187225e-05
      -2.57475149e-05 -6.24478489e-05 -5.25296236e-05 -9.96292001e-05
      -9.63747225e-05 -8.31023717e-05 -1.79323233e-05 1.54560780e-06
      -3.28645292e-05 2.49189707e-05 6.83289618e-05 -2.23888583e-05
      -9.41146573e-05 -9.65909858e-05 -4.67534810e-05 6.02156033e-05
      8.44040551e-05 3.94468370e-05 2.70276196e-05 2.23237130e-05
      1.00220634e-04 8.55758335e-05 8.27552503e-06 -7.08588123e-05
      -9.30061215e-05 8.28350039e-06 7.54027133e-05 1.08303189e-04
      -1.59395113e-05 -6.41713777e-05 2.38823231e-05 1.40030397e-05
      1.68071620e-05 4.10449247e-05 -2.26792927e-05 -5.62108617e-05
      -1.26887244e-04 -4.42941600e-05 1.04388637e-04 8.76309423e-05
      4.92501067e-06 -1.24321850e-05 -2.85867372e-05 -2.36425749e-05
      2.26930515e-05 5.45630937e-05 6.50027641e-06 -3.11701879e-05
      -3.82844519e-05 -5.84533773e-05 -6.18488775e-05 -1.84967466e-05
      2.64467471e-05 5.99429004e-05 -1.22744814e-05 -1.65401198e-05
      -3.13014207e-05 8.46378953e-06 3.05649337e-05 8.88511477e-06
      1.10071114e-05 3.00580232e-05 3.40818478e-05 3.28405731e-05
      3.95608404e-05 1.78707432e-05 1.47647324e-05 4.42121927e-05
      4.42512392e-05 8.46649782e-05 7.71451523e-05 2.84351372e-05
      -1.56107744e-05 -8.24234230e-05 -6.78284632e-05 -5.42907655e-05
      4.33228661e-06 -3.59278283e-06 3.18449202e-05 5.10971768e-05
      2.95142927e-05 1.09148295e-05 -3.41491659e-06 9.12322866e-06
      8.59887223e-06 1.11927638e-05 -6.21180391e-07 -3.51888884e-05
      1.62413398e-05 6.80587691e-05 2.84821490e-05 -1.82542390e-05
      -5.19960558e-05 -6.96290808e-05 -5.94482335e-05 -6.38277343e-05
      -3.23525455e-05 2.38038519e-05 4.55857989e-05 5.56945888e-05
      5.84712370e-06 -4.46556260e-05 -2.08794136e-05 3.08545032e-06
      4.49198451e-05 4.84046323e-05 -4.92224217e-06 1.37322068e-05
      2.85644419e-05 1.14177783e-05 -2.86941759e-05 -1.07478758e-04
      -9.08632283e-05 -5.69309959e-05 -3.67174903e-06 1.09431448e-05
      -1.59947410e-06 -1.38158102e-05 -1.39293988e-05 -3.66179447e-05
      -2.36787073e-05 -3.31055235e-05 7.80685150e-05 1.39244759e-04
      8.09384874e-05 6.07041657e-05 -1.46372904e-05 -2.00804561e-06
      4.24869431e-05 -4.88054175e-05 -6.91149980e-05 -5.47214549e-05
      1.54905447e-05 8.37148400e-05 6.38552883e-05 9.39607276e-07
      -1.33463545e-05 -2.60122233e-05 -2.29558082e-05 -7.70471706e-06
      5.83797664e-05 3.38939790e-05 4.39241885e-05 5.89003575e-05
      -9.50183494e-06 -5.61942106e-05 -1.48139792e-04 -1.96432680e-04
      -1.64923302e-04 -7.21607503e-05 2.27361234e-05 3.59751903e-05
      -4.13811767e-06 1.38650175e-05 2.53920643e-05 -6.12934236e-05
      -8.96053971e-05 -1.02347389e-04 -3.98576267e-05 6.69868532e-05
      6.51579758e-05 1.44263176e-05 -1.01784854e-05 -9.25917902e-06
      7.69335747e-05 9.24055203e-05 3.36689482e-05 -6.46185727e-05
      -1.15807525e-04 -6.66207925e-05 -1.63876157e-05 3.28312854e-05
      1.37699026e-05 -4.70137711e-05 -2.02267565e-05 -1.04094970e-05
      2.86522186e-06 6.16849793e-05 -2.06285058e-05 -4.02385267e-05
      -5.24471761e-05 1.62041924e-05 5.86649912e-05 4.70419182e-05
      -3.09426287e-05 -2.71440604e-05 -1.18142607e-05 -8.18923945e-06
      1.42639033e-06 2.44627008e-05 -1.23886593e-05 -4.03008307e-05
      -1.48424569e-05 -2.10372673e-05 -2.11095303e-05 2.76587343e-05
      5.31083788e-05 6.47376582e-05 4.58698969e-06 5.14876683e-06
      -5.03380807e-06 2.32915827e-05 -5.98958309e-07 -2.72816087e-05
      -1.77016300e-05 1.88318863e-05 3.73263792e-05 3.36536432e-05
      3.11470867e-05 3.25691617e-05 1.63420063e-05 6.49852736e-05
      6.83781400e-05 7.22652767e-05 5.66402741e-05 -5.07623554e-07
      -3.12228367e-05 -5.38354616e-05 -1.27750045e-05 1.29809359e-05
      3.33375874e-06 1.15983476e-05 6.82930186e-05 7.27037404e-05
      5.90784985e-05 4.62651769e-05 2.33649025e-05 2.49566201e-05
      3.91014000e-05 6.00546300e-05 4.62169519e-05 -4.00677391e-06
      4.37698181e-05 1.49152593e-05 3.09661459e-06 -3.34184188e-05
      -7.22389668e-05 -8.45187969e-05 -7.95546002e-05 -8.17991677e-05
      -1.78334758e-05 4.05181709e-05 6.11274518e-05 5.21513357e-05
      1.28514521e-05 -1.32635969e-05 7.86160581e-06 3.86517240e-05
      6.89073859e-05 2.43356299e-05 4.98527072e-07 1.61220414e-05
      7.17840594e-05 9.92857676e-05 3.39547660e-05 -2.31197646e-06
      3.31880801e-06 4.89718877e-05 8.03408911e-05 3.41028936e-05
      9.06686728e-06 -1.67807248e-05 -3.47884634e-05 -5.16499495e-05
      -4.17344781e-05 -6.56191842e-05 2.64843875e-05 7.26691287e-05
      7.71191844e-05 9.58352466e-05 4.30659347e-05 7.30026513e-05
      7.58507813e-05 8.29837700e-06 -6.89947274e-06 1.35982355e-05
      7.09106534e-05 7.25538484e-05 1.96045949e-05 1.57355146e-06
      7.05309913e-06 -1.39992414e-06 1.20249642e-05 3.36874582e-05
      8.03695220e-05 6.70695008e-05 7.76984889e-05 8.83674074e-05
      2.29547259e-05 -5.52440433e-05 -1.61856427e-04 -1.99637565e-04
      -1.33994879e-04 5.95763049e-06 1.02643455e-04 8.85572736e-05
      1.99911574e-05 1.02000722e-05 4.07526471e-07 -9.31860195e-05
      -9.39569290e-05 -1.21335150e-04 -3.59289625e-05 1.02504746e-04
      5.95855599e-05 4.30055707e-06 -5.35171639e-05 -4.96823923e-05
      4.02725382e-05 6.32681549e-05 1.94955319e-05 -8.10237907e-05
      -6.54024188e-05 -4.63824508e-05 -1.90855990e-05 1.36366425e-05
      -2.03775999e-05 -4.14821479e-05 -2.64710525e-05 -6.07192578e-06
      2.16665612e-05 9.33900519e-05 1.24454173e-05 -4.80162817e-05
      -7.52828928e-05 -1.43506786e-05 4.77739195e-05 3.61876882e-05
      -3.46634588e-05 -4.03324739e-05 -2.90708667e-05 -1.88209597e-05
      -3.15878387e-05 -2.00297327e-05 -3.29870854e-05 -4.22308767e-05
      -7.82900406e-06 -2.30641672e-05 -5.16662330e-05 -2.94097135e-05
      4.84522207e-06 1.63730147e-05 -6.67265704e-05 -3.17607992e-05
      -2.69741304e-06 5.45440853e-05 1.52332605e-05 -1.84194305e-05
      -1.52214234e-05 3.94086819e-05 6.94317569e-05 1.60340333e-05
      7.17696184e-06 -1.75424175e-05 -3.16194892e-05 -8.53888287e-06
      5.27164702e-05 3.90765963e-05 5.21883994e-05 4.04655730e-05
      4.45798469e-05 4.69001316e-05 2.90693679e-05 2.55849045e-05
      7.50148683e-06 1.64923986e-05 4.49062500e-05 3.06396869e-05
      4.30600012e-05 4.69280167e-05 1.22461124e-05 2.42267743e-05
      2.66188381e-05 3.77742945e-05 2.73608293e-05 -1.50802925e-05
      2.47653788e-05 2.46431955e-05 -9.39899292e-06 -5.14710700e-05
      -8.49641146e-05 -6.93981347e-05 -5.79596635e-05 -4.13085727e-05
      -2.40271379e-06 3.84155646e-05 7.15028364e-05 8.82461027e-05
      5.89070551e-05 3.54694457e-05 5.43060669e-05 4.20998440e-05
      2.41912076e-05 5.93897039e-06 3.20834260e-05 2.54193073e-05
      9.02132670e-05 6.61026352e-05 1.91407144e-05 -2.17379875e-05
      -1.61108474e-05 6.65725820e-05 1.06902815e-04 9.87688909e-05
      4.60810479e-05 1.62531560e-05 -1.99787009e-05 -2.47305597e-05
      -5.13654450e-05 -7.83647483e-05 -6.94477421e-05 -5.77087758e-06
      2.22194794e-05 4.40763397e-05 1.68331990e-05 5.00666920e-06
      -7.39106054e-06 5.75781451e-06 1.20944442e-05 2.94749152e-05
      4.12380905e-05 2.62169469e-05 -7.59453133e-06 1.07829610e-05
      1.88637750e-05 -1.46359789e-05 1.58879857e-06 4.66419915e-05
      3.10152463e-05 4.85374549e-05 9.09887312e-05 9.61527039e-05
      2.66794414e-05 -5.23016934e-05 -1.40229313e-04 -1.75318055e-04
      -7.46725782e-05 7.08802472e-05 1.47392522e-04 1.17393654e-04
      3.74986994e-05 3.71398492e-05 2.68245287e-07 -7.69669859e-05
      -8.12993094e-05 -1.09644294e-04 -1.23782884e-05 1.39883152e-04
      6.21677755e-05 9.77888521e-06 -5.09282690e-05 -6.11805008e-05
      -9.66385505e-06 2.52968784e-05 -4.89841000e-07 -4.71349376e-05
      -2.30864789e-05 3.70897142e-05 4.66694401e-05 1.54953671e-06
      -6.20110150e-05 -5.55362531e-05 -4.21962286e-05 -1.80552688e-05
      4.10360872e-06 5.69808253e-05 -4.10539428e-07 -3.22157102e-05
      -6.34182143e-05 4.52427275e-06 8.34023012e-05 7.49296451e-05
      4.82554969e-06 -1.79354683e-05 -4.77966278e-05 -5.76098209e-05
      -7.33036140e-05 -5.66269082e-05 -1.78095361e-05 -2.46916534e-05
      2.93209382e-06 -7.95457254e-06 -3.74517331e-05 -1.35204627e-05
      3.44904074e-05 5.24604548e-06 -9.53480921e-05 -3.48827889e-05
      7.75987337e-06 2.88666688e-05 1.25159922e-05 -4.77385174e-06
      1.47911896e-05 6.14939927e-05 6.79132063e-05 -2.76653304e-06
      -3.55276134e-05 -3.57156823e-05 -5.52913407e-05 -6.28339694e-05
      -6.22336665e-06 2.00149025e-05 4.24484278e-05 6.96978677e-05
      8.86624257e-05 8.12075086e-05 4.43336867e-05 3.91001777e-05
      1.85159697e-05 8.51397090e-06 -1.58628573e-05 -3.17347549e-05
      -5.31620572e-06 1.78541450e-05 -1.44104467e-06 1.22602587e-05
      1.65809943e-05 1.82473359e-05 1.63058448e-05 -3.34819015e-05
      2.06286368e-05 4.78405127e-05 2.17031957e-05 -1.21320772e-05
      -2.04609623e-05 -2.41169073e-06 -2.07958078e-06 1.83907105e-06
      -5.10864720e-06 2.75702205e-05 7.99118279e-05 1.09490051e-04
      9.89576365e-05 8.94117256e-05 9.24960041e-05 2.85665337e-05
      -3.94181370e-05 -2.04568169e-05 6.06757785e-05 6.75005940e-05
      7.08450170e-05 2.03207924e-06 -7.75190492e-05 -1.16903720e-04
      -8.46202020e-05 1.86554607e-05 7.84000658e-05 1.00234582e-04
      9.91413035e-05 5.99059786e-05 1.09168777e-05 -3.19660921e-06
      -3.12093543e-05 -6.40780490e-05 -9.46414366e-05 -1.57533796e-05
      2.28311274e-05 2.93228586e-05 -1.53595302e-05 -6.45678665e-05
      -6.60711376e-05 -1.30451863e-05 3.31611991e-05 3.60098384e-05
      -1.02676916e-06 -4.18583186e-05 -4.14776005e-05 1.49757789e-05
      3.05427347e-05 -2.73450732e-05 -3.81466925e-05 -7.64299148e-06
      -1.69924569e-05 2.15613982e-05 8.95598860e-05 9.02672182e-05
      4.30143191e-05 -3.86811953e-05 -1.24349885e-04 -1.31298875e-04
      -6.18203967e-06 9.43367049e-05 1.27835563e-04 7.10331515e-05
      3.48427275e-05 3.76509015e-05 9.04351964e-06 -4.37841554e-05
      -7.04967315e-05 -9.77740565e-05 -1.17754034e-05 1.44465303e-04
      5.79580264e-05 7.60489047e-06 -6.56396587e-05 -8.62834640e-05
      -4.10486828e-05 -1.11352056e-05 1.92683146e-05 -3.22737178e-05
      -2.86210379e-05 4.43198733e-05 1.97056343e-05 -2.61837486e-05
      -9.17907819e-05 -7.54072753e-05 -3.42267303e-05 -4.84056363e-05
      -2.07517132e-05 2.66652569e-05 -3.11213671e-06 -2.80070599e-05
      -5.81193635e-05 3.10093419e-05 1.21845434e-04 1.32494606e-04
      8.15943495e-05 1.26774139e-05 -3.54592303e-05 -5.50477816e-05
      -6.99511293e-05 -5.01641625e-05 -8.16093416e-06 -3.42805879e-06
      4.76221157e-06 3.75027548e-06 4.20057813e-06 2.28001900e-05
      8.16243701e-05 2.62435642e-05 -4.55461377e-05 6.97495352e-07
      1.85796143e-05 4.52997165e-06 -1.55305642e-07 -4.29919692e-06
      1.31442885e-05 4.57577917e-05 4.57317474e-05 -2.38237521e-06
      9.92275886e-07 2.23683619e-05 -1.15800176e-05 -2.65783019e-05
      -2.73076676e-05 2.15381060e-05 8.03473886e-05 1.07088461e-04
      1.02237223e-04 7.78137401e-05 4.68213111e-05 5.23104100e-05
      9.56729400e-06 -1.27945277e-05 -3.30629809e-05 -5.62436944e-05
      -4.08943633e-05 -5.36887796e-08 9.01108524e-06 -2.13944827e-06
      -1.73410062e-05 -3.19600367e-05 -1.82755848e-05 -1.57923914e-05
      4.48159226e-05 3.83366132e-05 6.46351182e-05 6.18866979e-05
      3.32378004e-05 4.09037893e-05 8.79710933e-05 1.78697501e-05
      -9.94466245e-06 3.15203215e-05 6.52774033e-05 8.02084760e-05
      8.95049743e-05 9.04601548e-05 8.39183049e-05 -4.88703336e-06
      -9.75611838e-05 -6.85600753e-05 2.84457528e-05 5.05650096e-05
      4.56847592e-05 -6.02924410e-05 -1.54565118e-04 -1.81874901e-04
      -1.13716123e-04 -1.56585320e-05 3.86636675e-05 7.06330684e-05
      8.86720954e-05 9.17858342e-05 3.72453615e-05 -1.24309770e-06
      -2.70390155e-05 -5.25133000e-05 -6.58818535e-05 1.00729221e-05
      2.60353791e-05 4.33235291e-05 -2.60781781e-05 -7.80570481e-05
      -4.32512788e-05 2.58749660e-05 7.48930324e-05 6.49254289e-05
      -1.03052344e-05 -5.12452825e-05 -3.60229315e-05 3.04265341e-05
      3.70776506e-05 -4.19721619e-05 -5.49952638e-05 -8.25092939e-05
      -4.94364795e-05 -2.45112915e-07 6.57662313e-05 7.60638359e-05
      5.19497262e-05 -5.29815552e-05 -6.89457665e-05 -4.29040338e-05
      6.88724322e-05 9.98608884e-05 7.10297536e-05 -9.30825536e-06
      -5.02518342e-05 1.86550951e-05 3.30083676e-05 6.53391726e-06
      -4.16381408e-05 -8.17592663e-05 2.49065374e-06 1.50094507e-04
      7.27971055e-05 7.27076986e-06 -8.65128968e-05 -1.03374441e-04
      -2.69611246e-05 4.68837497e-05 5.29936769e-05 -2.10270318e-05
      -4.34639696e-05 -3.94522613e-05 -8.19094930e-05 -1.15255156e-04
      -1.36670744e-04 -8.65744805e-05 -3.06346046e-05 -7.45221623e-05
      -4.54821129e-05 -1.03984048e-05 -4.97783840e-05 -4.48893006e-05
      -8.82236054e-05 4.07639988e-07 1.00261146e-04 1.08067034e-04
      7.11571192e-05 1.66112859e-05 -2.58171076e-05 -4.35048132e-05
      -2.03114178e-05 1.22924266e-05 1.38158412e-05 6.01177089e-05
      6.36924524e-05 6.86232670e-05 8.57187697e-05 1.24643178e-04
      1.27053936e-04 6.52015005e-05 7.55489100e-06 2.03084601e-05
      3.01531545e-05 4.09074419e-05 3.73655930e-05 4.81842108e-06
      8.74555371e-06 2.78513944e-05 2.17217494e-05 5.38411905e-06
      1.59156371e-05 1.50773785e-05 -1.35197627e-06 -2.15183063e-05
      -1.89975872e-05 2.85911192e-05 1.02419639e-04 1.01623067e-04
      6.80177764e-05 2.99178628e-05 3.14753233e-05 6.99243174e-05
      3.30519215e-05 -1.61916560e-05 -3.11634794e-05 -2.91568140e-05
      -1.26613477e-05 2.39714682e-05 6.36857876e-05 2.87676557e-05
      -3.30423063e-05 -5.13619707e-05 -1.90873852e-05 -2.17581510e-05
      2.08743386e-05 4.84158627e-05 8.82377426e-05 6.79625227e-05
      2.49008208e-05 1.48406152e-05 6.79940422e-05 6.68592984e-05
      1.51073982e-05 3.07600822e-05 2.46389718e-05 3.13267774e-05
      6.39143036e-05 5.67061943e-05 3.57036406e-05 -7.48971870e-05
      -1.61103017e-04 -1.29577835e-04 -4.16042458e-05 1.23145337e-05
      3.13470482e-05 -7.51375555e-05 -1.26900632e-04 -1.38099771e-04
      -6.00356871e-05 -2.29470447e-06 1.64589601e-05 1.32743835e-05
      3.68642905e-05 8.11892605e-05 5.61892957e-05 -1.41719765e-05
      -3.70023517e-05 -3.89823726e-05 -2.60636407e-05 3.69057852e-05
      -1.03178661e-06 1.17190384e-05 -3.74528609e-05 -6.70533918e-05
      -1.24772787e-05 7.82715579e-05 1.10401168e-04 6.31622024e-05
      -6.52079507e-06 -3.81806931e-05 -1.10439541e-05 4.45060832e-05
      2.90251319e-05 -3.33808348e-05 -4.51147389e-05 -1.26725121e-04
      -9.69408284e-05 -4.57114402e-05 6.44301690e-06 4.87877987e-05
      -1.30333128e-05 -5.45513503e-05 -1.86861362e-05 5.36577973e-05
      1.25327351e-04 9.05059205e-05 3.18523016e-05 -6.54931719e-05
      -1.06156651e-04 -1.43953469e-06 4.36834016e-05 3.98618395e-05
      -2.09328518e-05 -7.03906262e-05 1.46217562e-05 1.53486762e-04
      1.04195715e-04 1.88126796e-05 -8.78202700e-05 -7.88382531e-05
      5.84484005e-05 1.24288563e-04 8.60220753e-05 -8.23727714e-06
      -1.76067297e-05 -2.42294755e-05 -1.08909946e-04 -1.17433243e-04
      -7.27312654e-05 -1.64897174e-05 3.82563412e-05 -4.35370384e-05
      -7.03144724e-06 3.30617586e-05 8.42841564e-06 -1.04663031e-05
      -7.38048402e-05 -6.09693852e-05 -4.89038985e-06 1.78681385e-05
      -8.21046342e-06 -3.57410790e-05 -5.89408228e-05 -5.97482103e-05
      -3.65231899e-05 -1.45676995e-05 -2.64502851e-05 4.95496352e-07
      -1.44811884e-05 -1.18125881e-05 3.68600085e-05 9.42493716e-05
      9.82484853e-05 9.25192508e-05 4.45982660e-05 3.32550990e-05
      2.56733729e-05 5.82540488e-05 2.97989754e-05 -6.76844093e-06
      -1.46633658e-06 -8.02042095e-08 -2.08921301e-05 -3.67799294e-05
      -1.84713572e-05 -1.74649522e-05 -2.00104787e-05 -4.54343353e-05
      -1.97248810e-05 2.89479303e-05 7.33540219e-05 5.89074007e-05
      -4.99954103e-06 -6.85038613e-05 -4.56074195e-05 4.73571345e-06
      -1.65719193e-05 -4.28149797e-05 -5.49297547e-05 -2.99851527e-05
      -3.19202923e-06 4.12560003e-05 7.75112640e-05 2.76448700e-05
      -2.80140866e-05 -3.55655029e-05 -1.41551691e-05 -5.57666935e-05
      1.64375379e-05 7.48593811e-05 1.03094142e-04 6.02306682e-05
      8.76706690e-06 -3.11389958e-05 4.24008249e-05 7.35568829e-05
      4.28964740e-05 3.88771441e-05 -5.54396884e-09 -1.01854503e-05
      3.42053900e-05 1.74633988e-05 -2.62553476e-06 -1.26804254e-04
      -1.98942478e-04 -1.79570008e-04 -8.60663495e-05 2.28634017e-05
      3.71294773e-05 -8.95464327e-05 -1.06297717e-04 -9.52187984e-05
      2.49415607e-05 4.17624797e-05 -8.38126380e-06 -2.98455743e-05
      -2.94621236e-06 3.95998904e-05 4.10680768e-05 -1.66532263e-05
      3.69277654e-06 -2.62740123e-05 -4.03143458e-05 -1.71999491e-05
      -7.17392832e-05 -2.79537744e-05 -6.73729883e-05 -1.09911562e-04
      -2.52656573e-05 8.53175661e-05 1.41622731e-04 8.04855081e-05
      -3.16882483e-06 -2.90248845e-05 -7.19242962e-06 4.29291395e-05
      5.24631796e-05 -1.17798481e-05 -5.03823867e-05 -1.44841368e-04
      -1.27518913e-04 -8.07248944e-05 -1.31693821e-06 6.51111113e-05
      -1.25077540e-05 -7.83586147e-05 -9.15982455e-05 -1.66586560e-05
      8.42441368e-05 7.56811787e-05 1.63682016e-05 -7.31641194e-05
      -1.17499207e-04 -8.20344758e-06 4.09583154e-05 5.66323142e-05
      -9.09828123e-06 -7.26525905e-05 1.69085233e-05 1.53208704e-04
      1.23540231e-04 3.48514077e-05 -8.30020217e-05 -6.46479311e-05
      9.99643089e-05 1.57560382e-04 8.32137448e-05 -1.59417377e-05
      2.02889751e-05 2.15952514e-05 -5.53229074e-05 -8.00391572e-05
      -5.98477673e-05 -5.86959823e-06 1.05282808e-04 -1.24641565e-05
      4.01174584e-05 7.41873009e-05 3.33794414e-05 2.23603656e-05
      -7.20235912e-05 -1.16538140e-04 -6.00119783e-05 -2.61055338e-05
      -4.66556194e-05 -6.18339182e-05 -7.40563773e-05 -4.56306079e-05
      1.24394683e-05 3.19029168e-05 -2.23057286e-05 -4.60977244e-05
      -4.46772210e-05 -7.34213681e-05 -2.13111634e-05 4.69659390e-05
      3.26969566e-05 5.91433454e-05 3.32435120e-05 3.79103876e-05
      4.10910070e-05 4.86787976e-05 2.32346956e-05 -2.23818406e-05
      -2.48831075e-05 -8.74529178e-06 -2.82773581e-05 -5.39760003e-05
      -4.25442922e-05 -2.95704758e-05 -1.34671409e-05 -3.63047184e-05
      -1.72067630e-05 1.29233933e-06 5.12115948e-05 5.19687383e-05
      -1.37473007e-05 -6.97651776e-05 -3.54008189e-05 -1.39628128e-05
      -3.10034120e-05 -2.02889769e-05 -3.90259338e-05 -1.74128218e-05
      2.25596759e-05 5.82734356e-05 8.52267767e-05 3.38273057e-05
      -3.70000598e-05 -4.84715965e-05 -6.62940001e-05 -9.30134847e-05
      1.31554334e-05 1.03037055e-04 1.15162482e-04 6.17891928e-05
      -3.67704779e-05 -6.71524467e-05 2.74577924e-05 8.75474798e-05
      5.40644069e-05 2.59252938e-05 -1.36962453e-05 -1.76382109e-05
      2.41888538e-05 4.01377883e-06 -1.42951967e-05 -1.30303131e-04
      -1.76586225e-04 -1.51293498e-04 -4.94149608e-05 4.25526705e-05
      -1.58855091e-05 -9.63733764e-05 -1.01879079e-04 -2.21425344e-05
      5.45442599e-05 5.54396502e-05 -1.93180767e-05 -4.63363285e-05
      -2.75675993e-05 1.17253603e-06 5.54162125e-06 -1.39533367e-05
      2.83393319e-06 -6.33457676e-05 -8.79076542e-05 -6.83044127e-05
      -1.05617626e-04 -3.38790996e-05 -8.87475035e-05 -1.03716826e-04
      -1.18925000e-05 5.62818277e-05 7.78630492e-05 7.44115387e-05
      1.39273743e-06 -6.34109892e-06 -7.60942066e-06 3.29090544e-05
      7.54226130e-05 2.97218776e-05 -5.63506819e-06 -1.01876853e-04
      -7.41041949e-05 -5.45485018e-05 1.44365904e-05 6.79574732e-05
      3.41990017e-06 -6.58197387e-05 -7.91554412e-05 -1.65056663e-05
      2.97591250e-05 7.90878257e-05 1.09138136e-05 -4.52942695e-05
      -8.46671464e-05 -5.74298110e-06 1.87058467e-05 4.11149413e-05
      -3.41773775e-05 -8.04063820e-05 1.98439229e-05 1.62130062e-04
      1.55188027e-04 1.70132407e-05 -1.20583340e-04 -9.49156092e-05
      6.92753893e-05 1.23037578e-04 6.52046074e-05 -4.14132137e-06
      5.18107081e-05 3.95314091e-05 -6.23763663e-06 -2.75841430e-05
      -1.02064987e-04 -7.45848156e-05 -1.18963976e-06 -4.36018854e-05
      1.57338764e-05 4.33837049e-05 3.76793141e-05 5.93845652e-05
      -5.92411234e-05 -1.25280756e-04 -6.94939226e-05 -4.93286461e-05
      -7.10287568e-05 -6.75186529e-05 -8.22036163e-05 -4.30768814e-05
      5.09364399e-05 7.50255713e-05 1.10096762e-05 -3.62048668e-05
      -5.59227301e-05 -9.41725739e-05 -5.60913504e-05 1.25875249e-05
      -9.66155858e-06 1.59649596e-06 -1.30424196e-05 2.87997464e-05
      6.24051318e-05 7.92515930e-05 1.99172082e-05 -3.27948983e-05
      -1.18192020e-05 5.90874106e-06 -4.63128599e-05 -6.54522664e-05
      -3.92624497e-05 -3.54521435e-05 -1.26641962e-05 -3.67320681e-05
      -2.88181145e-05 1.71455340e-05 9.75652656e-05 8.34917955e-05
      1.56064270e-05 -5.39625362e-05 -4.37340168e-05 -3.55926495e-05
      -2.16776189e-05 9.52334813e-06 -3.28321562e-06 2.11987863e-05
      7.26755898e-05 1.02129357e-04 1.08001455e-04 3.54937147e-05
      -3.57881145e-05 -6.38858328e-05 -1.04988176e-04 -1.24828701e-04
      -9.36610650e-06 1.15674411e-04 1.45214100e-04 7.13374102e-05
      -4.24021928e-05 -8.31878933e-05 4.55052541e-05 1.10577086e-04
      5.52651618e-05 3.49412730e-05 1.29837335e-05 1.78491009e-05
      6.20195933e-05 1.81879750e-05 -1.55767721e-05 -1.06328203e-04
      -1.12361646e-04 -8.82898967e-05 1.18843554e-05 5.28153141e-05
      -3.85349340e-05 -9.36550568e-05 -7.55404326e-05 -1.39754657e-05
      1.53301316e-05 3.61311977e-05 -1.20378600e-05 -5.31260739e-05
      -3.98005504e-05 -6.06460208e-06 -7.72448948e-06 -3.96966680e-05
      -3.01174259e-05 -8.33381564e-05 -7.57681337e-05 -4.74752051e-05
      -2.14947304e-05 2.91260458e-05 -9.12836476e-05 -9.17907309e-05
      -1.59993069e-05 1.44541627e-06 2.73559017e-05 3.10229298e-05
      1.10745004e-05 1.66163700e-05 1.06453417e-05 4.67160207e-05
      9.74095456e-05 5.36809457e-05 4.80769195e-05 -3.66678760e-05
      -1.30039107e-05 1.38710766e-05 2.92253480e-05 1.00095480e-04
      1.46525117e-05 -9.13127951e-05 -7.59463655e-05 -5.74843079e-06
      4.54895053e-05 7.75543158e-05 3.23193344e-05 -1.56839596e-05
      -5.38407076e-05 -1.85604236e-07 1.13355045e-05 3.27512607e-05
      -4.20918586e-05 -7.23412450e-05 3.64561820e-05 1.90580497e-04
      1.46780119e-04 8.79991512e-06 -1.24216429e-04 -1.37792304e-04
      -7.44314048e-06 4.53725297e-05 1.52843186e-05 -3.08529452e-05
      2.85563456e-05 5.63045660e-06 -4.51773267e-05 -6.43680760e-05
      -1.31458990e-04 -7.77706082e-05 -8.68289953e-06 -3.83242514e-05
      4.73862347e-05 6.14576857e-05 2.45011847e-06 1.90812207e-05
      -7.44507997e-05 -9.82828424e-05 -5.62354726e-05 -2.68292351e-05
      -6.17484111e-05 -4.96036228e-05 -6.30671420e-05 -2.62968570e-05
      5.45428557e-05 7.46515507e-05 7.38117978e-06 -4.32313936e-05
      -5.28673518e-05 -9.65844811e-05 -8.83509128e-05 -1.15117400e-05
      -5.93661680e-05 -5.82936227e-05 -1.67908202e-05 3.39653598e-05
      8.33634112e-05 8.93106990e-05 1.87878650e-05 -4.12963527e-05
      -2.58278033e-05 -1.42126619e-05 -5.01815157e-05 -7.90408521e-05
      -4.42737837e-05 -2.22507260e-05 -3.17066178e-06 -1.87514925e-05
      -2.34651143e-05 1.60086602e-05 1.54075708e-04 1.57169445e-04
      4.80117451e-05 -2.71084918e-05 -6.07049988e-05 -6.87497450e-05
      -5.57623607e-05 -2.23328025e-05 -2.04397820e-05 2.26714837e-05
      5.97835460e-05 6.92345202e-05 8.39742133e-05 6.33752788e-05
      2.05211127e-05 -4.68048129e-05 -1.00179604e-04 -1.42323668e-04
      -4.35457587e-05 1.04838960e-04 1.46563427e-04 7.69203034e-05
      -2.76493483e-05 -5.51354715e-05 7.10341601e-06 4.61081290e-05
      -2.08527240e-06 9.67127926e-06 1.18491535e-05 3.31845113e-05
      5.83098263e-05 3.54648437e-05 3.12252814e-05 -5.83890142e-05
      -5.61676534e-05 -4.82319956e-05 4.27031273e-06 2.65856997e-05
      -4.24319878e-05 -1.12288377e-04 -9.40575555e-05 -4.80204362e-05
      1.78758037e-05 8.38701017e-05 3.69968475e-05 -1.04714154e-05
      -1.72134260e-05 1.02843769e-05 3.68742849e-06 -6.46644839e-05
      -4.73637010e-05 -6.64719119e-05 -7.44408098e-05 -2.80462391e-05
      -6.22841242e-07 1.62259184e-05 -5.34619212e-05 -9.19360828e-05
      -5.85537782e-05 -1.76526319e-05 -1.09715684e-05 1.21708072e-05
      1.63546517e-07 -1.27530384e-05 -9.61028582e-06 5.09467245e-05
      8.83659741e-05 4.74061235e-05 2.78305888e-05 -3.29026007e-05
      1.62573019e-06 -1.65236070e-05 3.41272716e-05 6.92727117e-05
      4.18298850e-06 -7.01416284e-05 -4.07790503e-05 1.65341444e-05
      7.17416915e-05 8.27787371e-05 6.34426033e-05 1.17198788e-05
      -5.29787612e-05 1.64882513e-05 2.27482469e-05 2.61450677e-05
      -4.63191282e-05 -6.48092901e-05 7.11543835e-05 2.12572515e-04
      1.57582224e-04 4.49829931e-05 -9.43139967e-05 -1.25523380e-04
      -2.24996569e-07 3.65219676e-05 -9.68443601e-06 -3.36126068e-05
      8.15229942e-06 -1.79275867e-06 -6.34450407e-05 -8.89200674e-05
      -1.20504512e-04 -3.51924136e-05 5.11597173e-05 8.38422966e-06
      9.49188834e-05 1.14830458e-04 1.16644032e-05 1.75567475e-05
      -5.72994250e-05 -8.43394082e-05 -1.38068162e-05 1.69125760e-05
      -4.81751595e-05 -2.08943657e-05 -1.22194415e-05 2.96729900e-06
      4.60543815e-05 2.95225491e-05 -5.05721728e-05 -6.91188179e-05
      -5.13396226e-05 -7.55719520e-05 -6.90481320e-05 -2.92046298e-05
      -8.46218900e-05 -6.20080536e-05 -2.63443017e-05 1.87930364e-05
      6.41533261e-05 6.58089702e-05 2.09369500e-05 -3.10004507e-05
      -1.57114537e-05 -6.78491824e-06 -2.08070524e-05 -2.74768499e-05
      2.61654732e-05 2.52875398e-05 -1.52746798e-05 -8.04209958e-06
      -7.35776939e-06 3.19328210e-05 1.57562783e-04 1.76613103e-04
      7.35989161e-05 -1.90691899e-05 -6.67672284e-05 -6.62151360e-05
      -5.71930868e-05 -7.56134323e-05 -4.82673167e-05 -2.06397290e-05
      4.79830805e-06 2.48596461e-05 6.82672980e-05 5.94096055e-05
      2.63070033e-05 -2.32972125e-05 -9.29055605e-05 -1.46378297e-04
      -5.73473881e-05 5.73148136e-05 4.79972368e-05 3.73660150e-05
      -3.91602007e-05 -8.20080750e-05 -5.19816749e-05 -7.34997593e-05
      -5.74670776e-05 -7.59337070e-07 3.47253990e-05 7.34332280e-05
      8.21555441e-05 5.38333079e-05 6.80827652e-05 7.67667279e-06
      -7.44715944e-05 -6.55644253e-05 -7.59471368e-06 1.02139420e-05
      -2.58288055e-05 -3.33735115e-05 -1.21317869e-04 -8.09891353e-05
      4.48183055e-05 1.02028935e-04 7.37763912e-05 3.12779484e-05
      2.24813357e-05 1.69081159e-05 -3.79529229e-06 -4.91225110e-05
      -6.00515086e-05 -7.84328658e-05 -9.25589411e-05 -2.49550740e-05
      -2.09719406e-06 1.15368803e-05 -7.40470568e-06 -1.94368931e-05
      -2.04406897e-05 2.31151953e-05 1.33996791e-05 1.34720522e-05
      1.08470558e-05 -2.43274390e-05 -1.17428172e-05 5.37975757e-05
      5.99308369e-05 3.57080571e-05 2.55461837e-05 3.66484096e-06
      -8.12089752e-07 -1.04142839e-06 -1.22541599e-06 -7.23123048e-06
      -2.61111586e-06 -1.80753796e-05 1.86627549e-05 5.65657065e-05
      9.35134158e-05 1.30572356e-04 1.04157552e-04 3.72686227e-05
      -2.43864197e-05 3.75628042e-05 3.71799251e-05 7.66866469e-06
      -7.38351082e-05 -7.05112834e-05 7.96862660e-05 2.30564663e-04
      1.66579644e-04 4.36635455e-05 -7.68778118e-05 -8.31351426e-05
      4.11728797e-05 7.03965125e-05 4.50338885e-05 2.56400035e-05
      2.63299917e-05 -1.76825179e-05 -9.13424301e-05 -1.13200767e-04
      -1.42110992e-04 -4.15629838e-05 7.25695500e-05 1.15572057e-05
      8.11022473e-05 1.15671282e-04 1.04071834e-04 -5.86363399e-07
      -9.92031419e-05 -8.50996876e-05 2.73513888e-05 6.51956143e-05
      -3.33754615e-05 -3.68719702e-05 2.20648890e-05 1.93824308e-05
      4.53388566e-05 8.20291189e-06 -9.16964927e-05 -8.91073360e-05
      -3.42465937e-05 -3.85322928e-05 -7.24586280e-05 -8.65814436e-05
      -1.07341686e-04 -6.44724860e-05 -3.17871854e-05 3.97487638e-05
      7.50775507e-05 4.65067787e-05 2.53208436e-05 -8.78718947e-06
      1.58706416e-06 -5.27238808e-06 -2.31713202e-05 -1.69079194e-05
      3.62321152e-05 3.07501577e-05 -4.99499292e-05 -3.50797236e-05
      -4.40348631e-05 4.94957658e-06 1.10734749e-04 1.35818278e-04
      3.86472348e-05 -3.33170428e-05 -4.54501969e-05 -5.17416738e-05
      -6.55810800e-05 -8.00538328e-05 -7.20231910e-05 -6.81011152e-05
      -2.76712726e-05 3.32355085e-05 4.30023902e-05 6.31042640e-05
      4.37240669e-05 8.91473428e-06 -1.10773421e-04 -1.44217440e-04
      -6.03762346e-05 3.65030269e-06 -1.01246960e-05 -1.08426675e-05
      -3.09598508e-05 -4.99459093e-05 -4.19595999e-05 -6.45138716e-05
      -3.43363645e-05 2.49465484e-05 8.10071579e-05 1.53768633e-04
      1.16387258e-04 5.92909491e-05 2.09832524e-05 -3.08909512e-05
      -1.22823738e-04 -9.91121706e-05 8.06904882e-06 6.69693600e-06
      1.66467680e-06 -7.14826674e-05 -9.00157393e-05 -3.33737516e-05
      5.05843927e-05 1.02369027e-04 7.77188980e-05 4.13516100e-05
      4.32147426e-05 3.02285644e-05 -8.46930834e-06 -4.34117865e-05
      -7.10058666e-05 -7.57785383e-05 -8.84424153e-05 -5.20949980e-05
      -3.21436928e-05 -1.90579813e-05 5.77788796e-06 1.87634869e-05
      4.05201536e-05 6.70741210e-05 2.92556833e-05 8.44776059e-06
      -5.63886169e-06 -2.07911798e-05 1.52206439e-05 5.91129465e-05
      4.31846274e-05 1.25296920e-05 -8.33320155e-06 3.41177583e-05
      1.40788170e-05 2.04138223e-06 -1.49676207e-05 -4.77651811e-05
      -9.16707941e-05 -3.61628045e-05 3.48246540e-05 6.37589837e-05
      1.04274681e-04 1.40990727e-04 9.68344830e-05 3.54109397e-05
      4.45638543e-05 9.48862507e-05 3.86454740e-05 -8.14547184e-06
      -1.17616488e-04 -8.72308301e-05 7.67341771e-05 2.11193837e-04
      1.39427444e-04 1.55933521e-05 -8.55701437e-05 -7.16593859e-05
      3.45152839e-05 8.86636917e-05 7.72607673e-05 2.80326331e-05
      -3.55546363e-05 -6.52498347e-05 -1.16157731e-04 -1.37558047e-04
      -1.34389265e-04 -2.66455154e-05 3.64327425e-05 1.24301471e-06
      6.39813370e-05 8.72609817e-05 9.79973338e-05 -4.50724801e-05
      -1.14121925e-04 -8.77955972e-05 1.73690714e-05 4.23622405e-05
      -4.37811759e-05 -7.34059358e-05 1.07230326e-05 3.10527685e-05
      4.92650834e-05 1.72940599e-05 -2.72716552e-05 -1.00199477e-05
      2.48133056e-05 4.75475190e-06 -7.65961886e-05 -1.14042443e-04
      -1.27642139e-04 -1.01423975e-04 -4.63897341e-05 8.96483834e-05
      9.41047838e-05 5.09451820e-05 1.23584496e-05 -2.38211560e-05
      -1.36384988e-05 -2.24634350e-05 -3.76537500e-05 -4.73228429e-05
      1.61708022e-06 9.80047207e-06 -6.33780073e-05 -1.16058589e-04
      -9.31001414e-05 -4.76306413e-05 4.06611689e-05 6.01416396e-05
      -8.72561213e-06 -3.70438647e-05 -6.79410441e-05 -7.27034785e-05
      -5.34285646e-05 -5.46502779e-05 -8.37216503e-05 -7.58725364e-05
      -6.55098256e-06 6.56169286e-05 4.72460197e-05 4.95364766e-05
      1.68472016e-05 -2.63048951e-05 -6.75041156e-05 -1.19356009e-04
      -1.85346362e-05 5.43639653e-05 6.95870540e-06 -1.04121573e-05
      -1.55056368e-05 -6.24063796e-06 -4.62475009e-06 -2.15384916e-05
      -1.17176160e-05 4.64875302e-05 1.14481431e-04 1.51876506e-04
      1.08455708e-04 3.35583391e-05 -4.26856423e-05 -8.09564517e-05
      -9.30927345e-05 -8.96099737e-05 -6.61161312e-06 1.10077099e-05
      5.39549228e-06 -4.96059147e-05 -5.43995848e-05 -1.43365480e-06
      6.23357992e-05 9.30098904e-05 7.08441512e-05 5.78755462e-05
      4.63262004e-05 2.08671900e-05 4.12164218e-06 2.13186672e-06
      -2.81094126e-05 -7.00335586e-05 -2.96602539e-05 -8.04684896e-05
      -8.97177015e-05 -8.08507684e-05 -4.26229017e-05 5.77872788e-06
      4.68036778e-05 5.42537200e-05 4.23864258e-05 1.87885580e-05
      -2.65089648e-06 3.40295956e-05 6.40233266e-05 4.63895594e-05
      1.52013536e-05 -3.72669251e-06 -9.00763325e-07 7.78741367e-07
      7.55036162e-05 3.85979620e-05 -6.14835653e-06 -5.25131181e-05
      -1.03268831e-04 -1.12536545e-04 -7.20268945e-05 -2.68111562e-05
      3.71828064e-05 8.90732481e-05 7.01279932e-05 5.55773404e-05
      3.76244388e-05 1.01420963e-04 5.36913831e-05 -2.81389275e-05
      -1.12180503e-04 -4.77447320e-05 9.81617050e-05 1.96269044e-04
      1.69202351e-04 6.39389909e-05 -2.72352063e-05 -1.99965089e-05
      7.95860833e-05 1.26997475e-04 8.13318402e-05 3.45933513e-05
      8.07641118e-06 -6.52497110e-05 -1.06158477e-04 -6.56257544e-05
      -4.08280976e-05 2.85600436e-05 1.22317171e-04 3.55974589e-05
      4.15578834e-05 3.06721122e-05 6.96586139e-05 -2.63433340e-05
      -7.46687510e-05 -5.01444774e-05 1.84281396e-06 1.19353308e-05
      -5.23220551e-05 -4.18658019e-05 -5.40421797e-06 3.89972483e-05
      6.85116320e-05 4.08142296e-05 2.35099542e-05 5.73788457e-05
      7.91697967e-05 5.50555160e-05 -1.01587584e-05 -8.21376234e-05
      -9.89634354e-05 -7.34907517e-05 -1.23934187e-05 6.89138542e-05
      9.36334982e-05 4.90939674e-05 -2.65729955e-06 -2.91812376e-05
      -6.63902256e-06 2.25959730e-06 -2.19632002e-05 -4.23629390e-05
      -2.20112834e-05 -5.13970463e-06 -2.81789944e-05 -8.06948374e-05
      -1.17632750e-04 -4.08097803e-05 1.58250732e-05 5.09380734e-05
      -8.29665260e-06 -3.07242808e-05 -5.63089561e-05 -5.85754060e-05
      -3.61236707e-05 -2.73758851e-05 -4.17591546e-05 1.56866565e-06
      5.13733830e-05 6.83883845e-05 5.75089362e-05 -2.51715664e-06
      -4.23120437e-05 -9.64854553e-05 -1.02243284e-04 -5.56443301e-05
      3.31280389e-05 8.53421225e-05 2.77650688e-05 -1.70683470e-05
      -1.25511051e-05 8.19306297e-06 7.70031875e-06 -6.65407197e-06
      1.04684534e-06 5.35196159e-05 6.92100148e-05 8.53801248e-05
      4.82019677e-05 6.32400088e-06 -3.20769468e-05 -6.82532554e-05
      -7.11913963e-05 -3.20390063e-05 4.92729669e-06 -1.16478868e-05
      -4.55212648e-06 -4.99376483e-06 8.35452465e-06 3.49669099e-05
      6.24126551e-05 6.30870345e-05 3.91331487e-05 3.05122012e-05
      -1.62412871e-05 -2.71640383e-05 8.41175006e-06 4.01675825e-05
      2.51752681e-05 -1.79422841e-05 -2.16684039e-05 -7.27800143e-05
      -9.01484891e-05 -1.01807993e-04 -6.02451291e-05 1.05842184e-06
      3.30221192e-05 4.07892403e-05 5.44327377e-05 5.55114093e-05
      7.38082381e-05 8.59640204e-05 9.64972132e-05 6.74275652e-05
      1.55064172e-05 2.26496496e-07 1.23231312e-05 1.96243273e-05
      5.76265957e-05 9.24360866e-05 8.16971005e-05 2.88653882e-05
      -3.03949637e-05 -7.88277539e-05 -7.52346241e-05 -3.94155286e-05
      2.30759433e-05 8.90491792e-05 1.09484623e-04 5.40202782e-05
      2.61410914e-05 5.93718214e-05 3.71083070e-06 -4.69764673e-05
      -8.82251843e-05 -1.12064399e-05 1.19175573e-04 1.96410125e-04
      1.83735727e-04 8.24852541e-05 1.61974112e-05 2.85081223e-05
      1.32563568e-04 1.56676513e-04 1.15629147e-04 4.81210263e-05
      1.38698579e-05 -6.43209717e-08 -2.79622218e-05 3.45835106e-05
      1.05519095e-04 1.47993895e-04 1.45863582e-04 7.66126250e-05
      1.31417346e-05 7.06709898e-06 5.79281368e-05 5.63015528e-05
      2.00014238e-05 2.69429324e-06 -6.48576861e-06 5.03607862e-06
      -1.03458592e-06 2.90370508e-06 2.55684863e-05 2.69114153e-05
      2.10146754e-05 6.48135683e-05 1.04659186e-04 1.19111275e-04
      1.10200039e-04 7.85395241e-05 2.30828609e-05 -4.75430315e-05
      -5.44885770e-05 -3.61527304e-06 3.13013879e-05 8.49154239e-05
      9.78165990e-05 4.46769045e-05 -1.12702207e-06 -1.22719057e-05
      5.10147083e-06 2.70429300e-05 9.41150211e-06 -4.03603872e-06
      -9.48922570e-06 1.82381591e-05 4.12415466e-05 1.04541077e-05
      -2.26973279e-05 2.27678385e-07 3.77034194e-05 7.85315715e-05
      4.96197063e-05 1.91137042e-05 -7.57246062e-06 -2.43940103e-05
      1.91947893e-05 4.39969772e-05 2.96195303e-05 3.14263998e-05
      6.27948539e-05 7.62937707e-05 3.96110663e-05 2.80348718e-06
      -5.47453346e-05 -7.66235826e-05 -8.39582863e-05 -3.07240916e-05
      8.22907896e-05 1.36215443e-04 1.11977788e-04 8.62777961e-05
      7.53036657e-05 1.06574851e-04 1.19646880e-04 8.07179676e-05
      2.91375673e-05 1.94367258e-05 2.47852258e-05 1.00915531e-05
      7.94505286e-06 -5.33405114e-07 -9.77597392e-06 -4.49191830e-05
      -5.54440376e-05 -3.90037239e-05 -5.68223404e-05 -2.32495731e-05
      2.92390232e-05 6.68997382e-05 8.97362916e-05 8.76852428e-05
      7.46618462e-05 3.30368530e-05 8.06266428e-07 -2.45385818e-05
      -2.65127674e-05 -1.76982721e-05 1.89211423e-05 3.87954715e-05
      2.36472097e-05 -1.01464184e-05 -3.80599486e-05 -7.82133720e-05
      -9.07476351e-05 -2.49165951e-05 2.45980864e-05 5.96503414e-05
      5.89604497e-05 4.42798482e-05 5.83969486e-05 5.74682272e-05
      5.93243567e-05 8.14080995e-05 8.16802858e-05 4.82836404e-05
      1.17744603e-05 5.86296483e-06 7.15525061e-07 -7.66262929e-06
      -1.82015313e-07 3.46294910e-05 7.50341715e-05 1.10621571e-04
      5.66598064e-05 -2.38064490e-06 -1.78367100e-05 -6.59575278e-07
      3.42699350e-05 6.31432194e-05 5.85956732e-05 -3.61836169e-06
      -5.87354589e-05 -4.38272327e-05 -3.16312544e-05 -4.43733734e-05
      -6.13852535e-05 1.58909279e-05 1.29532782e-04 2.14011918e-04
      1.73103006e-04 7.01880926e-05 7.31164755e-06 2.60911747e-05
      1.14590817e-04 1.03925202e-04 8.97464779e-05 7.03034821e-05
      5.39128596e-05 2.11631268e-05 1.75797286e-05 5.53925165e-05
      1.16828989e-04 1.43587691e-04 1.01334757e-04 1.86112047e-05
      7.75491662e-06 2.73777896e-05 7.97532994e-05 6.80885641e-05
      1.69638461e-05 -3.16609585e-05 -1.90981209e-05 7.75660283e-06
      5.64170341e-06 7.26567123e-06 1.40271759e-05 -2.92286870e-07
      8.28898192e-06 6.60360238e-05 9.97313691e-05 7.39966417e-05
      1.75245368e-05 -2.00938048e-05 -7.42658376e-05 -1.51573244e-04
      -1.17173789e-04 7.57431553e-06 5.43527603e-05 8.22576112e-05
      7.90674458e-05 2.83975314e-05 -4.88316209e-06 -2.27052606e-05
      -3.01979071e-05 -2.07518260e-05 -1.80768075e-05 -9.95226583e-06
      -2.53749363e-06 3.05111462e-06 7.80092523e-06 -1.76416615e-05
      -2.18570967e-05 -1.03915181e-05 1.59708434e-05 4.52383829e-05
      1.01125461e-05 -2.82249639e-05 -6.35630349e-05 -6.76917698e-05
      -1.41136852e-05 1.04310566e-05 2.04971802e-05 3.44147447e-05
      4.55177542e-05 3.25755937e-05 -2.23725374e-06 -2.29510279e-05
      -3.75067211e-05 -4.43573263e-05 -6.64728796e-05 -4.28811727e-05
      2.88145238e-05 7.52347187e-05 6.17322803e-05 5.96219943e-05
      5.71737255e-05 6.41157094e-05 6.60018777e-05 1.94529439e-05
      -4.09853019e-05 -5.38552595e-05 -2.84982270e-05 -2.07431094e-05
      -3.00188949e-05 -4.84296324e-05 -4.16016737e-05 -5.21920920e-05
      -6.58568824e-05 -7.05208731e-05 -7.15898568e-05 -5.73658835e-05
      -2.12696577e-05 3.01237415e-05 5.82147550e-05 4.62660173e-05
      3.76534299e-05 2.27626733e-05 -4.63219612e-06 -1.81650830e-05
      -1.37136130e-05 9.15386954e-06 2.61011264e-05 2.89442887e-05
      -4.46798413e-06 -7.04353733e-05 -8.07027391e-05 -6.38699348e-05
      -2.41674225e-05 5.91673743e-05 1.03960818e-04 1.06903484e-04
      7.05271232e-05 3.41548111e-05 3.09189345e-05 3.32016425e-05
      1.62485976e-05 1.99096721e-05 3.17712511e-05 1.34914080e-05
      -1.77980437e-05 -1.80971765e-05 -1.86181442e-05 -4.86772296e-05
      -6.47041015e-05 -3.85477870e-05 1.55229391e-05 6.57637793e-05
      5.98980805e-05 1.92718962e-05 -2.23328971e-06 1.66226494e-06
      4.35537950e-05 6.49966751e-05 3.69736954e-05 -3.27552007e-05
      -9.75626535e-05 -1.00704070e-04 -5.21075272e-05 -4.98788577e-05
      -4.71846397e-05 1.07197948e-05 1.09962937e-04 2.11905339e-04
      1.60859301e-04 4.27622945e-05 -2.22898634e-05 2.44272906e-06
      8.00316266e-05 8.06967655e-05 5.33172279e-05 3.30054318e-05
      1.70751973e-05 4.64484583e-06 -4.78638731e-06 3.91500689e-05
      6.94001646e-05 5.46468618e-05 6.11304631e-06 -3.03607922e-05
      7.78090634e-06 6.90103334e-05 7.71138002e-05 6.21378640e-05
      -4.16037255e-06 -4.23875863e-05 -3.87705695e-05 -3.37561250e-05
      -3.14283716e-05 -4.61206691e-05 -4.55217632e-05 -1.25920451e-05
      1.43789202e-05 4.67879545e-05 6.03745902e-05 -7.94224979e-06
      -3.39909348e-05 -2.59466469e-05 -2.74687573e-05 -3.73143703e-05
      2.18553469e-05 1.21717378e-04 1.24572791e-04 1.01893333e-04
      9.43226332e-05 4.05816609e-05 -5.19537934e-06 -2.49784080e-05
      -3.95161042e-05 -2.51750080e-05 5.84768122e-06 2.93429966e-05
      3.32910022e-05 1.92668704e-05 -6.53265579e-06 -1.97499867e-05
      -3.58570978e-05 -4.45305814e-05 -7.37270193e-06 1.38973455e-05
      -1.90063147e-05 -3.28741444e-05 -3.63188374e-05 -2.12398936e-05
      2.31367903e-05 2.69473967e-05 4.15536160e-05 5.47777381e-05
      7.44477657e-05 5.99417544e-05 2.36688848e-05 6.92533058e-06
      2.19311460e-05 4.61491254e-06 -4.16951734e-05 -3.51880190e-05
      2.82569454e-05 4.35039365e-05 3.88826666e-05 3.02970893e-05
      3.55233242e-05 2.91122105e-05 3.42551757e-05 1.56229744e-05
      -1.39896292e-05 1.19237609e-06 5.52572783e-05 5.28092605e-05
      2.60656270e-05 -2.48583206e-07 3.71233978e-06 1.47564597e-05
      -6.61548347e-06 -2.66868665e-05 -4.01705147e-05 -2.62818630e-05
      6.67189306e-06 8.49386197e-06 1.42417830e-05 2.18842761e-05
      3.94123126e-05 4.37156195e-05 3.14551799e-05 2.09809459e-05
      1.40869288e-05 1.00181060e-05 1.92034695e-05 1.44173682e-05
      -2.78398820e-05 -2.43089489e-05 6.04070556e-06 2.69248740e-05
      6.54546238e-05 1.26748346e-04 1.66266807e-04 1.51007203e-04
      1.07042346e-04 4.36811024e-05 8.25348991e-07 -1.89297498e-05
      -2.93909761e-05 -1.79355611e-05 9.60320676e-07 -1.01500473e-05
      -2.51910697e-05 -2.64918381e-05 -1.87719997e-05 -4.66665042e-05
      -8.92659227e-05 -8.95220292e-05 -5.36950756e-05 -2.29407251e-05
      -6.76570335e-06 -4.24545433e-05 -5.37444248e-05 -3.60749982e-05
      1.30384542e-05 4.35145448e-05 4.13541920e-06 -6.20530482e-05
      -8.41140718e-05 -8.31055586e-05 -1.10630535e-05 -2.38070679e-05
      -3.05155409e-05 1.29502896e-05 1.00130615e-04 2.08239377e-04
      1.60511641e-04 3.55071716e-05 -3.12954180e-05 -1.99360111e-05
      4.76848618e-05 5.01197283e-05 2.70397522e-05 1.61295102e-05
      -9.41099825e-06 -3.45478365e-05 -1.36711315e-05 3.09262687e-05
      4.81413590e-05 1.87005044e-05 -2.92828736e-05 -2.22780764e-05
      2.41828729e-05 4.99615489e-05 3.26317677e-05 2.12029736e-05
      -2.10381932e-05 -6.94865521e-05 -8.99495426e-05 -1.07745247e-04
      -9.66737789e-05 -7.77741297e-05 -7.55172077e-05 -5.08770390e-05
      -2.66237403e-05 -1.64134763e-05 -1.22899219e-05 -2.14384036e-05
      -2.88813462e-05 3.58728494e-06 6.54771284e-05 8.57541818e-05
      1.21335557e-04 1.55127476e-04 1.63280041e-04 1.33905356e-04
      9.82900019e-05 1.68296719e-05 -5.32980339e-05 -7.64327560e-05
      -7.97903413e-05 -4.87177022e-05 -4.55035888e-06 2.71725185e-05
      3.30804760e-05 1.03364036e-05 -2.51056917e-05 -5.38559725e-05
      -8.31894940e-05 -9.42821716e-05 -6.13557713e-05 -2.89010914e-05
      -2.82248293e-05 -1.23824093e-05 1.75523311e-07 1.79462713e-05
      4.75867128e-05 2.55264313e-05 8.55464441e-06 4.03665217e-06
      4.99986481e-06 1.83033681e-05 8.71614884e-06 -1.67174658e-05
      -1.12363341e-05 -3.40234110e-05 -7.17514267e-05 -5.51723751e-05
      2.45338447e-06 9.33119736e-06 -9.32749845e-06 -1.00252164e-05
      -4.94454889e-06 -2.27308501e-05 6.70828149e-06 8.66021765e-06
      -3.10581127e-05 -1.09156999e-05 4.28020285e-05 6.31458024e-05
      5.74679543e-05 3.27523703e-05 -2.17118827e-06 -4.51443793e-06
      -1.05205872e-05 -2.86952600e-05 -5.26455769e-05 -3.47433343e-05
      -3.46680536e-05 -5.01693103e-05 -6.30940121e-05 -7.04609265e-05
      -4.34821486e-05 7.94299376e-06 1.84077107e-05 1.08862810e-06
      -2.13744061e-05 -4.66782039e-05 -3.81652571e-05 -7.12088422e-06
      -1.61759669e-06 6.11866199e-05 1.19083452e-04 1.21740864e-04
      1.14507355e-04 1.11206115e-04 1.16681222e-04 9.36852011e-05
      6.02621512e-05 8.97123573e-06 -3.59521255e-05 -4.74658664e-05
      -5.36461303e-05 -4.66870697e-05 -3.00531447e-05 -3.48129397e-05
      -5.02943512e-05 -4.62818498e-05 -5.07853547e-05 -6.39483987e-05
      -9.72204944e-05 -1.10398527e-04 -1.16209318e-04 -8.61767767e-05
      -6.41742590e-05 -7.94717780e-05 -8.92647367e-05 -6.43577005e-05
      -2.13957828e-05 1.42294567e-07 -2.65983963e-05 -5.11358667e-05
      -1.63038367e-05 2.70665005e-05 4.94909473e-05 1.82722215e-05
      1.22238444e-05 4.83520016e-05 1.20810379e-04 2.20303351e-04
      1.70513900e-04 6.61663362e-05 -6.56667453e-06 -8.37162315e-06
      -5.30773104e-06 -1.43109728e-05 -3.20475374e-05 -4.30946893e-05
      -7.65517325e-05 -1.13839909e-04 -1.09938715e-04 -7.30864413e-05
      -6.05575733e-05 -7.88742545e-05 -9.94419897e-05 -9.35310527e-05
      -5.88651128e-05 -4.22227058e-05 -6.67962959e-05 -6.94437622e-05
      -1.04548832e-04 -1.49014100e-04 -1.74287357e-04 -1.87986749e-04
      -1.80565257e-04 -1.58242474e-04 -1.45186801e-04 -1.46481601e-04
      -1.43302124e-04 -1.24634273e-04 -9.79103497e-05 -7.25544087e-05
      -3.00881093e-05 1.61436274e-05 8.66104892e-05 1.34434871e-04
      1.22388374e-04 1.04428167e-04 1.15259463e-04 8.67129202e-05
      3.07737537e-05 -3.11439726e-05 -7.98411929e-05 -8.78620704e-05
      -7.86123201e-05 -5.31476762e-05 -1.24553771e-05 9.43285795e-06
      2.67336827e-06 -4.39587566e-05 -6.83827238e-05 -8.65845723e-05
      -9.64383435e-05 -8.56421611e-05 -8.47720730e-05 -5.02283037e-05
      -4.30509062e-05 -1.98076723e-05 7.94984317e-06 2.15662803e-05
      2.44608600e-05 -2.47041007e-05 -5.19468631e-05 -3.11474905e-05
      -1.01741971e-05 -1.92368625e-05 -2.36173746e-05 -2.37168060e-05
      -4.16872317e-05 -6.19461061e-05 -8.32517544e-05 -7.43924684e-05
      -4.17238407e-05 -3.78142904e-05 -6.91718014e-05 -5.45683797e-05
      -5.76465536e-05 -5.66625458e-05 -4.23504134e-05 -6.68654102e-05
      -9.51718612e-05 -8.87037022e-05 -5.14986714e-05 -4.65422308e-05
      -4.46938793e-05 -4.66365054e-05 -6.92255198e-05 -7.40219111e-05
      -5.80192500e-05 -5.96328464e-05 -7.91786224e-05 -6.90495435e-05
      -7.31622786e-05 -1.10060282e-04 -1.04261540e-04 -9.86167070e-05
      -9.87959356e-05 -7.54307694e-05 -5.60651606e-05 -4.74494736e-05
      -6.16682810e-05 -8.98233775e-05 -9.64566789e-05 -5.53823775e-05
      6.33172021e-06 9.93030917e-05 1.49445259e-04 1.36940158e-04
      1.01923935e-04 8.90895026e-05 7.97796529e-05 5.39807079e-05
      1.96904584e-05 4.10395705e-06 -4.93392872e-05 -8.25134412e-05
      -8.96323327e-05 -9.34685449e-05 -7.67227612e-05 -7.01546596e-05
      -7.26996732e-05 -6.74175753e-05 -8.14203449e-05 -9.18357473e-05
      -1.08602580e-04 -1.30464396e-04 -1.34922753e-04 -1.23739417e-04
      -1.09654386e-04 -1.02274076e-04 -8.68495190e-05 -6.48303685e-05
      -3.61691855e-05 -3.26127447e-05 -4.96686589e-05 -4.57861643e-05
      1.44342757e-05 7.14660491e-05 5.03534138e-05 9.40307928e-06
      2.63478705e-05 7.65518562e-05 1.38291332e-04 2.14935601e-04
      1.97208166e-04 1.23488615e-04 4.54767942e-05 4.96546563e-05
      1.04101171e-04 1.12671645e-04 8.79762301e-05 6.56554475e-05
      4.51545384e-05 1.91821946e-05 5.50777577e-06 1.92958159e-05
      2.78969128e-05 1.16203983e-05 -1.31549032e-05 -2.29053171e-06
      6.57967894e-06 1.62661327e-05 -1.44518299e-06 -1.15803050e-05
      -3.25169858e-05 -5.87831018e-05 -5.96670106e-05 -6.94251867e-05
      -7.51325642e-05 -8.48850686e-05 -9.95657756e-05 -9.14909397e-05
      -7.94086591e-05 -7.50704203e-05 -5.82628963e-05 -7.58999249e-06
      2.63692255e-05 6.43035455e-05 9.83836580e-05 1.44114645e-04
      1.15977768e-04 9.22306135e-05 8.11532736e-05 6.31199218e-05
      3.67396096e-05 1.26746647e-06 -1.65679940e-05 -1.47453857e-05
      -7.29386375e-06 1.08924323e-05 3.88722110e-05 4.78982729e-05
      3.64655134e-05 3.72490399e-06 -3.00156371e-05 -3.79017620e-05
      -3.61437815e-05 -3.33649805e-05 -3.59299847e-05 -1.62316646e-05
      -1.70684925e-05 -2.19012454e-05 -6.61344029e-06 1.17915397e-05
      -9.30201350e-06 -4.21475779e-05 -4.90081366e-05 -2.14425800e-05
      1.08374652e-05 1.80232782e-05 1.67948092e-05 2.11553233e-05
      1.83390530e-05 1.32152572e-05 6.29159899e-07 1.86090108e-06
      -1.11739255e-05 -3.38191603e-05 -2.49515815e-05 -1.04001183e-05
      -2.35436146e-05 -2.84044745e-05 -1.15933399e-05 -6.82796326e-07
      -1.43145471e-05 -2.37364238e-05 -2.70333876e-05 -4.38841926e-05
      -4.21776822e-05 -4.28367675e-05 -5.79000953e-05 -5.27148914e-05
      -2.14493612e-05 -1.63921304e-05 -2.02320316e-05 -1.84097862e-05
      -3.07208284e-05 -7.98351903e-05 -8.25576572e-05 -6.20519131e-05
      -5.20355861e-05 -4.71244712e-05 -2.65202834e-05 -5.34396804e-06
      7.15259057e-06 -9.58615419e-06 -2.61923669e-05 -1.43048564e-05
      1.18114503e-05 6.84349216e-05 1.03274528e-04 9.58739984e-05
      8.85153931e-05 1.03617123e-04 8.72043893e-05 7.10321619e-05
      5.02092698e-05 2.86712147e-05 -1.67103826e-06 -4.25349099e-05
      -3.75821110e-05 -3.65904125e-05 -1.58705989e-05 -7.90039940e-06
      -2.21007012e-05 -2.99631556e-05 -4.32794914e-05 -5.14747080e-05
      -4.38023708e-05 -4.61848576e-05 -5.84150221e-05 -8.00761482e-05
      -8.35896499e-05 -8.78547726e-05 -6.82951431e-05 -2.80712757e-05
      -1.74817596e-05 -2.38705434e-05 -1.98484049e-05 6.72858596e-06
      3.90840469e-05 5.91524840e-05 5.96280770e-05 6.12660078e-05
      8.52660014e-05 1.24780898e-04 1.69062827e-04 2.40493173e-04</_></support_vectors>
  <uncompressed_sv_total>172</uncompressed_sv_total>
  <uncompressed_support_vectors>
    <_>
      207. 205. 199. 179. 176. 182. 184. 184. 183. 180. 173. 166. 160.
      154. 153. 156. 157. 156. 149. 150. 151. 150. 146. 146. 147. 148.
      148. 147. 147. 146. 144. 144. 138. 133. 139. 145. 148. 134. 118.
      127. 133. 137. 129. 125. 136. 156. 171. 184. 191. 183. 166. 148.
      143. 146. 147. 151. 150. 140. 138. 143. 145. 142. 142. 143. 141.
      137. 134. 131. 129. 127. 133. 133. 122. 130. 141. 141. 136. 123.
      127. 137. 144. 143. 133. 122. 114. 119. 117. 128. 130. 127. 142.
      145. 135. 138. 143. 145. 134. 116. 112. 120. 125. 129. 136. 142.
      144. 141. 132. 115. 129. 153. 172. 193. 205. 197. 181. 162. 135.
      114. 112. 112. 102. 95. 91. 97. 112. 123. 123. 125. 125. 119. 125.
      127. 125. 123. 120. 123. 136. 143. 142. 138. 135. 142. 142. 148.
      210. 206. 197. 178. 176. 183. 187. 185. 180. 177. 173. 165. 159.
      154. 152. 152. 149. 142. 144. 135. 132. 132. 130. 130. 135. 133.
      132. 133. 131. 129. 127. 130. 129. 116. 122. 134. 135. 117. 97.
      109. 130. 134. 125. 130. 147. 163. 178. 188. 185. 176. 163. 150.
      129. 130. 143. 149. 139. 125. 128. 136. 141. 142. 138. 132. 129.
      132. 136. 133. 124. 111. 124. 129. 125. 135. 135. 138. 131. 122.
      124. 129. 136. 140. 137. 127. 119. 123. 125. 123. 106. 100. 131.
      142. 129. 131. 139. 141. 137. 129. 118. 108. 101. 103. 124. 137.
      125. 125. 114. 100. 129. 155. 175. 198. 207. 201. 187. 165. 127.
      85. 74. 85. 75. 62. 60. 56. 76. 96. 100. 106. 108. 102. 102. 104.
      98. 96. 98. 101. 108. 110. 99. 85. 94. 120. 134. 136. 199. 202.
      194. 180. 180. 185. 186. 185. 181. 177. 173. 165. 159. 157. 153.
      142. 124. 112. 116. 104. 94. 87. 93. 104. 109. 93. 78. 82. 100.
      113. 112. 116. 109. 98. 101. 111. 108. 94. 81. 97. 111. 113. 107.
      126. 153. 170. 179. 179. 175. 172. 161. 144. 101. 95. 119. 130.
      120. 106. 107. 126. 136. 130. 123. 113. 108. 114. 116. 103. 83.
      73. 102. 113. 114. 117. 115. 107. 104. 86. 64. 54. 57. 65. 64. 57.
      52. 52. 52. 50. 43. 50. 91. 123. 125. 128. 127. 131. 128. 120.
      100. 73. 58. 64. 91. 112. 96. 94. 101. 89. 107. 151. 178. 200.
      204. 200. 184. 152. 89. 38. 30. 32. 27. 23. 25. 27. 37. 56. 67.
      89. 94. 93. 92. 94. 89. 88. 95. 96. 85. 69. 57. 55. 67. 89. 105.
      127. 186. 182. 178. 178. 180. 182. 184. 183. 180. 175. 169. 163.
      158. 158. 156. 136. 96. 80. 88. 76. 54. 61. 80. 90. 78. 55. 42.
      52. 83. 110. 114. 112. 99. 83. 85. 98. 92. 86. 80. 82. 86. 77. 73.
      109. 149. 167. 174. 174. 171. 166. 157. 129. 90. 74. 85. 98. 96.
      86. 91. 107. 111. 105. 103. 99. 90. 82. 70. 57. 52. 55. 80. 104.
      98. 97. 88. 76. 71. 65. 48. 37. 36. 43. 44. 40. 36. 35. 46. 60.
      68. 77. 100. 119. 108. 111. 108. 110. 105. 92. 74. 67. 76. 88. 92.
      85. 72. 76. 93. 77. 74. 121. 169. 196. 202. 200. 185. 126. 71. 59.
      62. 59. 58. 54. 53. 59. 67. 72. 77. 91. 101. 102. 101. 100. 95.
      93. 94. 85. 68. 63. 71. 78. 83. 81. 84. 105. 146. 157. 165. 175.
      180. 182. 185. 183. 180. 174. 168. 164. 159. 158. 156. 135. 82.
      66. 62. 54. 70. 100. 119. 88. 48. 44. 73. 101. 111. 109. 102. 105.
      92. 69. 73. 99. 104. 95. 69. 81. 112. 118. 109. 106. 136. 164.
      168. 172. 175. 170. 154. 108. 90. 86. 88. 89. 86. 81. 88. 96. 95.
      90. 90. 92. 79. 55. 59. 92. 104. 103. 104. 93. 98. 85. 61. 58. 99.
      128. 131. 120. 114. 122. 131. 128. 122. 123. 138. 161. 173. 170.
      154. 122. 86. 81. 94. 102. 85. 62. 71. 114. 157. 171. 146. 86. 50.
      75. 78. 63. 63. 78. 152. 186. 198. 196. 186. 162. 146. 158. 171.
      170. 169. 161. 161. 161. 162. 144. 97. 81. 100. 96. 99. 101. 99.
      94. 77. 54. 62. 108. 147. 150. 126. 85. 68. 95. 102. 149. 168.
      175. 182. 184. 183. 182. 179. 173. 168. 165. 162. 160. 156. 136.
      85. 53. 32. 36. 124. 166. 166. 77. 23. 73. 150. 175. 149. 100. 66.
      86. 88. 63. 62. 91. 122. 102. 54. 116. 162. 178. 173. 122. 113.
      146. 163. 171. 174. 166. 146. 91. 83. 101. 110. 97. 92. 92. 96.
      95. 92. 90. 87. 77. 57. 49. 96. 168. 184. 173. 143. 80. 94. 89.
      46. 53. 142. 191. 206. 205. 202. 204. 209. 212. 212. 212. 211.
      215. 214. 199. 168. 93. 59. 66. 94. 112. 77. 44. 88. 161. 196.
      199. 171. 103. 41. 77. 77. 61. 66. 63. 126. 168. 191. 199. 196.
      197. 203. 211. 216. 216. 214. 212. 213. 210. 199. 179. 85. 55. 82.
      80. 85. 94. 93. 79. 50. 38. 95. 179. 198. 187. 151. 88. 59. 91.
      122. 162. 175. 181. 185. 185. 184. 182. 179. 174. 168. 163. 163.
      161. 149. 130. 86. 49. 20. 55. 167. 201. 189. 86. 26. 110. 195.
      204. 176. 126. 94. 104. 98. 74. 62. 80. 124. 83. 41. 145. 196.
      210. 200. 138. 82. 107. 156. 160. 161. 149. 105. 64. 79. 109. 114.
      106. 103. 98. 94. 89. 86. 93. 82. 51. 32. 70. 155. 200. 215. 197.
      153. 72. 84. 90. 39. 46. 155. 210. 224. 223. 220. 221. 226. 227.
      227. 226. 227. 231. 226. 206. 170. 64. 50. 74. 105. 119. 75. 38.
      98. 182. 215. 217. 180. 106. 37. 76. 74. 62. 73. 59. 86. 150. 186.
      201. 204. 209. 219. 224. 225. 225. 225. 225. 226. 228. 216. 183.
      62. 34. 65. 85. 85. 88. 77. 50. 28. 72. 161. 217. 224. 204. 160.
      78. 51. 82. 153. 173. 182. 185. 184. 184. 186. 185. 182. 175. 168.
      164. 162. 161. 144. 96. 73. 114. 121. 150. 199. 222. 209. 162.
      137. 174. 215. 223. 204. 173. 156. 142. 106. 64. 66. 88. 121. 52.
      26. 155. 217. 233. 218. 159. 67. 51. 112. 144. 134. 101. 59. 49.
      86. 113. 109. 112. 111. 99. 92. 89. 81. 81. 63. 31. 56. 141. 200.
      224. 227. 196. 146. 71. 94. 89. 31. 36. 155. 218. 227. 219. 211.
      209. 209. 209. 209. 210. 214. 216. 210. 191. 157. 56. 50. 79. 105.
      119. 78. 39. 100. 186. 222. 223. 180. 104. 33. 70. 75. 66. 80. 63.
      60. 138. 177. 192. 197. 202. 206. 206. 203. 204. 209. 219. 227.
      232. 219. 181. 52. 34. 78. 91. 82. 80. 56. 27. 66. 151. 212. 236.
      229. 197. 148. 64. 57. 83. 156. 174. 185. 187. 186. 186. 187. 187.
      183. 176. 168. 162. 160. 161. 140. 68. 60. 166. 194. 215. 226.
      230. 220. 206. 204. 214. 227. 233. 226. 210. 192. 158. 95. 42. 67.
      103. 118. 39. 25. 160. 225. 240. 226. 179. 75. 21. 67. 110. 99.
      69. 47. 55. 93. 115. 108. 118. 115. 108. 98. 94. 83. 59. 34. 22.
      89. 196. 226. 230. 210. 162. 76. 65. 118. 91. 29. 36. 157. 219.
      228. 208. 179. 162. 162. 169. 171. 168. 162. 164. 169. 155. 135.
      70. 61. 74. 100. 118. 75. 34. 95. 184. 219. 219. 178. 101. 28. 62.
      74. 68. 86. 77. 72. 121. 154. 160. 154. 153. 151. 121. 80. 92.
      162. 211. 225. 229. 211. 162. 36. 48. 87. 77. 72. 65. 35. 30. 116.
      203. 230. 233. 208. 151. 69. 62. 77. 86. 154. 172. 184. 188. 187.
      187. 188. 186. 182. 177. 169. 161. 158. 159. 137. 61. 58. 170.
      208. 227. 232. 231. 222. 209. 204. 214. 228. 236. 231. 214. 191.
      150. 69. 40. 69. 109. 87. 24. 46. 174. 223. 235. 224. 192. 90. 20.
      59. 104. 93. 67. 55. 67. 96. 107. 112. 119. 118. 117. 113. 102.
      79. 43. 20. 76. 172. 218. 234. 217. 163. 57. 30. 70. 126. 99. 33.
      51. 163. 224. 227. 196. 97. 25. 29. 37. 38. 33. 29. 36. 57. 97.
      113. 94. 72. 67. 98. 118. 70. 23. 84. 178. 218. 218. 177. 99. 25.
      55. 69. 68. 89. 90. 83. 86. 87. 69. 48. 42. 38. 22. 7. 15. 83.
      208. 234. 228. 188. 85. 25. 57. 75. 66. 57. 37. 24. 94. 180. 223.
      233. 215. 150. 49. 29. 68. 103. 77. 157. 174. 185. 188. 187. 187.
      189. 187. 183. 177. 169. 161. 157. 155. 138. 82. 64. 151. 184.
      201. 213. 226. 211. 184. 173. 187. 213. 223. 208. 180. 151. 120.
      63. 63. 86. 83. 59. 23. 125. 196. 224. 229. 224. 203. 105. 28. 63.
      108. 94. 72. 65. 78. 103. 107. 116. 119. 117. 117. 123. 101. 64.
      25. 37. 128. 214. 237. 227. 183. 105. 13. 37. 98. 114. 91. 35. 49.
      160. 229. 230. 187. 78. 2. 7. 23. 30. 22. 24. 24. 46. 94. 106. 91.
      65. 65. 98. 117. 70. 24. 83. 178. 220. 221. 178. 98. 22. 51. 68.
      76. 89. 93. 83. 83. 76. 61. 43. 37. 31. 14. 2. 21. 105. 219. 236.
      209. 158. 21. 23. 63. 73. 65. 44. 17. 39. 138. 213. 232. 226. 190.
      113. 17. 34. 78. 101. 78. 161. 177. 188. 188. 187. 187. 188. 187.
      184. 178. 170. 164. 157. 154. 147. 112. 50. 34. 28. 110. 180. 203.
      189. 65. 8. 98. 185. 197. 168. 98. 30. 50. 91. 102. 98. 80. 33.
      22. 151. 211. 228. 225. 219. 205. 123. 43. 53. 88. 82. 73. 73. 94.
      115. 121. 116. 118. 110. 109. 117. 88. 43. 27. 107. 202. 236. 237.
      201. 125. 11. 20. 68. 123. 106. 81. 34. 36. 157. 224. 228. 191.
      81. 9. 31. 63. 73. 61. 57. 68. 115. 122. 113. 79. 63. 74. 101.
      113. 75. 36. 96. 186. 221. 222. 177. 92. 19. 51. 80. 84. 94. 98.
      102. 106. 105. 81. 68. 78. 69. 32. 12. 76. 197. 234. 235. 190. 83.
      6. 35. 80. 81. 62. 32. 15. 111. 195. 227. 227. 203. 128. 27. 32.
      58. 74. 73. 76. 164. 180. 190. 191. 189. 189. 190. 188. 186. 180.
      172. 164. 158. 158. 154. 123. 47. 25. 8. 13. 124. 149. 110. 46.
      15. 43. 107. 137. 96. 43. 50. 90. 125. 111. 106. 85. 27. 30. 173.
      219. 226. 224. 224. 213. 150. 61. 35. 67. 88. 101. 102. 113. 119.
      116. 109. 106. 99. 99. 104. 67. 25. 59. 155. 227. 240. 219. 150.
      35. 8. 41. 102. 130. 105. 69. 25. 31. 155. 219. 223. 191. 87. 18.
      40. 67. 73. 64. 58. 72. 121. 126. 120. 84. 68. 88. 111. 119. 81.
      40. 100. 188. 223. 224. 176. 86. 18. 53. 90. 87. 102. 106. 113.
      125. 111. 88. 82. 87. 67. 31. 46. 134. 224. 243. 220. 162. 17. 16.
      59. 84. 75. 45. 18. 54. 155. 218. 229. 213. 154. 65. 23. 51. 78.
      83. 79. 85. 160. 177. 186. 187. 185. 185. 187. 187. 182. 176. 168.
      160. 156. 156. 149. 115. 71. 49. 26. 8. 14. 26. 73. 133. 116. 48.
      16. 23. 39. 65. 99. 126. 129. 122. 110. 77. 21. 51. 182. 224. 229.
      228. 228. 218. 173. 81. 26. 57. 93. 112. 111. 122. 120. 108. 99.
      93. 98. 104. 89. 40. 24. 117. 208. 235. 228. 182. 92. 8. 26. 61.
      89. 128. 119. 69. 23. 31. 151. 219. 223. 192. 89. 19. 36. 57. 65.
      62. 59. 67. 101. 124. 120. 92. 78. 96. 115. 123. 80. 33. 94. 188.
      225. 226. 178. 89. 19. 55. 87. 91. 110. 116. 110. 114. 110. 96.
      93. 88. 54. 21. 80. 190. 230. 237. 203. 129. 11. 28. 65. 76. 68.
      27. 22. 128. 207. 236. 227. 177. 83. 9. 25. 60. 78. 85. 84. 96.
      133. 163. 173. 173. 171. 170. 174. 174. 169. 159. 151. 148. 151.
      151. 142. 112. 95. 96. 71. 37. 26. 58. 157. 202. 193. 105. 33. 31.
      53. 73. 100. 121. 127. 126. 110. 50. 11. 102. 197. 229. 229. 228.
      233. 224. 186. 87. 13. 41. 87. 113. 111. 123. 124. 116. 96. 97.
      103. 108. 71. 27. 63. 162. 227. 232. 192. 99. 5. 9. 39. 74. 95.
      119. 110. 63. 17. 28. 153. 223. 226. 188. 79. 5. 18. 37. 44. 36.
      33. 49. 103. 128. 123. 99. 79. 92. 111. 121. 74. 27. 92. 190. 226.
      224. 179. 94. 21. 56. 83. 95. 116. 123. 117. 121. 121. 108. 107.
      86. 42. 33. 110. 208. 235. 229. 178. 73. 12. 44. 74. 65. 38. 15.
      74. 175. 230. 236. 207. 104. 8. 6. 26. 54. 70. 82. 93. 102. 74.
      116. 131. 126. 119. 113. 114. 111. 104. 94. 93. 118. 146. 150.
      147. 126. 85. 103. 146. 140. 130. 175. 210. 230. 221. 181. 130.
      109. 96. 74. 92. 116. 121. 124. 110. 30. 7. 153. 212. 234. 222.
      215. 226. 230. 202. 98. 11. 34. 81. 111. 114. 122. 123. 120. 115.
      118. 105. 83. 42. 26. 120. 206. 234. 222. 135. 27. 3. 11. 31. 50.
      78. 105. 105. 60. 16. 32. 157. 226. 232. 193. 87. 13. 22. 39. 39.
      26. 20. 56. 125. 128. 124. 117. 91. 92. 109. 114. 65. 21. 92. 192.
      226. 223. 178. 94. 24. 60. 87. 95. 117. 120. 118. 123. 126. 120.
      119. 81. 32. 68. 163. 219. 233. 213. 152. 25. 19. 61. 90. 55. 19.
      30. 150. 218. 239. 225. 173. 76. 6. 9. 16. 28. 44. 69. 85. 103.
      48. 59. 66. 60. 49. 43. 39. 33. 27. 27. 47. 98. 145. 149. 149.
      133. 63. 73. 178. 209. 218. 217. 228. 239. 233. 219. 205. 181.
      112. 46. 74. 119. 119. 120. 106. 21. 15. 173. 226. 232. 205. 184.
      204. 232. 220. 117. 21. 32. 69. 101. 124. 127. 121. 127. 137. 135.
      107. 55. 20. 71. 166. 224. 231. 213. 155. 90. 82. 87. 81. 43. 46.
      73. 112. 64. 16. 40. 163. 226. 233. 210. 147. 105. 113. 123. 123.
      115. 112. 130. 147. 126. 123. 123. 96. 95. 112. 112. 59. 15. 90.
      192. 227. 224. 175. 86. 25. 65. 94. 98. 119. 120. 121. 120. 117.
      108. 103. 62. 21. 89. 196. 229. 233. 200. 126. 13. 31. 69. 79. 45.
      18. 94. 186. 230. 234. 217. 178. 128. 100. 97. 84. 53. 35. 47. 61.
      94. 44. 42. 41. 40. 37. 35. 34. 32. 26. 26. 49. 99. 145. 149. 145.
      123. 55. 67. 177. 208. 215. 213. 220. 230. 227. 226. 221. 196.
      109. 20. 49. 111. 124. 122. 101. 16. 27. 185. 236. 227. 179. 100.
      158. 230. 225. 143. 51. 30. 63. 96. 126. 130. 133. 145. 153. 144.
      102. 36. 14. 124. 207. 236. 232. 217. 204. 193. 191. 189. 170.
      114. 55. 42. 70. 51. 14. 42. 163. 224. 231. 224. 214. 209. 210.
      210. 210. 212. 212. 195. 162. 125. 118. 121. 91. 94. 115. 118. 62.
      15. 88. 190. 227. 224. 168. 69. 24. 63. 96. 104. 118. 122. 122.
      116. 97. 84. 74. 39. 16. 99. 209. 235. 229. 176. 75. 11. 47. 82.
      74. 34. 20. 142. 210. 232. 226. 218. 214. 212. 212. 205. 181. 144.
      95. 36. 32. 73. 40. 39. 38. 41. 43. 44. 45. 45. 37. 33. 57. 108.
      148. 152. 146. 115. 61. 58. 108. 162. 140. 166. 199. 215. 207.
      205. 211. 200. 118. 23. 37. 91. 128. 126. 97. 14. 40. 193. 235.
      220. 123. 33. 129. 225. 226. 175. 88. 28. 58. 95. 123. 132. 146.
      160. 161. 148. 86. 22. 20. 145. 222. 239. 233. 224. 226. 230. 230.
      228. 217. 188. 132. 44. 26. 26. 10. 41. 164. 223. 232. 231. 235.
      239. 237. 234. 231. 235. 237. 211. 169. 123. 109. 115. 91. 97.
      118. 122. 66. 18. 89. 190. 228. 224. 161. 54. 23. 65. 102. 108.
      118. 123. 123. 114. 89. 83. 65. 29. 17. 107. 217. 237. 221. 154.
      33. 19. 66. 91. 77. 27. 26. 162. 223. 234. 229. 225. 232. 237.
      236. 232. 221. 205. 172. 100. 21. 45. 56. 47. 45. 50. 52. 58. 64.
      58. 41. 28. 50. 111. 154. 153. 144. 113. 59. 35. 54. 130. 67. 65.
      165. 206. 183. 177. 201. 207. 170. 117. 82. 77. 116. 126. 87. 14.
      79. 198. 233. 209. 73. 12. 124. 219. 228. 196. 106. 23. 45. 86.
      121. 129. 148. 162. 162. 148. 68. 14. 45. 164. 229. 237. 229. 224.
      224. 226. 232. 239. 240. 221. 188. 134. 26. 13. 6. 32. 164. 225.
      230. 224. 222. 223. 221. 217. 215. 217. 216. 200. 156. 106. 104.
      114. 98. 107. 121. 123. 67. 20. 91. 192. 229. 224. 158. 47. 23.
      77. 113. 108. 120. 121. 120. 113. 94. 90. 63. 25. 42. 136. 221.
      234. 212. 139. 18. 28. 83. 90. 68. 29. 85. 185. 230. 235. 229.
      223. 222. 221. 217. 219. 227. 228. 207. 162. 61. 25. 148. 133.
      110. 109. 109. 112. 128. 126. 86. 52. 66. 114. 154. 156. 143. 103.
      42. 29. 138. 178. 160. 140. 180. 204. 169. 165. 198. 216. 209.
      189. 135. 64. 82. 120. 73. 15. 146. 209. 233. 202. 57. 6. 119.
      213. 230. 206. 117. 23. 32. 75. 120. 124. 135. 152. 154. 128. 45.
      12. 104. 189. 230. 234. 224. 209. 193. 186. 194. 212. 230. 233.
      220. 190. 119. 19. 6. 31. 164. 227. 229. 211. 192. 179. 174. 176.
      177. 176. 180. 160. 126. 105. 110. 108. 101. 110. 119. 118. 66.
      21. 91. 193. 230. 225. 159. 49. 27. 86. 120. 109. 122. 119. 114.
      111. 101. 90. 55. 24. 87. 184. 230. 233. 197. 124. 16. 45. 81. 78.
      48. 25. 136. 206. 236. 233. 219. 204. 188. 175. 176. 187. 206.
      225. 231. 198. 137. 26. 177. 170. 165. 164. 164. 165. 168. 171.
      167. 155. 143. 138. 142. 150. 140. 87. 26. 36. 177. 201. 198. 174.
      190. 203. 169. 166. 203. 231. 234. 220. 165. 71. 45. 95. 43. 20.
      165. 220. 230. 190. 51. 7. 111. 204. 230. 216. 131. 28. 23. 67.
      117. 117. 103. 99. 96. 83. 32. 10. 125. 202. 234. 232. 209. 175.
      102. 29. 70. 169. 205. 228. 234. 212. 177. 25. 3. 33. 165. 226.
      228. 201. 103. 21. 15. 25. 33. 39. 48. 53. 77. 109. 114. 109. 104.
      103. 108. 105. 61. 20. 93. 196. 230. 223. 156. 47. 26. 79. 112.
      109. 119. 113. 109. 109. 102. 89. 43. 17. 101. 202. 232. 227. 183.
      100. 14. 52. 92. 73. 47. 28. 145. 210. 237. 226. 204. 121. 38. 11.
      20. 80. 175. 215. 234. 214. 168. 42. 177. 170. 170. 169. 168. 171.
      173. 175. 173. 169. 158. 141. 139. 144. 127. 65. 29. 95. 200. 215.
      194. 184. 198. 201. 164. 164. 203. 235. 244. 230. 195. 119. 24.
      42. 18. 26. 184. 228. 223. 178. 43. 3. 103. 192. 229. 222. 150.
      56. 28. 67. 112. 114. 98. 83. 78. 72. 27. 13. 137. 214. 237. 223.
      182. 84. 4. 3. 2. 38. 150. 210. 237. 230. 191. 29. 3. 39. 167.
      231. 229. 187. 78. 4. 7. 16. 24. 28. 33. 55. 83. 100. 95. 113.
      105. 96. 90. 88. 55. 20. 93. 193. 229. 227. 158. 47. 24. 70. 97.
      112. 121. 108. 99. 109. 105. 83. 36. 12. 108. 211. 231. 221. 150.
      31. 18. 58. 97. 89. 42. 30. 149. 215. 240. 216. 160. 61. 4. 2. 3.
      7. 68. 202. 228. 225. 187. 79. 143. 138. 138. 140. 141. 144. 145.
      143. 143. 141. 135. 132. 132. 135. 120. 57. 36. 170. 215. 212.
      182. 184. 204. 197. 104. 127. 203. 228. 233. 226. 198. 134. 29.
      30. 12. 33. 193. 231. 224. 176. 47. 9. 103. 191. 228. 223. 183.
      106. 34. 69. 111. 108. 109. 103. 97. 79. 32. 25. 144. 220. 238.
      214. 103. 10. 6. 15. 17. 8. 46. 195. 232. 233. 196. 33. 3. 30.
      165. 231. 228. 184. 76. 9. 35. 65. 67. 62. 63. 76. 101. 92. 97.
      109. 105. 93. 85. 83. 51. 21. 95. 194. 231. 228. 158. 52. 29. 71.
      93. 106. 121. 109. 95. 107. 105. 72. 27. 22. 119. 214. 228. 213.
      144. 26. 26. 72. 100. 94. 36. 25. 153. 218. 235. 215. 88. 11. 15.
      29. 20. 1. 53. 184. 225. 234. 194. 90. 41. 42. 41. 43. 47. 52. 54.
      50. 47. 53. 77. 109. 126. 129. 118. 55. 45. 184. 219. 202. 147.
      180. 208. 190. 72. 112. 202. 210. 201. 200. 192. 135. 35. 27. 10.
      59. 202. 235. 224. 194. 113. 90. 153. 208. 227. 220. 188. 112. 31.
      65. 101. 97. 108. 113. 100. 88. 35. 28. 149. 219. 236. 208. 90. 7.
      31. 72. 67. 9. 36. 181. 233. 238. 194. 38. 9. 31. 162. 233. 231.
      186. 78. 22. 68. 97. 78. 74. 68. 70. 90. 102. 101. 103. 102. 107.
      104. 100. 60. 25. 98. 195. 229. 224. 156. 49. 30. 70. 86. 93. 115.
      111. 97. 107. 107. 62. 20. 37. 135. 219. 231. 213. 143. 31. 40.
      86. 98. 88. 33. 23. 155. 216. 235. 206. 78. 9. 39. 85. 65. 7. 50.
      176. 224. 238. 196. 79. 33. 35. 32. 33. 35. 39. 43. 40. 33. 33.
      53. 90. 122. 138. 127. 60. 45. 168. 192. 152. 104. 178. 208. 158.
      52. 114. 203. 200. 166. 153. 169. 126. 47. 23. 15. 126. 205. 233.
      225. 219. 213. 209. 214. 223. 230. 222. 194. 116. 28. 57. 101. 98.
      109. 116. 104. 94. 38. 25. 145. 219. 236. 207. 90. 10. 43. 78. 55.
      11. 37. 180. 234. 241. 195. 38. 4. 36. 167. 234. 226. 175. 72. 18.
      50. 64. 52. 60. 66. 71. 88. 100. 103. 97. 102. 119. 121. 119. 68.
